tree
version=v4
num_class=1
num_tree_per_iteration=1
label_index=0
max_feature_idx=25
objective=regression
feature_names=lag_7 lag_14 lag_28 roll_mean_7 roll_mean_14 roll_mean_28 roll_std_7 roll_std_14 roll_std_28 day_of_week day_of_month week_of_year quarter is_weekend is_month_start is_month_end is_snap is_event is_sporting_event is_cultural_event is_national_holiday is_religious_event sell_price price_change_pct price_vs_mean is_price_drop
feature_infos=[0:312] [0:309] [0:293] [0:224.71428571428572] [0:203] [0:224.10714285714286] [0:240.61231413684072] [0:170.33427058658435] [0:120.69386587254242] [0:6] [1:31] [1:53] [1:4] [0:1] [0:1] [0:1] [0:1] [0:1] [0:1] [0:1] [0:1] [0:1] [0.20000000000000001:19.48] [-0.46236558891201301:2.3299999767000004] [0.5064276335295862:1.4723974233807022] [0:1]
tree_sizes=5626 5844 5756 5758 5877 5834 5793 5837 5818 5752 5836 5779 5829 5817 5833 5859 5718 5836 5783 5833 5885 5809 5880 5796 5769 5629 5615 5773 5947 5802 5695 5917 5797 5691 5603 5902 5558 5679 5702 5654 5455 5770 5566 5726 5608 5762 5328 4983 4732 4893 5162 5600 4845 5584 5610 5153 5068 5106 5050 5473 4700 5612 5440 4504 4278 4210 4912 4139 5532 5254 4249 4934 5081 3436 4571 4176 4903 5427 4473 4323 3678 4069 3261 4948 4056 4319 3724 3672 4581 5985 4550 3300 3350 5061 3382 2544 4745 4390 3535

Tree=0
num_leaves=63
num_cat=0
split_feature=4 4 4 4 4 5 5 2 5 2 1 1 5 7 5 1 4 22 2 1 2 2 4 4 22 2 7 11 10 22 5 4 7 5 12 11 2 5 2 2 4 4 4 1 1 2 6 4 10 6 1 1 1 5 8 2 10 6 23 10 22 11
split_gain=2.76467e+07 7.25424e+06 6.46071e+06 1.90149e+06 1.23365e+06 1.0985e+06 1.05821e+06 798778 256283 228742 199635 192110 181560 175420 167496 152991 144154 118667 90916.4 88391.9 81360.6 74445.2 69324.7 57443.7 51243.4 44105 39364.4 35235.7 32536.6 31544.8 29727 29131.4 28623.4 26350.4 42675.4 25462.9 24419.4 24025 23814.9 23122.5 22052.9 20776.4 20212.5 20036.6 20027.8 18604.6 18120.7 18085.4 17975 17004.8 15783.1 13494.5 13096.6 11538.6 9698.07 8991.92 8897.72 7750.69 5603.39 5307.27 3102 1666.69
threshold=12.321428571428575 36.892857142857146 3.3214285714285716 87.500000000000014 21.892857142857146 6.654761904761906 1.1091269841269844 59.500000000000007 16.517857142857146 30.500000000000004 56.500000000000007 139.00000000000003 2.2546296296296302 0.46880723093849624 9.3750000000000018 63.500000000000007 4.8928571428571432 1.2450000000000003 93.000000000000014 32.500000000000007 38.500000000000007 23.500000000000004 26.964285714285719 63.392857142857146 1.3700000000000003 17.500000000000004 10.360135975179189 41.500000000000007 11.500000000000002 1.3700000000000003 4.2596153846153859 1.8214285714285718 4.3228246768534921 29.160714285714288 3.5000000000000004 31.500000000000004 106.50000000000001 3.0892857142857149 1.0000000180025095e-35 95.500000000000014 29.107142857142861 0.75000000000000011 15.250000000000002 8.5000000000000018 51.500000000000007 18.500000000000004 10.932694305653856 6.1785714285714297 10.500000000000002 0.95118973121135653 29.500000000000004 26.500000000000004 17.500000000000004 1.5092592592592595 2.701118660875086e-06 9.5000000000000018 12.500000000000002 5.1915682555833751 -0.0042383512364740994 11.500000000000002 0.22500000000000003 24.500000000000004
decision_type=2 2 2 2 2 2 2 2 2 2 2 2 2 2 2 2 2 2 2 2 2 2 2 2 2 2 2 2 2 2 2 2 2 2 2 2 2 2 2 2 2 2 2 2 2 2 2 2 2 2 2 2 2 2 2 2 2 2 2 2 2 2
left_child=2 4 6 7 8 16 13 10 25 22 20 18 31 54 43 39 30 -13 29 51 -3 48 50 -17 -19 42 47 -12 45 -5 46 53 41 37 -35 -20 -23 -14 -28 -9 -21 -15 -2 56 -24 -16 -4 -18 -10 -30 -6 -11 -27 -8 58 -45 -7 -33 -1 -32 -56 -34
right_child=1 3 5 11 9 14 12 15 21 19 27 17 33 32 28 23 26 24 35 40 -22 36 44 -25 -26 52 38 -29 49 -31 59 57 61 34 -36 -37 -38 -39 -40 -41 -42 -43 -44 55 -46 -47 -48 -49 -50 -51 -52 -53 -54 -55 60 -57 -58 -59 -60 -61 -62 -63
leaf_value=1.9243228631832257 2.4619414334703897 3.5366919632419194 2.039330511362047 6.5012284752222698 2.8625368643647455 2.2470923906306228 1.9251572903661986 4.4681314487091957 2.7913975303725005 3.1391039379493697 4.534499330883941 11.813224603503894 1.9868296700399797 1.8938502262826558 2.412448389820776 5.141984779312768 2.1185290323062351 8.6857535183312287 6.4804320466257153 3.4622021494468855 3.9692862321737663 2.9211292334404604 3.1332942842678531 5.9596112816320765 5.9382245496610331 2.5881286951753197 2.6039779620023991 3.7865064474645527 2.0503168418252211 5.1932768847736446 2.1116805096427496 1.9578294257139062 2.2718103092325457 1.9350351414672737 4.479398303019102 7.9821498606502539 5.1074060784004729 2.0265785670147407 2.1112365197530067 5.3473552629775982 3.7873891562283841 1.9115438299692797 2.5624671566503645 2.2547897176363731 3.60926229818471 2.5617888180912041 2.5032274791892339 2.1690847658436314 2.6574097581724652 2.3481354358259328 3.0461139463205376 3.3792866943672606 2.7453545449630981 1.9440298848478001 1.9943734012684047 2.3215438838585607 2.1966106397274525 2.076277154650807 1.8655654424442207 2.07547542493369 1.8790782263919228 2.5113983313553847
leaf_weight=4081 14293 2832 97377 118 5155 15048 207604 755 3824 1769 1060 29 137391 387669 10797 532 53905 78 63 956 1806 5551 4333 415 29 3116 723 199 492 102 17630 149301 158 40 27 119 11.999999999999998 52558 372 93 1284 290080 7759 14532 239 2600 210 26358 7509 19727 1559 936 2363 132802 585 7781 20937 1393 766905 23844 156550 144
leaf_count=4081 14293 2832 97377 118 5155 15048 207604 755 3824 1769 1060 29 137391 387669 10797 532 53905 78 63 956 1806 5551 4333 415 29 3116 723 199 492 102 17630 149301 158 40 27 119 12 52558 372 93 1284 290080 7759 14532 239 2600 210 26358 7509 19727 1559 936 2363 132802 585 7781 20937 1393 766905 23844 156550 144
internal_value=1.95978 2.94842 1.93358 4.34131 2.7594 2.14689 1.90445 4.13975 2.62308 3.13246 3.858 7.21363 1.95668 1.88231 2.2921 5.06379 2.08634 8.86721 6.63845 3.41627 3.70554 2.7764 3.00799 5.50414 7.98487 2.52895 2.1392 4.41782 2.38099 5.91221 2.05541 1.94062 1.90164 1.99818 2.98228 7.4899 2.92641 1.99783 2.43688 4.56844 3.64934 1.90142 2.49734 2.24083 3.15853 2.44147 2.04033 2.13513 2.70269 2.34089 2.90532 3.22271 2.65607 1.93252 1.86818 2.27808 2.21773 1.95893 1.86588 2.09087 1.87951 2.38751
internal_weight=2.66851e+06 68888 2.59962e+06 8230 60658 312333 2.28729e+06 7692 44427 16231 5897 538 681116 1.60617e+06 91914 1795 220419 136 402 4945 4638 16896 11286 947 107 27531 81358 1259 33616 220 139061 491100 678051 190016 67 182 5563 189949 1095 848 2240 677749 22052 58298 4572 13397 97587 80263 11333 20219 6714 2705 5479 340406 928121 22313 35985 150694 770986 41474 157135 302
internal_count=2668509 68888 2599621 8230 60658 312333 2287288 7692 44427 16231 5897 538 681116 1606172 91914 1795 220419 136 402 4945 4638 16896 11286 947 107 27531 81358 1259 33616 220 139061 491100 678051 190016 67 182 5563 189949 1095 848 2240 677749 22052 58298 4572 13397 97587 80263 11333 20219 6714 2705 5479 340406 928121 22313 35985 150694 770986 41474 157135 302
is_linear=0
shrinkage=1


Tree=1
num_leaves=63
num_cat=0
split_feature=3 3 5 0 5 4 5 1 0 1 13 3 13 4 8 5 5 13 13 0 5 5 5 0 5 24 13 13 3 3 5 23 13 13 8 22 13 5 3 5 5 11 0 5 22 0 5 5 0 6 1 0 6 13 6 0 3 0 0 0 13 23
split_gain=2.49841e+07 6.89175e+06 5.60069e+06 1.95544e+06 1.27435e+06 959276 956057 473542 472480 454324 271940 202398 168186 160483 152111 125622 122487 106346 105162 98001.6 83979.8 78771.6 77912.4 77403.1 72742.7 90608.6 71320.4 64656.4 63884.8 63781.1 60016.9 59749.9 56837 54464.2 40977.3 39861.2 36560.1 33226.4 32839.4 31717.9 30838.6 28557.7 27963.1 27893.4 24306.4 22617 22056.8 20179.9 18574.7 17470.8 16636.5 16014.4 15460.4 13121 12847.7 12626.9 11672.2 11426.2 9896.68 8613.26 5437.21 4852.19
threshold=12.071428571428573 37.214285714285722 3.2910052910052916 78.500000000000014 19.339285714285719 1.1071428571428574 6.8750000000000009 98.500000000000014 30.500000000000004 56.500000000000007 1.0000000180025095e-35 119.85714285714288 1.0000000180025095e-35 2.1785714285714293 0.6214848238282128 4.9107142857142874 41.875000000000007 1.0000000180025095e-35 1.0000000180025095e-35 50.500000000000007 27.553571428571434 14.910714285714286 9.8392857142857171 21.500000000000004 52.392857142857146 0.77171773121253762 1.0000000180025095e-35 1.0000000180025095e-35 6.7857142857142865 26.642857142857149 9.7321428571428594 -0.13722440477742398 1.0000000180025095e-35 1.0000000180025095e-35 13.406693029581112 1.4100000000000001 1.0000000180025095e-35 14.410714285714286 27.214285714285719 45.910714285714292 1.7171428571428573 47.500000000000007 1.5000000000000002 29.160714285714288 1.2450000000000003 22.500000000000004 45.910714285714292 0.86038961038961048 9.5000000000000018 10.932694305653856 46.500000000000007 6.5000000000000009 6.3733074317066754 1.0000000180025095e-35 1.0000000180025095e-35 6.5000000000000009 5.5000000000000009 5.5000000000000009 8.5000000000000018 5.5000000000000009 1.0000000180025095e-35 -0.0042383512364740994
decision_type=2 2 2 2 2 2 2 2 2 2 2 2 2 2 2 2 2 2 2 2 2 2 2 2 2 2 2 2 2 2 2 2 2 2 2 2 2 2 2 2 2 2 2 2 2 2 2 2 2 2 2 2 2 2 2 2 2 2 2 2 2 2
left_child=2 4 5 9 10 14 15 24 17 16 21 35 22 40 54 32 26 29 43 46 -20 38 51 37 41 -26 -3 55 36 -6 48 -24 56 -18 -25 -9 -15 -12 -2 -21 52 -5 -32 -10 -13 -23 -11 59 -14 -30 -19 -8 -7 -42 61 -17 -4 -29 -34 -16 -49 -1
right_child=1 3 6 7 8 13 12 11 18 19 23 44 30 28 47 27 33 50 20 39 -22 45 31 34 25 -27 -28 57 49 -31 42 -33 58 -35 -36 -37 -38 -39 -40 -41 53 -43 -44 -45 -46 -47 -48 60 -50 -51 -52 -53 -54 -55 -56 -57 -58 -59 -60 -61 -62 -63
leaf_value=-0.036126304133375003 0.42706770322096077 1.352893614970351 0.066095367690456472 2.9286984256918105 0.7810354253544749 -0.028572577920762662 0.20238924415020218 5.3534972139049231 1.0462510858518488 1.7957913304158373 0.5923942793933783 8.9945491935360806 0.31889255746365586 0.016653686080907913 -0.061623384331185617 0.12677101341352656 1.8892495859867517 1.1363489446950108 1.4140046382466442 2.4878131396596479 1.940610504322362 0.57058846167847965 3.6195942313330516 0.89427348481347679 7.8430269118717746 3.6359498007950033 1.9839183520226891 0.19747922394842993 0.27165184341183862 1.027313485263001 0.28510913583671221 0.35061892567068753 0.13181898334855427 2.69002144280311 1.486410076943655 4.1308657220972549 0.061950276259815987 0.81476449666116668 1.0626452333415017 3.1082744425132778 -0.0099819931954238973 1.3706695887204763 0.56976340375520129 1.3875654452676454 6.6773086214737152 0.76560750195778748 2.3948310750638937 -0.047388673485867366 0.42735961104100267 0.75645278076636857 1.5474260061327703 0.26545261315144569 0.37799453902384667 0.023544140047587717 -0.071290415898272008 0.17860946828343915 0.11904833137783687 0.26931050006527546 0.20265217441400735 0.044563989434527225 -0.029206959210307727 -0.089196172579746477
leaf_weight=4332 18339 2199 90890 268 9525 323542 21110 184 1372 273 4568 30 8223 155462 455753 41000 2327 2876 1821 321 1323 9891 12.999999999999998 4567 12.999999999999998 474 570 9234 1591 3653 980 20130 35480 240 314 147 62438 2679 205 784 102043 36 7414 1100 70 1762 425 143334 7633 210 278 19294 233 40872 118258 16479 11754 13895 5732 1917 57673 818956
leaf_count=4332 18339 2199 90890 268 9525 323542 21110 184 1372 273 4568 30 8223 155462 455753 41000 2327 2876 1821 321 1323 9891 13 4567 13 474 570 9234 1591 3653 980 20130 35480 240 314 147 62438 2679 205 784 102043 36 7414 1100 70 1762 425 143334 7633 210 278 19294 233 40872 118258 16479 11754 13895 5732 1917 57673 818956
internal_value=1.62959e-06 0.914613 -0.02559 2.26491 0.738926 -0.0525995 0.174112 4.11295 1.04811 1.94804 0.578577 5.45069 0.317143 -0.00315132 -0.0738095 0.120077 1.71551 0.911956 1.44382 2.63488 1.63615 0.498224 0.27257 0.778588 3.37807 3.76411 1.48346 0.170047 0.0320855 0.849378 0.428417 0.352909 0.092076 1.96514 0.932664 4.82461 0.0296334 0.6747 0.434151 2.93045 -0.0197396 2.74931 0.536569 1.19863 7.4547 0.60014 2.16345 -0.0553785 0.371132 0.328572 1.17306 0.23251 -0.0282788 -0.000393783 -0.0867032 0.141636 0.0721603 0.240643 0.141676 -0.0611785 -0.0421722 -0.088917
internal_weight=2.66851e+06 72634 2.59588e+06 8361 64273 2.28661e+06 309261 1222 21948 7139 42325 431 84797 686391 1.60022e+06 224464 5336 16332 5616 1803 3144 30197 60547 12128 791 487 2769 80608 219701 13178 24250 20143 143856 2567 4881 331 217900 7247 18544 1105 466690 304 8394 2472 100 11653 698 658677 15856 1801 3154 40404 323775 142915 941546 57479 102644 23129 41212 457670 201007 823288
internal_count=2668509 72634 2595875 8361 64273 2286614 309261 1222 21948 7139 42325 431 84797 686391 1600223 224464 5336 16332 5616 1803 3144 30197 60547 12128 791 487 2769 80608 219701 13178 24250 20143 143856 2567 4881 331 217900 7247 18544 1105 466690 304 8394 2472 100 11653 698 658677 15856 1801 3154 40404 323775 142915 941546 57479 102644 23129 41212 457670 201007 823288
is_linear=0
shrinkage=0.05


Tree=2
num_leaves=63
num_cat=0
split_feature=4 0 4 0 5 5 5 1 4 0 0 24 9 4 5 7 3 9 5 0 1 9 5 4 5 9 9 5 0 3 0 5 9 5 9 5 9 5 5 5 5 9 8 9 3 11 3 9 5 5 5 0 16 0 0 7 3 8 3 3 8 25
split_gain=2.25601e+07 6.32937e+06 4.99903e+06 1.69322e+06 1.15564e+06 889178 774173 534526 410315 309243 257611 219620 162350 141420 132249 126331 117550 114575 101213 99510.7 87417.9 80874.9 80535.4 76828.1 67099.4 66086.6 63443.1 61033.9 58130.6 57764.2 53059 47465.5 45952.1 41899.4 36624.1 36247.3 36105 35974.6 35119.3 32891.9 29862.2 28981 28970.6 27762 26778.2 25760.5 24859.4 24706.9 23971.4 23030.1 19796.8 19111.3 18925.2 16967.3 14662.9 13833.9 11782 11337.6 10584.4 10424.2 7672.46 4583.57
threshold=11.750000000000002 39.500000000000007 3.1071428571428577 83.500000000000014 20.803571428571434 6.2321428571428585 1.0370879120879124 52.500000000000007 87.500000000000014 24.500000000000004 17.500000000000004 0.89882252525570128 4.5000000000000009 30.178571428571434 2.0741758241758248 0.46880723093849624 5.5000000000000009 3.5000000000000004 29.160714285714288 63.500000000000007 96.500000000000014 4.5000000000000009 9.0178571428571441 57.107142857142868 9.0178571428571441 4.5000000000000009 4.5000000000000009 14.660714285714286 27.500000000000004 27.214285714285719 1.5000000000000002 52.392857142857146 4.5000000000000009 45.910714285714292 4.5000000000000009 16.517857142857146 4.5000000000000009 38.928571428571438 41.875000000000007 45.910714285714292 4.0178571428571432 4.5000000000000009 10.241753481739606 4.5000000000000009 2.2142857142857149 45.500000000000007 23.071428571428573 4.5000000000000009 16.125000000000004 3.8750000000000004 33.732142857142868 5.5000000000000009 1.0000000180025095e-35 11.500000000000002 6.5000000000000009 4.0572821520740305 4.0714285714285721 17.064265348995342 4.0714285714285721 0.78571428571428581 2.701118660875086e-06 1.0000000180025095e-35
decision_type=2 2 2 2 2 2 2 2 2 2 2 2 2 2 2 2 2 2 2 2 2 2 2 2 2 2 2 2 2 2 2 2 2 2 2 2 2 2 2 2 2 2 2 2 2 2 2 2 2 2 2 2 2 2 2 2 2 2 2 2 2 2
left_child=2 4 6 7 10 16 15 13 17 29 27 25 22 46 47 60 26 45 32 37 -13 48 54 -19 53 -10 40 36 34 30 -6 -15 -11 -20 -18 -23 -2 -9 -31 -21 -4 -29 -30 50 59 -5 -3 56 -12 -28 -16 -26 -24 -14 -7 -46 -8 -45 -49 -17 61 -1
right_child=1 3 5 8 9 12 14 19 11 18 21 20 24 31 43 44 28 23 33 39 -22 35 52 -25 51 -27 49 41 42 38 -32 -33 -34 -35 -36 -37 -38 -39 -40 -41 -42 -43 -44 57 55 -47 -48 58 -50 -51 -52 -53 -54 -55 -56 -57 -58 -59 -60 -61 -62 -63
leaf_value=-0.085056414859553869 0.37858991438792405 0.99924977744491317 0.044861761599395797 2.2301492891709009 0.31472331834858802 0.17620168453172141 -0.02960469548189398 1.8706891631881868 7.0911826354059677 0.94135445907972726 0.54006103005826833 3.6165440585136412 0.29424620367984761 1.721315124385165 0.013718226497093342 -0.059690587056139735 0.13839334562145914 2.8487181832533053 1.3560496175613141 2.4520018362400422 5.4905503556983817 0.75937616986651646 0.27945583408468994 4.0702677033961505 0.32775440177501358 12.29275457088764 0.098119164015287419 0.52524203248779211 0.54097904427593602 0.97164472644400179 0.81009314484029604 2.2515680026861347 1.2713336885819313 1.7823600595671925 0.233557754025283 0.99105548605114846 0.55427027722457733 2.43662825772391 1.519303044079404 3.1871231099546375 0.092783862162790401 0.72586663392414286 1.5735897620703199 0.053439571364836791 0.032238521146850135 0.38043525390625005 1.3872213268020577 -0.005144035227404347 0.70799980166127152 0.16394496590786017 1.0867121390409247 0.51629781030391253 0.37083279708702671 0.39784284898701039 0.23228824406661805 0.38015388930737976 0.10521890741671124 0.60596620819901914 0.19391296471240094 -0.04629227252120055 -0.072623966485292388 -0.032840882560538187
leaf_weight=766758 13858 609 75989 95 587 26205 349427 420 28 2485 4391 99 13435 2665 149252 392398 35526 226 3322 238 223 4353 15480 347 1614 11.999999999999998 27466 11117 286 2510 7097 517 1865 713 14137 2793 3715 1007 335 571 56817 2158 89 59908 6011 24 1386 140269 4168 25754 42 8256 8967 5619 21027 299 1627 92 670 230464 156463 4228
leaf_count=766758 13858 609 75989 95 587 26205 349427 420 28 2485 4391 99 13435 2665 149252 392398 35526 226 3322 238 223 4353 15480 347 1614 12 27466 11117 286 2510 7097 517 1865 713 14137 2793 3715 1007 335 571 56817 2158 89 59908 6011 24 1386 140269 4168 25754 42 8256 8967 5619 21027 299 1627 92 670 230464 156463 4228
internal_value=3.12773e-06 0.861222 -0.0245382 2.14755 0.694828 0.155197 -0.0513377 1.88046 4.0225 1.02441 0.560903 5.39119 0.279669 1.60081 -0.00771829 -0.070989 0.10215 3.29976 1.25105 2.52694 4.92738 0.72577 0.239314 3.59428 0.379664 8.91354 0.0838496 0.476947 0.17018 0.843818 0.772297 1.80815 1.08309 1.4318 0.165487 0.850054 0.415759 2.27149 1.03664 2.97416 0.0653644 0.557908 0.789599 0.025572 -0.0536949 1.86342 1.26935 -0.02188 0.621916 0.129976 0.0140274 0.485503 0.312986 0.324816 0.201175 0.0487829 -0.0289795 0.0542969 -0.00419635 -0.0547332 -0.0827211 -0.0847701
internal_weight=2.66851e+06 73934 2.59458e+06 8467 65467 336667 2.25791e+06 7413 1054 18914 46553 362 100603 5177 701287 1.55662e+06 236064 692 8385 2236 322 15705 71679 573 28924 40 186026 30848 50038 10529 7684 3182 4350 4035 49663 7146 17573 1427 2845 809 132806 13275 375 209294 629172 119 1995 491993 8559 53220 149294 9870 24447 19054 47232 6310 351054 60000 140939 622862 927449 770986
internal_count=2668509 73934 2594575 8467 65467 336667 2257908 7413 1054 18914 46553 362 100603 5177 701287 1556621 236064 692 8385 2236 322 15705 71679 573 28924 40 186026 30848 50038 10529 7684 3182 4350 4035 49663 7146 17573 1427 2845 809 132806 13275 375 209294 629172 119 1995 491993 8559 53220 149294 9870 24447 19054 47232 6310 351054 60000 140939 622862 927449 770986
is_linear=0
shrinkage=0.05


Tree=3
num_leaves=63
num_cat=0
split_feature=3 3 4 0 0 5 5 1 2 5 2 7 9 5 2 0 3 9 1 4 9 1 5 9 1 5 1 3 9 11 9 0 24 24 22 0 3 22 9 9 16 0 0 5 5 5 0 2 5 4 1 0 0 0 3 0 0 3 3 5 5 23
split_gain=2.04035e+07 5.46954e+06 4.75008e+06 1.52317e+06 1.06669e+06 836373 791181 388266 379368 357858 274563 150746 145732 134019 121326 114977 102172 96453.2 92966 77913.5 76684.2 76129.3 66473.3 55935.6 55799.1 51178.5 50148.2 49945.3 47442.8 45977.4 43533.1 36018.6 35896.3 35312.2 31644.9 30763.1 29643.3 29073.9 27930.5 26445.7 26032 25521.2 24747.6 24711.4 23656.1 22456.1 21465.1 19916.6 18108.3 16858.8 16618.2 13833.6 13215 12276.3 11301.3 11136.8 9952.83 9864.03 9751.25 7954.34 7918.25 4642.87
threshold=12.500000000000002 38.357142857142868 3.4642857142857149 78.500000000000014 26.500000000000004 1.2158385093167705 7.0178571428571432 114.50000000000001 52.500000000000007 17.660714285714288 32.500000000000007 0.49724515809884878 4.5000000000000009 2.3742236024844723 93.000000000000014 161.00000000000003 5.6428571428571432 4.5000000000000009 48.500000000000007 21.321428571428573 4.5000000000000009 55.500000000000007 10.232142857142859 4.5000000000000009 37.500000000000007 9.9821428571428594 38.500000000000007 24.928571428571434 4.5000000000000009 47.500000000000007 4.5000000000000009 35.500000000000007 0.89882252525570128 0.928232002813555 1.4100000000000001 37.500000000000007 2.6428571428571437 0.22500000000000003 4.5000000000000009 4.5000000000000009 1.0000000180025095e-35 53.500000000000007 43.500000000000007 13.875000000000002 4.5892857142857144 12.732142857142859 1.5000000000000002 81.500000000000014 4.4464285714285721 0.75000000000000011 46.500000000000007 9.5000000000000018 6.5000000000000009 12.500000000000002 4.9285714285714297 36.500000000000007 13.500000000000002 7.3571428571428585 4.7857142857142865 1.0000000180025095e-35 3.0892857142857149 0.023976047772335213
decision_type=2 2 2 2 2 2 2 2 2 2 2 2 2 2 2 2 2 2 2 2 2 2 2 2 2 2 2 2 2 2 2 2 2 2 2 2 2 2 2 2 2 2 2 2 2 2 2 2 2 2 2 2 2 2 2 2 2 2 2 2 2 2
left_child=2 4 5 8 9 11 16 14 18 17 19 59 22 39 29 34 23 43 31 37 27 41 52 44 55 51 -16 -11 57 -5 -21 -3 -17 -23 -9 -20 49 -6 47 54 -24 -10 -26 -2 -4 -19 -27 -15 -25 -13 -22 -14 -8 -38 -7 -12 -30 -18 -41 61 -40 -1
right_child=1 3 6 7 10 13 12 15 21 20 24 36 25 38 26 32 28 45 35 30 50 33 40 48 42 46 -28 -29 56 -31 -32 -33 -34 -35 -36 -37 53 -39 60 58 -42 -43 -44 -45 -46 -47 -48 -49 -50 -51 -52 -53 -54 -55 -56 -57 -58 -59 -60 -61 -62 -63
leaf_value=-0.080696104082421796 0.37435145823091209 1.2162133893284262 0.05700081654974002 3.0253118720565197 0.3338787809420069 -0.020503689540347352 0.19128897983929272 5.2022032949863339 1.8040756846831703 0.65210869634875257 1.196493079658653 -0.056239435038320011 0.30093247263317457 0.025793566657934527 7.2169094289143887 9.3510035705566406 0.12647937845864093 0.52768431354121481 1.5074170686337591 0.97488581968769739 0.94782976922641038 3.6762268166956695 0.28775163110144991 0.11509718661406901 1.5146516546316307 0.25789880180523944 4.0187960179665385 0.85650933036065724 0.22415401794529957 1.569723218418658 1.2893835419777577 1.5538162291333064 6.157154481070382 2.6060027046536294 3.7196777664531364 2.0603166639626393 0.05680307098302239 0.83430361796982 0.054880462985489036 0.0060950542264337944 0.40994685206871362 2.3774663420992996 1.937263918090701 0.48012419182242194 0.10606196647915767 0.70210891046169388 0.52991355741017698 1.2543076589613251 0.18131433150564466 -0.040996942334295738 1.4062980318282332 0.39573059001477395 0.24838497846523439 0.43331638507060877 0.15220763663406436 1.4321980231106612 0.32928984296536062 0.17865282739905514 0.24322969380569184 -0.068519737607298167 0.095435773977227176 -0.012682922872913976
leaf_weight=771498 12131 1362 70046 644 313 318278 20216 155 482 10795 1283 377508 7641 130229 13.999999999999998 20 29924 3209 360 3099 2977 91 11466 25760 855 807 213 4155 14629 63 1734 1982 41 902 65 976 4698 4344 33903 127703 7050 361 628 10189 37850 4413 7428 32 17243 349266 216 7808 20382 226 949 906 2667 13008 434 169697 18667 2518
leaf_count=771498 12131 1362 70046 644 313 318278 20216 155 482 10795 1283 377508 7641 130229 14 20 29924 3209 360 3099 2977 91 11466 25760 855 807 213 4155 14629 63 1734 1982 41 902 65 976 4698 4344 33903 127703 7050 361 628 10189 37850 4413 7428 32 17243 349266 216 7808 20382 226 949 906 2667 13008 434 169697 18667 2518
internal_value=4.39998e-06 0.848749 -0.0225172 2.10187 0.690541 -0.0466495 0.166781 3.72707 1.7983 0.581349 1.08938 -0.065119 0.297775 0.00245264 3.23003 5.3618 0.115408 0.475139 1.55865 0.947121 0.756594 2.40798 0.255778 0.0934321 1.45668 0.40258 4.24685 0.708971 0.170465 2.89801 1.08797 1.41672 7.33833 2.70768 4.78302 1.91257 -0.048086 0.80075 0.0385204 -0.0122878 0.334298 2.05215 1.6948 0.422656 0.0742124 0.628753 0.503292 0.026105 0.141652 -0.0489144 0.979276 0.348867 0.219959 0.0741696 -0.0199898 1.29466 0.240384 0.142291 0.00690016 -0.0783252 0.0692828 -0.0804749
internal_weight=2.66851e+06 68978 2.59953e+06 7731 61247 2.30561e+06 293925 1215 6516 48085 13162 1.67541e+06 82798 630195 934 281 211127 29942 4680 9490 18143 1836 59114 150899 3672 23684 227 14950 60228 707 4833 3344 61 993 220 1336 731698 4657 182831 447364 18516 843 1483 22320 107896 7622 8235 130261 43003 726774 3193 15449 40598 4924 319227 2189 17296 42932 128137 943713 52570 774016
internal_count=2668509 68978 2599531 7731 61247 2305606 293925 1215 6516 48085 13162 1675411 82798 630195 934 281 211127 29942 4680 9490 18143 1836 59114 150899 3672 23684 227 14950 60228 707 4833 3344 61 993 220 1336 731698 4657 182831 447364 18516 843 1483 22320 107896 7622 8235 130261 43003 726774 3193 15449 40598 4924 319227 2189 17296 42932 128137 943713 52570 774016
is_linear=0
shrinkage=0.05


Tree=4
num_leaves=63
num_cat=0
split_feature=3 3 5 0 5 5 4 4 2 13 24 13 8 13 0 0 4 1 2 3 5 3 5 13 23 0 3 5 5 13 1 13 1 5 2 2 5 3 13 5 0 3 3 0 13 8 0 6 0 5 0 0 6 5 0 0 5 0 0 0 13 23
split_gain=1.84213e+07 5.19009e+06 4.01773e+06 1.63621e+06 826159 699107 673486 424295 379684 318511 203182 188469 123997 122957 102187 97062.6 94530 93602.8 92718.4 82937 81869.8 73839.7 61172.7 60815.1 58827.9 50892.6 48398.8 47713.1 46708.6 44896.4 43982.6 37966.6 37812.8 34765.7 31366 29922.8 28699.2 25013.6 24599.5 23909.7 23788.8 23269.9 21954.9 21474.9 20857.8 20201.7 18563.7 17907 17323 15035.1 13810.3 13173.6 12779.5 12128 9750.01 8562.67 8306.78 8291.51 8110.79 7226.34 5030.55 3972.62
threshold=11.785714285714286 34.071428571428577 3.1964285714285716 73.500000000000014 18.482142857142861 6.5178571428571432 1.1785714285714286 87.500000000000014 46.500000000000007 1.0000000180025095e-35 0.89882252525570128 1.0000000180025095e-35 0.68525668152887642 1.0000000180025095e-35 48.500000000000007 36.500000000000007 2.1785714285714293 91.000000000000014 61.500000000000007 25.214285714285719 4.6607142857142874 24.928571428571434 9.8392857142857171 1.0000000180025095e-35 -0.13722440477742398 27.500000000000004 6.0714285714285721 8.8750000000000018 13.875000000000002 1.0000000180025095e-35 39.500000000000007 1.0000000180025095e-35 56.500000000000007 13.625000000000002 1.0000000180025095e-35 88.500000000000014 29.160714285714288 62.857142857142868 1.0000000180025095e-35 38.928571428571438 37.500000000000007 60.785714285714292 17.500000000000004 5.5000000000000009 1.0000000180025095e-35 13.406693029581112 22.500000000000004 10.932694305653856 13.500000000000002 0.90097402597402609 4.5000000000000009 4.5000000000000009 1.0000000180025095e-35 1.7928571428571431 4.5000000000000009 5.5000000000000009 1.7928571428571431 5.5000000000000009 3.5000000000000004 5.5000000000000009 1.0000000180025095e-35 -0.0042383512364740994
decision_type=2 2 2 2 2 2 2 2 2 2 2 2 2 2 2 2 2 2 2 2 2 2 2 2 2 2 2 2 2 2 2 2 2 2 2 2 2 2 2 2 2 2 2 2 2 2 2 2 2 2 2 2 2 2 2 2 2 2 2 2 2 2
left_child=2 4 6 8 11 20 12 18 15 21 23 28 52 22 41 39 44 -12 34 46 31 35 50 -9 -24 33 38 51 42 54 -17 58 -16 -13 -5 -6 -23 -20 -18 -3 -21 -10 -2 -29 53 -27 -11 -28 -30 57 -7 -15 61 -8 -22 -31 -46 -14 -4 -33 -51 -1
right_child=1 3 5 7 9 13 16 10 14 19 17 25 49 27 32 30 26 -19 37 40 29 36 24 -25 -26 45 47 43 48 55 -32 59 -34 -35 -36 -37 -38 -39 -40 -41 -42 -43 -44 -45 56 -47 -48 -49 -50 60 -52 -53 -54 -55 -56 -57 -58 -59 -60 -61 -62 -63
leaf_value=-0.02862150444462393 0.33139985105034342 1.01425117799673 0.044569881594573667 3.1890044895385175 0.64864065529729642 0.15502246819237794 -0.02859043993987433 6.4309652692696151 1.624046050264061 0.877435739272176 3.0900384526274034 0.51151115137028647 -0.051480315381786483 0.19963651123467951 2.0709133528605839 1.3445011992306459 0.012286060840435693 4.8994528503111567 2.8444751741097183 1.2310519767655539 0.093014131585947957 0.79146423155155587 3.6619629214360163 11.346693135775054 0.296261657036132 0.81314903479313561 0.20100451860468077 0.28835195158648796 0.41863013729482879 0.15783620905712228 1.7232101116977265 0.097873591820641828 2.6029417397847912 0.6984326716568876 2.1445517674962118 3.1540437590082488 1.0233237884518458 3.5622099756713563 0.050709469292278486 1.317807387548283 1.5626819337884541 2.2591464183705576 0.50265025572426925 0.46327974995873711 -0.0058894376787853239 1.3185021611074605 1.0954604620434183 0.68074662640049421 0.53250776411306244 -0.039717343100764024 0.21173588825154585 0.31574562149977309 -0.060710176879900338 -0.0062414436928171892 0.13312786954384379 0.21758442920300453 0.02331908931572501 0.046748942919299805 0.073188316985211124 0.14175653241376279 -0.022746827321200251 -0.076506751490730718
leaf_weight=4356 14487 1789 59102 93 10423 16406 216159 28 1021 1573 111 5511 441809 3050 672 1584 145180 248 240 1150 32364 3844 11.999999999999998 11.999999999999998 18853 1861 2396 2193 6345 10525 1547 26056 744 4567 422 10.999999999999998 2077 346 58417 1051 1084 177 2154 8913 86908 224 2728 211 7129 152795 31146 12424 157303 84409 28505 13993 33811 2158 42617 14676 61152 825357
leaf_count=4356 14487 1789 59102 93 10423 16406 216159 28 1021 1573 111 5511 441809 3050 672 1584 145180 248 240 1150 32364 3844 12 12 18853 1861 2396 2193 6345 10525 1547 26056 744 4567 422 11 2077 346 58417 1051 1084 177 2154 8913 86908 224 2728 211 7129 152795 31146 12424 157303 84409 28505 13993 33811 2158 42617 14676 61152 825357
internal_value=5.65597e-06 0.771182 -0.0223732 1.82668 0.607814 0.143257 -0.045758 3.35017 1.56013 0.849767 4.75017 0.4768 -0.06257 0.258783 2.06303 1.33966 -0.0016863 4.35015 2.83896 1.1449 0.0961023 0.731777 0.222406 8.14659 0.298597 0.642934 0.0260527 0.34967 0.409681 0.134815 1.53211 0.0728963 2.3521 0.596279 2.33899 0.651584 0.872957 3.27361 0.0233109 1.12701 1.3926 1.71969 0.353596 0.428768 -0.0152635 0.86805 1.01595 0.240081 0.478917 -0.0457556 0.192173 0.292875 -0.073778 -0.0223142 0.111801 0.191944 0.00229138 -0.0510027 0.0565607 0.113688 -0.0348669 -0.0762554
internal_weight=2.66851e+06 75253 2.59326e+06 10085 65168 320835 2.27242e+06 1500 8585 22890 399 42278 1.64493e+06 92997 2614 5971 627491 359 1101 6535 227838 16355 66417 40 18865 12163 206204 26580 30115 85387 3131 142451 1416 10078 515 10434 5921 586 203597 2840 2234 1198 16641 11106 421287 2085 4301 2607 13474 657914 47552 15474 987016 300568 60869 24518 120719 443967 101719 40732 213947 829713
internal_count=2668509 75253 2593256 10085 65168 320835 2272421 1500 8585 22890 399 42278 1644930 92997 2614 5971 627491 359 1101 6535 227838 16355 66417 40 18865 12163 206204 26580 30115 85387 3131 142451 1416 10078 515 10434 5921 586 203597 2840 2234 1198 16641 11106 421287 2085 4301 2607 13474 657914 47552 15474 987016 300568 60869 24518 120719 443967 101719 40732 213947 829713
is_linear=0
shrinkage=0.05


Tree=5
num_leaves=63
num_cat=0
split_feature=3 3 4 2 5 5 5 1 3 13 13 7 13 13 2 4 5 5 5 3 4 5 5 5 13 13 13 11 11 5 5 13 5 2 13 3 3 3 10 13 3 1 3 13 2 10 3 3 3 3 7 6 3 5 3 3 8 3 5 10 3 23
split_gain=1.66299e+07 4.46783e+06 3.87818e+06 1.16264e+06 854379 682979 645412 327838 317719 294992 214311 136424 117199 114176 108171 101002 99105.5 93043.7 84341.3 79290.4 77574.2 75887.4 70686.7 49708.1 46218.8 44029.7 43885.6 43881.2 41631.2 38571.9 37546.9 36883.2 30612 29608.2 29160.7 27057.9 27019.8 24712.3 23536.4 23436.3 22804.9 20189.7 19407.8 19371.9 17016.1 16345.9 15529.2 14793.4 14297.2 14171.2 12380.7 12160.4 11695.9 10355.1 10138 9723.73 9167.33 8584.62 8375.83 6132.49 5246.92 3638.34
threshold=12.500000000000002 38.357142857142868 3.4642857142857149 74.500000000000014 21.410714285714288 1.2886904761904765 7.1964285714285721 64.500000000000014 119.85714285714288 1.0000000180025095e-35 1.0000000180025095e-35 0.63332369377665143 1.0000000180025095e-35 1.0000000180025095e-35 46.500000000000007 73.107142857142875 2.5405844155844162 5.2321428571428585 16.125000000000004 103.57142857142858 31.607142857142861 29.160714285714288 16.517857142857146 10.232142857142859 1.0000000180025095e-35 1.0000000180025095e-35 1.0000000180025095e-35 35.500000000000007 39.500000000000007 45.910714285714292 10.089285714285717 1.0000000180025095e-35 45.910714285714292 55.500000000000007 1.0000000180025095e-35 26.642857142857149 2.5000000000000004 25.500000000000004 10.500000000000002 1.0000000180025095e-35 24.214285714285719 153.00000000000003 6.9285714285714297 1.0000000180025095e-35 81.500000000000014 12.500000000000002 6.6428571428571432 29.642857142857149 7.3571428571428585 24.928571428571434 4.4177464296271678 3.2722216683688095e-07 1.2142857142857146 1.9107142857142858 7.2142857142857153 8.3571428571428594 17.064265348995342 21.500000000000004 1.8730158730158732 11.500000000000002 6.7857142857142865 -0.060824911051873938
decision_type=2 2 2 2 2 2 2 2 2 2 2 2 2 2 2 2 2 2 2 2 2 2 2 2 2 2 2 2 2 2 2 2 2 2 2 2 2 2 2 2 2 2 2 2 2 2 2 2 2 2 2 2 2 2 2 2 2 2 2 2 2 2
left_child=2 4 5 7 10 11 17 14 15 21 18 51 23 41 29 34 39 26 35 32 40 49 37 55 -17 59 42 -21 -15 -3 54 -16 -9 -20 -5 -2 52 -12 -25 53 -11 -10 -4 44 -18 -22 -28 -23 -32 -6 -38 61 -13 -7 -14 -8 -45 -24 -41 -19 -27 -1
right_child=1 3 6 8 9 16 12 19 13 20 22 36 30 28 31 24 43 25 33 27 45 47 57 38 -26 60 46 -29 -30 -31 48 -33 -34 -35 -36 -37 50 -39 -40 58 -42 -43 -44 56 -46 -47 -48 -49 -50 -51 -52 -53 -54 -55 -56 -57 -58 -59 -60 -61 -62 -63
leaf_value=-0.018780600711971879 0.3681573095384772 1.2381996004638594 0.061341078203303395 2.0369178594904538 0.64736075094100176 -0.021728764782420557 0.17817143362033228 1.8897063638283655 3.9389044957411912 1.0215525393576648 0.58512029088107353 -0.045286995784127107 0.26193656512505575 10.402582283020021 1.6698751336272377 3.1159714420237505 0.028249173923954787 0.15204812563708084 0.54161671834663971 2.2795504043579107 1.8796820754479793 0.84497525793921557 0.80529836741064775 0.37404007650814797 4.1718981896143532 0.19894387203277494 0.11881999706844326 5.1204450441542129 6.2187323697408043 1.5903162319996142 0.29519596618928939 2.218626383689744 2.4936272403031343 3.0315467120210329 2.8441529948684607 0.82589666844625875 0.037959444644695764 1.21052231658756 0.25785914631573281 0.00023127001002564348 1.2716904734728631 5.9417621069688069 0.16036185589471988 0.067714530223937183 1.1638298889362451 1.4701101352423291 0.24238201350022451 1.0496299761419934 0.48629494639581206 0.78226199758573056 0.32446521890073571 -0.056589703287818774 -0.029269196785422891 -0.0030075653548773699 0.35173647565833327 0.2294465249563804 0.54948194920715665 0.97189486847179885 0.026479849628378085 0.11538374348427015 0.25396923016759959 -0.072061336353167277
leaf_weight=3217 19493 2831 99475 168 4553 195583 20052 324 56 1848 8256 540571 4665 14.999999999999998 1039 243 103705 17875 11905 24 419 1427 3269 7050 218 13415 39102 41 23 1099 1152 456 725 10.999999999999998 444 328 7183 161 11466 75100 1880 25 5207 41927 32 678 2720 2477 6742 3485 397 153151 144421 118687 9754 17212 98 1057 51051 31605 6433 870483
leaf_count=3217 19493 2831 99475 168 4553 195583 20052 324 56 1848 8256 540571 4665 15 1039 243 103705 17875 11905 24 419 1427 3269 7050 218 13415 39102 41 23 1099 1152 456 725 11 444 328 7183 161 11466 75100 1880 25 5207 41927 32 678 2720 2477 6742 3485 397 153151 144421 118687 9754 17212 98 1057 51051 31605 6433 870483
internal_value=6.7693e-06 0.766255 -0.0203257 1.89882 0.623266 -0.0421311 0.150719 1.63656 3.33492 0.927437 0.508588 -0.0580204 0.273893 5.78924 1.47559 3.05758 0.00447645 0.106151 0.439015 2.41847 1.25748 0.793994 0.681815 0.235144 3.62326 0.153874 0.0835663 4.12201 8.09477 1.33705 0.370747 1.83863 2.30908 0.54417 2.62625 0.375774 -0.040871 0.597226 0.302113 -0.00735099 1.148 4.62205 0.066268 0.040213 0.0286107 1.62812 0.126862 0.975061 0.458449 0.70594 0.0530066 -0.069587 -0.0419099 -0.0146586 0.322704 0.201861 0.0688512 0.84622 0.0108538 0.128632 0.21679 -0.0718652
internal_weight=2.66851e+06 68978 2.59953e+06 7731 61247 2.30561e+06 293925 6539 1192 16767 44480 1.71942e+06 78093 119 5425 1073 586183 215832 31737 1114 4825 11942 12743 55780 461 69328 146504 65 38 3930 22313 1495 1049 11916 612 19821 692572 8417 18516 440421 3728 81 104682 145762 103737 1097 41822 3904 7894 8038 7580 1.02685e+06 684992 314270 14419 37264 42025 4326 126151 49480 19848 873700
internal_count=2668509 68978 2599531 7731 61247 2305606 293925 6539 1192 16767 44480 1719423 78093 119 5425 1073 586183 215832 31737 1114 4825 11942 12743 55780 461 69328 146504 65 38 3930 22313 1495 1049 11916 612 19821 692572 8417 18516 440421 3728 81 104682 145762 103737 1097 41822 3904 7894 8038 7580 1026851 684992 314270 14419 37264 42025 4326 126151 49480 19848 873700
is_linear=0
shrinkage=0.05


Tree=6
num_leaves=63
num_cat=0
split_feature=4 0 4 1 0 4 5 2 5 0 5 0 0 6 5 5 2 9 1 0 2 5 9 5 0 2 9 9 10 0 1 9 4 6 4 0 9 9 6 4 9 9 0 1 2 12 4 20 0 8 5 0 4 8 10 5 1 5 4 8 23 8
split_gain=1.5032e+07 4.16084e+06 3.5007e+06 1.01235e+06 889763 595270 573520 307159 287239 281345 180096 111746 101140 101068 98086.6 94846.9 68808.5 62389.7 60123.4 50455.3 49028.6 44481.2 44473.9 41561.6 41322.7 41206.6 40642.3 36083.4 33153.2 31957.4 29901.3 27998.4 26686.8 23973.6 23750 22182.4 22080.5 21063.6 20975.8 19963 19863 18694.2 18659.7 16930.2 16412.1 15577.5 15037.2 14565.8 14545.1 14241.7 13617 12437.9 9919.7 8698.82 8636.42 8597.1 7580.12 7443.08 7037.5 4193.21 3329.95 3237.72
threshold=12.321428571428575 43.500000000000007 3.3214285714285716 83.500000000000014 22.500000000000004 7.0357142857142865 1.1483516483516485 46.500000000000007 29.160714285714288 123.50000000000001 18.482142857142861 12.500000000000002 63.500000000000007 3.2722216683688095e-07 5.3750000000000009 2.2546296296296302 24.500000000000004 4.5000000000000009 38.500000000000007 161.00000000000003 99.500000000000014 52.392857142857146 3.5000000000000004 8.8750000000000018 78.500000000000014 148.50000000000003 4.5000000000000009 4.5000000000000009 12.500000000000002 14.500000000000002 1.0000000180025095e-35 3.5000000000000004 21.321428571428573 25.647317843702861 57.107142857142868 9.5000000000000018 3.5000000000000004 3.5000000000000004 2.9840847683606335 30.964285714285719 4.5000000000000009 4.5000000000000009 19.500000000000004 30.500000000000004 81.500000000000014 2.5000000000000004 87.500000000000014 1.0000000180025095e-35 11.500000000000002 0.92295820699090869 20.267857142857146 12.500000000000002 4.5357142857142865 17.064265348995342 11.500000000000002 1.6607142857142858 153.00000000000003 11.303571428571431 1.6785714285714286 0.86983547675049344 -0.0042383512364740994 4.776208667496773
decision_type=2 2 2 2 2 2 2 2 2 2 2 2 2 2 2 2 2 2 2 2 2 2 2 2 2 2 2 2 2 2 2 2 2 2 2 2 2 2 2 2 2 2 2 2 2 2 2 2 2 2 2 2 2 2 2 2 2 2 2 2 2 2
left_child=2 4 6 7 10 14 13 18 16 24 17 23 39 59 22 41 32 35 30 45 -14 26 52 37 56 29 -10 54 -21 -12 -3 57 -6 -33 -26 -2 -25 -7 49 -9 44 55 -24 -18 -17 -11 -20 -23 -19 -15 -29 -40 -4 -42 -16 -8 -5 -13 -43 60 -1 -61
right_child=1 3 5 9 8 11 15 12 21 19 25 31 20 38 27 40 43 48 46 28 -22 47 42 36 34 -27 -28 50 -30 -31 -32 33 -34 -35 -36 -37 -38 -39 51 -41 53 58 -44 -45 -46 -47 -48 -49 -50 -51 -52 -53 -54 -55 -56 -57 -58 -59 -60 61 -62 -63
leaf_value=-0.025737080802298869 0.29452620414699321 1.9148405728853026 0.043038003175592462 2.4462046290444328 0.61809272577792995 0.15469318939851318 -0.026738232658830248 1.2532705327092786 1.0832057180628629 3.3301130459043722 0.53198453009288682 0.25269226251257176 2.3619098382395527 -0.050758159903767225 0.15402820697135289 0.017956717823636888 0.85844197544553313 0.41785308995887382 1.5774956296333347 4.7237651480734355 3.495214745966734 1.6134770743368527 0.10423910037191153 0.23339899489904448 2.1059775634144628 3.4433438095679652 1.4568609262556835 0.2117343043869461 7.3395107583999639 0.68640682551294596 1.1186694451797925 0.40156011101626476 0.79285505807728252 2.4747026295321328 3.4602384211824466 0.40015122716356233 0.32657560918083223 0.2329698829452419 0.034328354747339543 1.8921524747766512 0.053134440880532 -0.0075789077706780979 0.43971498416479887 1.0719376766547957 1.1504373891651631 4.8159129958059275 2.9382944641330031 3.0484263739585877 0.5829138519102991 -0.036751812327054274 1.8317123510287356 0.36901889540512223 0.076982083572545781 0.52228538584829587 0.10811452381688354 -0.01051214584500027 3.9905580191178758 0.37736791759336608 0.015577129266370879 -0.053706550513270702 -0.068924347652894222 0.43446177475592668
leaf_weight=4489 7457 128 64342 285 5699 22248 190286 145 4140 35 5804 5653 890 356484 17204 135597 2963 1847 1526 31 112 408 72244 18141 42 11.999999999999998 896 16916 39 8015 1744 12087 3582 12.999999999999998 358 15014 9808 14018 5634 1226 54290 76632 416 1392 31 101 21 19 4947 369765 11.999999999999998 291 32348 98 25357 142970 9.9999999999999982 1526 57379 46989 846320 33
leaf_count=4489 7457 128 64342 285 5699 22248 190286 145 4140 35 5804 5653 890 356484 17204 135597 2963 1847 1526 31 112 408 72244 18141 42 12 896 16916 39 8015 1744 12087 3582 13 358 15014 9808 14018 5634 1226 54290 76632 416 1392 31 101 21 19 4947 369765 12 291 32348 98 25357 142970 10 1526 57379 46989 846320 33
internal_value=7.93691e-06 0.729002 -0.0193101 1.91348 0.601507 0.137706 -0.0407509 1.67041 0.885593 3.47248 0.47559 0.251981 2.10787 -0.0566498 0.0960102 -0.00132317 0.762747 0.405293 1.36625 5.10079 2.49195 1.19203 0.0766079 0.22028 2.9832 0.62429 1.14996 0.151242 6.26403 0.621593 1.1741 0.357556 0.685621 0.403992 3.32366 0.365114 0.266108 0.184955 -0.0428626 1.82555 0.0284614 -0.0134352 0.106166 0.926914 0.0182241 4.46067 1.59786 1.68431 0.53811 -0.043627 0.212991 0.0508267 0.0543949 0.0539895 0.126677 -0.0197772 2.51188 0.279243 0.00233573 -0.0678931 -0.0686965 -0.0533546
internal_weight=2.66851e+06 68888 2.59962e+06 6693 62195 312333 2.28729e+06 5792 19099 901 43096 83494 2373 1.63e+06 228839 657283 13636 29265 3419 206 1002 5463 169350 64215 695 13831 5036 59489 70 13819 1872 19279 9281 12100 400 22471 27949 36266 732174 1371 190016 467267 72660 4355 135628 136 1547 427 6794 726249 16928 5925 96690 54388 42561 333256 295 7179 134011 897831 850809 47022
internal_count=2668509 68888 2599621 6693 62195 312333 2287288 5792 19099 901 43096 83494 2373 1630005 228839 657283 13636 29265 3419 206 1002 5463 169350 64215 695 13831 5036 59489 70 13819 1872 19279 9281 12100 400 22471 27949 36266 732174 1371 190016 467267 72660 4355 135628 136 1547 427 6794 726249 16928 5925 96690 54388 42561 333256 295 7179 134011 897831 850809 47022
is_linear=0
shrinkage=0.05


Tree=7
num_leaves=63
num_cat=0
split_feature=4 0 5 1 0 4 4 2 5 0 5 8 0 4 1 0 5 2 24 9 0 0 5 9 0 2 9 0 5 9 1 6 9 23 2 9 8 6 4 0 1 9 9 6 9 10 7 5 9 5 6 5 5 5 0 0 5 1 0 9 9 23
split_gain=1.35708e+07 3.81978e+06 3.0902e+06 916226 834388 561820 469384 280148 263742 255128 172984 101899 100335 83658.4 82825 68936.1 66503.6 63643.2 63291.2 57595.5 46890.8 41029.1 40451.9 40926.5 39522.8 39096.6 38239.2 38061.6 36274.2 35529 33427.1 32853.2 30066.4 29981.2 39619.1 28628.2 27723.1 25669.1 22240.5 21615.6 20300.9 20167.3 19676.6 19665.5 18242.6 17459.7 16711.5 16678.1 16184.4 11748.1 11221.7 10967.8 9236.05 8425.12 8174.29 7520.59 7176.2 7060.04 6809.66 6210.7 4085.47 3104.25
threshold=12.035714285714286 43.500000000000007 3.4434523809523814 83.500000000000014 22.500000000000004 1.2500000000000002 6.8214285714285721 57.500000000000007 29.160714285714288 127.50000000000001 18.482142857142861 0.73732678891438297 11.500000000000002 2.3928571428571432 38.500000000000007 127.50000000000001 5.3750000000000009 20.500000000000004 0.96763102441192006 3.5000000000000004 63.500000000000007 78.500000000000014 45.910714285714292 3.5000000000000004 14.500000000000002 106.50000000000001 4.5000000000000009 2.5000000000000004 8.6607142857142865 4.5000000000000009 56.500000000000007 10.51982255870632 3.5000000000000004 -0.26654713747191472 16.500000000000004 4.5000000000000009 13.406693029581112 25.647317843702861 57.107142857142868 9.5000000000000018 57.500000000000007 4.5000000000000009 3.5000000000000004 25.647317843702861 4.5000000000000009 10.500000000000002 9.623831368949249 14.910714285714286 4.5000000000000009 0.98214285714285732 1.0000000180025095e-35 1.9107142857142858 52.392857142857146 10.375000000000002 3.5000000000000004 5.5000000000000009 1.9107142857142858 153.00000000000003 8.5000000000000018 4.5000000000000009 4.5000000000000009 0.0097306922251843408
decision_type=2 2 2 2 2 2 2 2 2 2 2 2 2 2 2 2 2 2 2 2 2 2 2 2 2 2 2 2 2 2 2 2 2 2 2 2 2 2 2 2 2 2 2 2 2 2 2 2 2 2 2 2 2 2 2 2 2 2 2 2 2 2
left_child=2 4 5 7 10 11 16 14 17 21 19 50 28 44 37 20 29 36 26 47 -9 57 23 -10 42 27 -11 -12 48 54 -17 -27 53 34 -18 -35 -6 -3 -23 -21 -16 -19 -15 -34 51 -30 -26 -2 -8 55 61 -7 -24 -14 -4 -13 -46 -5 -31 -20 -51 -1
right_child=1 3 6 9 8 13 12 15 22 18 25 49 32 24 40 30 33 41 59 39 -22 38 52 -25 46 31 -28 -29 45 58 -32 -33 43 35 -36 -37 -38 -39 -40 -41 -42 -43 -44 -45 56 -47 -48 -49 -50 60 -52 -53 -54 -55 -56 -57 -58 -59 -60 -61 -62 -63
leaf_value=-0.065579266386014579 0.29068686860726872 1.0930656911778633 0.046937081212709571 2.3243220602965855 0.58590196317925658 -0.021972617170656371 0.14813372481314691 1.8368091381507474 0.95237695363379271 4.6213998971744017 0.29590905295659764 -0.042633806909869919 0.21754011439998744 0.014994671120999802 1.4889438077984847 5.9872709173314718 0.57456646754302909 0.72333811082665489 2.3581041526794433 0.33965604795515686 2.423686075040365 2.0226631521094931 1.2834835161697213 1.2709042898504148 0.26300300288859269 0.00080012900488717227 6.6318037878672289 0.61160325149992256 0.29610187950243744 0.10534637748840037 2.9042501779964995 3.0105120363235476 0.36359285405764125 0.11557805017290056 4.0372183253548366 0.19418422325889045 0.86325469762235607 1.6317663169023129 3.3149608994038902 0.50283928595226601 1.8183495594886812 0.91029381413930222 0.048065106659288509 2.1774816303253171 -0.00094682660626816447 0.21278748713019363 0.87589010686367963 0.38582611633335234 0.22649720999632361 -0.032200644666649736 -0.051951305332290726 -0.0013838629974469519 1.6006418450162792 0.32258934910280196 0.074812341798990309 0.043459391878141657 0.0253506389183361 3.8091690601002086 0.16013739757015755 3.8770623556772872 -0.016517342013564158 -0.017627333680618765
leaf_weight=831775 11940 1859 56496 285 6534 216178 28048 725 2852 65 1035 455626 6370 105085 1494 15.999999999999998 35 2339 14.999999999999998 2608 688 43 598 1586 915 12.999999999999998 59 12774 9808 35766 27 29 14236 40600 9.9999999999999982 16212 1051 256 374 9305 731 3902 78640 13.999999999999998 86913 17588 126 7531 8619 145055 191059 92304 427 2736 49223 2550 36979 9.9999999999999982 6745 50 58187 3390
leaf_count=831775 11940 1859 56496 285 6534 216178 28048 725 2852 65 1035 455626 6370 105085 1494 16 35 2339 15 2608 688 43 598 1586 915 13 59 12774 9808 35766 27 29 14236 40600 10 16212 1051 256 374 9305 731 3902 78640 14 86913 17588 126 7531 8619 145055 191059 92304 427 2736 49223 2550 36979 10 6745 50 58187 3390
internal_value=8.95663e-06 0.680922 -0.0186628 1.81744 0.562935 -0.0380921 0.134428 1.58635 0.838283 3.30064 0.445505 -0.0530202 0.231442 0.00273064 1.38435 2.18707 0.0930752 0.721958 4.93892 0.380524 2.12408 2.85944 1.1325 1.06647 0.0308918 0.592704 5.6234 0.587965 0.199092 0.0754403 4.16154 2.10073 0.320162 0.139048 1.41519 0.138012 0.624442 1.15901 3.18687 0.467147 1.59794 0.840355 0.0291501 0.365528 -0.00930347 0.242625 0.337959 0.327503 0.16656 -0.0377163 -0.0628837 -0.0158121 1.41704 0.249136 0.0599165 -0.0421545 0.00690248 2.38737 0.114043 3.56765 -0.0277107 -0.0653847
internal_weight=2.66851e+06 71221 2.59729e+06 6697 64524 2.30478e+06 292506 5796 19289 901 45235 1.68764e+06 87419 617140 4340 1456 205087 13826 189 31384 1413 712 5463 4438 184766 13851 124 13809 64063 148230 43 42 23356 56857 45 56812 7585 2115 417 11913 2225 6241 183725 14250 432374 27396 1041 19471 36667 661418 1.02622e+06 308482 1025 9106 105719 458176 123892 295 42511 65 203242 835165
internal_count=2668509 71221 2597288 6697 64524 2304782 292506 5796 19289 901 45235 1687642 87419 617140 4340 1456 205087 13826 189 31384 1413 712 5463 4438 184766 13851 124 13809 64063 148230 43 42 23356 56857 45 56812 7585 2115 417 11913 2225 6241 183725 14250 432374 27396 1041 19471 36667 661418 1026224 308482 1025 9106 105719 458176 123892 295 42511 65 203242 835165
is_linear=0
shrinkage=0.05


Tree=8
num_leaves=63
num_cat=0
split_feature=3 0 5 3 5 5 5 2 0 0 0 22 0 0 9 3 5 9 2 3 6 24 0 9 9 3 2 9 9 5 9 16 23 5 22 9 5 9 5 3 5 3 23 9 22 3 5 8 11 11 9 5 9 5 9 6 9 9 9 5 23 23
split_gain=1.22878e+07 3.61334e+06 2.56304e+06 1.00271e+06 733769 475908 393163 284901 266134 155454 153957 112027 96908.3 88832.6 73255.7 68328.2 66673.2 65390.9 62818.1 61279.8 57102.9 54592.9 54000.8 44083.3 40504.8 39527.1 39007.2 35981.4 35145.2 31735.9 29021.8 25164.6 30162.4 25051.8 23929.9 23601.3 22623.9 18979.9 18880.8 18420.8 18372.2 18277.3 18218.4 18176.9 17503 16573.6 14624.9 14604.3 14083.6 13696.6 13507.4 12373.7 12127 11037.3 9980.85 8468.51 8258.11 7556.39 6059.23 5082.43 2993.27 2829.1
threshold=11.357142857142859 39.500000000000007 2.9821428571428577 70.142857142857153 20.803571428571434 6.1607142857142874 0.94155844155844171 43.500000000000007 123.50000000000001 24.500000000000004 20.500000000000004 1.3700000000000003 59.500000000000007 8.5000000000000018 4.5000000000000009 2.2142857142857149 13.875000000000002 3.5000000000000004 34.500000000000007 27.214285714285719 3.2722216683688095e-07 0.928232002813555 5.5000000000000009 4.5000000000000009 4.5000000000000009 5.3571428571428585 12.500000000000002 3.5000000000000004 4.5000000000000009 41.875000000000007 4.5000000000000009 1.0000000180025095e-35 -0.17473587194159321 1.6607142857142858 0.22500000000000003 3.5000000000000004 4.3392857142857144 3.5000000000000004 16.517857142857146 32.500000000000007 33.732142857142868 7.3571428571428585 0.013448917310161911 3.5000000000000004 0.9850000000000001 1.9285714285714288 45.910714285714292 6.0622323557118625 43.500000000000007 45.500000000000007 4.5000000000000009 11.482142857142859 3.5000000000000004 4.2886904761904772 3.5000000000000004 6.0670852812140241 4.5000000000000009 4.5000000000000009 4.5000000000000009 4.2886904761904772 -0.060824911051873938 0.0097306922251843408
decision_type=2 2 2 2 2 2 2 2 2 2 2 2 2 2 2 2 2 2 2 2 2 2 2 2 2 2 2 2 2 2 2 2 2 2 2 2 2 2 2 2 2 2 2 2 2 2 2 2 2 2 2 2 2 2 2 2 2 2 2 2 2 2
left_child=2 4 6 7 10 22 20 19 17 29 16 14 39 31 -10 33 35 21 40 34 60 -5 36 -21 -14 50 37 -18 44 30 -6 41 -33 56 -3 -2 52 -15 -30 -9 -11 -7 -31 59 -12 58 -20 -27 -13 -19 -17 -28 -4 -45 -38 -47 -8 -35 -22 -24 -1 -62
right_child=1 3 5 8 9 13 15 12 11 18 28 48 24 26 -16 25 27 49 46 23 45 -23 43 -25 -26 47 51 -29 38 42 -32 32 -34 57 -36 -37 54 -39 -40 -41 -42 -43 -44 53 -46 55 -48 -49 -50 -51 -52 -53 -54 -55 -56 -57 -58 -59 -60 -61 61 -63
leaf_value=-0.013859028426722972 0.25372047123727715 0.17122084063371174 0.030383879240555536 2.9914057966748122 0.58156924759112749 0.10930333508933808 -0.029489022832272244 1.1897916208332118 4.0810563920736316 0.77821205903065893 0.2980510070259299 3.1838939485549926 1.5299121825769544 0.18539267267812912 6.3281357891528636 0.0052628808034104503 0.37319825853440158 3.1881396276761995 1.0599881500446029 1.0914942977560675 -0.0455654673077594 1.8815681319676558 0.055119126102450122 1.4703667742925504 2.254614435880268 0.15222657039446327 0.30778034213371469 0.52205176169842893 0.57259397781635923 0.98166274422888644 0.8341131663277116 2.0568790848146787 0.20406447529213559 -0.0089795512683074827 0.89073412238098626 0.36002192119278842 0.065611534077183634 0.26993819211990994 0.75593401850258823 1.5982660260643371 0.99812534231390626 0.17586415047249454 2.3456674260563322 0.10190776748177033 0.51303080190194195 0.023672178028042917 1.3508647885809129 0.53032362555392387 1.0686295049840753 1.6589663419723513 0.035406860682078704 0.42815091213098855 0.063041597860365325 0.15551326894227241 0.10841357633916465 0.43848425243258488 -0.013442016628333657 0.013357234910780801 -0.034235791672156436 0.096634954871550827 -0.06178787001009492 -0.01865253875190051
leaf_weight=3296 13741 130 73114 158 8435 22233 279997 370 89 4331 1189 94 255 12941 76 129447 12085 302 2247 2131 411862 411 13047 1225 940 3314 7193 6131 3765 358 1322 21 22473 132393 1081 8441 38362 13660 2270 1322 1239 19253 26 18032 4751 7872 557 276 9.9999999999999982 19 52128 3052 46513 20568 21126 124 112347 53027 165437 16967 885114 3819
leaf_count=3296 13741 130 73114 158 8435 22233 279997 370 89 4331 1189 94 255 12941 76 129447 12085 302 2247 2131 411862 411 13047 1225 940 3314 7193 6131 3765 358 1322 21 22473 132393 1081 8441 38362 13660 2270 1322 1239 19253 26 18032 4751 7872 557 276 10 19 52128 3052 46513 20568 21126 124 112347 53027 165437 16967 885114 3819
internal_value=9.86353e-06 0.612291 -0.0187918 1.57929 0.494778 0.107337 -0.038414 1.36622 2.94728 0.765336 0.399118 4.32889 1.75526 0.198916 5.14799 -0.00926565 0.352426 2.5253 0.924841 1.11996 -0.0534649 2.19446 0.0700631 1.23019 2.10138 0.0171659 0.260762 0.423324 0.556591 0.633545 0.61587 0.163295 0.205886 -0.0177366 0.813704 0.294186 0.055614 0.228817 0.64167 1.5097 0.827301 0.140197 1.07988 0.107781 0.470057 -0.0413286 1.11823 0.181436 2.99267 3.10308 0.013917 0.343678 0.0430822 0.130475 0.0808135 0.0301596 -0.0248941 -0.00259154 -0.0423188 0.0785907 -0.0614262 -0.0616026
internal_weight=2.66851e+06 79501 2.58901e+06 8613 70888 348555 2.24045e+06 7454 1159 18515 52373 269 2887 100826 165 762929 40398 890 8374 4567 1.47752e+06 569 247729 3356 1195 185165 36846 18216 11975 10141 9757 63980 22494 577764 1211 22182 179115 26601 6035 1692 5570 41486 384 68614 5940 585295 2804 3590 104 321 181575 10245 119627 38600 59488 7996 392344 185420 577299 30014 892229 888933
internal_count=2668509 79501 2589008 8613 70888 348555 2240453 7454 1159 18515 52373 269 2887 100826 165 762929 40398 890 8374 4567 1477524 569 247729 3356 1195 185165 36846 18216 11975 10141 9757 63980 22494 577764 1211 22182 179115 26601 6035 1692 5570 41486 384 68614 5940 585295 2804 3590 104 321 181575 10245 119627 38600 59488 7996 392344 185420 577299 30014 892229 888933
is_linear=0
shrinkage=0.05


Tree=9
num_leaves=63
num_cat=0
split_feature=5 0 5 1 0 5 5 5 0 5 5 9 0 1 5 6 9 5 24 1 0 0 7 7 9 2 5 0 9 9 9 5 9 2 1 0 22 7 1 8 5 9 0 0 22 0 5 6 0 2 22 8 5 5 8 9 5 6 8 7 1 8
split_gain=1.1054e+07 3.21898e+06 2.42506e+06 863442 604266 408794 384212 288433 214604 186654 117283 115375 104056 78650.7 73855 66605.4 61928.2 58004.9 57884.1 68536.5 57578.2 52736.3 45094.2 44980.5 44226.7 42531.2 39182.3 34917.3 32838.1 28303.4 27961.6 25922.4 25791.2 25275.6 42338.8 30142.3 24407.5 22019.9 19086.4 17791.9 16996.5 16981.5 16929.1 16405.1 16179.1 16137.1 15239.2 15236.2 14720.3 14380.4 14024.6 13785.8 12798.8 12102 10018.6 9958.87 9701.25 9254.87 5604.97 5329.01 4364.76 2931.66
threshold=11.482142857142859 39.500000000000007 3.1187888198757769 83.500000000000014 20.500000000000004 6.1607142857142874 1.0757142857142858 41.875000000000007 123.50000000000001 24.482142857142861 19.339285714285719 4.5000000000000009 10.500000000000002 4.5000000000000009 65.035714285714292 3.2722216683688095e-07 4.5000000000000009 1.9107142857142858 0.89882252525570128 153.00000000000003 7.5000000000000009 9.5000000000000018 18.72978751965751 11.34571613981565 4.5000000000000009 38.500000000000007 31.089285714285719 64.500000000000014 4.5000000000000009 3.5000000000000004 4.5000000000000009 18.482142857142861 4.5000000000000009 106.50000000000001 3.5000000000000004 4.5000000000000009 1.3700000000000003 5.5975366939783866 50.500000000000007 13.406693029581112 4.3392857142857144 3.5000000000000004 6.5000000000000009 10.500000000000002 0.9850000000000001 12.500000000000002 38.928571428571438 1.2909944487358114 1.0000000180025095e-35 1.0000000180025095e-35 1.4900000000000002 5.7787697153140511 8.2321428571428594 16.125000000000004 0.83887049280814951 4.5000000000000009 4.2596153846153859 5.3807416730764368 4.776208667496773 5.5975366939783866 109.50000000000001 2.701118660875086e-06
decision_type=2 2 2 2 2 2 2 2 2 2 2 2 2 2 2 2 2 2 2 2 2 2 2 2 2 2 2 2 2 2 2 2 2 2 2 2 2 2 2 2 2 2 2 2 2 2 2 2 2 2 2 2 2 2 2 2 2 2 2 2 2 2
left_child=2 4 6 7 10 20 15 16 27 24 21 14 29 -13 -9 58 44 45 19 -10 32 47 30 51 53 46 -18 60 -23 52 -14 -26 40 35 -35 -12 -20 41 -27 -25 -4 -19 54 -39 -3 55 -11 -2 -31 -24 -29 -22 -7 -6 -17 -8 -34 -44 61 -47 -5 -1
right_child=1 3 5 8 9 12 17 11 18 25 33 13 22 -15 -16 42 26 37 36 -21 23 28 49 39 31 38 -28 50 -30 48 -32 -33 56 34 -36 -37 -38 43 -40 -41 -42 -43 57 -45 -46 59 -48 -49 -50 -51 -52 -53 -54 -55 -56 -57 -58 -59 -60 -61 -62 -63
leaf_value=-0.0594698284775282 0.012855111997001484 0.35346720416803623 0.036221521353336096 1.7204620108101516 0.40658755488671894 0.11497582313691911 -0.021409457438198099 1.336257243296668 2.7939072886380276 0.78954776541739968 0.29875708218945468 5.9593909890311112 0.22245435542969683 2.1362315252686939 2.009498717048527 -0.045257266506701005 1.0826355257729365 0.0016053518129905246 4.5135073360062519 8.2693516597747809 0.11699461864922936 0.34652613033643909 1.3603710803842546 0.55970414746953245 0.60257304582185911 1.0172327786389241 1.4803641410458384 2.9172955120901523 0.48485938550559537 0.093561092594000306 0.32138916829537229 0.80765812467821108 0.074239068481746925 0.42367974497834027 2.7214119320596968 0.55263318256031824 3.1690373188427516 0.090735315399712302 1.4075479256782595 1.6154312531935411 0.071264359532630259 0.02711841100878681 0.061482941830511 0.42325569832914844 0.90440587319364207 0.14655407899183928 1.0161252507471483 0.26808447538079094 0.21324249495471675 0.28287025843595348 2.2916476633230842 0.24077505404542499 0.16777319722914605 0.54850788634848591 -0.032964500008637453 -0.0042187167713783717 0.11950083336382922 0.4013640991249654 0.77882620906829825 0.4912249283361334 2.3921479344905117 -0.051312594906162523
leaf_weight=767538 614 147 86075 127 2218 27890 293937 1527 10.000000000000002 4680 1347 12.999999999999998 15940 892 564 283040 1566 151880 108 19 31113 16245 124 285 3848 1753 1050 397 5843 2874 12962 2600 29951 48 34 9060 69 1261 392 46 57868 114309 2354 525 1634 313 900 12326 24420 42 149 2425 19526 4774 400035 118099 19588 218 19 175 42 128681
leaf_count=767538 614 147 86075 127 2218 27890 293937 1527 10 4680 1347 13 15940 892 564 283040 1566 151880 108 19 31113 16245 124 285 3848 1753 1050 397 5843 2874 12962 2600 29951 48 34 9060 69 1261 392 46 57868 114309 2354 525 1634 313 900 12326 24420 42 149 2425 19526 4774 400035 118099 19588 218 19 175 42 128681
internal_value=1.03589e-05 0.598446 -0.0172947 1.5261 0.482764 0.109083 -0.0357918 1.34591 2.96949 0.703496 0.380112 1.72448 0.191311 2.19767 1.51873 -0.0493062 1.08763 -0.00437607 4.39585 6.5375 0.0715483 0.336172 0.271579 0.131689 0.590833 0.899406 1.24278 2.55297 0.38314 0.160077 0.266835 0.685382 0.06102 0.526803 1.39777 0.519806 4.01017 0.0137359 1.08919 0.71086 0.0503099 0.0125615 -0.0375761 0.188666 0.859159 -0.0161416 0.826269 0.255976 0.200644 1.09111 2.75107 0.125952 0.136721 0.503553 -0.0380582 -0.0164822 0.092138 0.0904376 -0.05828 0.270917 1.90051 -0.0582987
internal_weight=2.66851e+06 74996 2.59351e+06 8314 66682 331129 2.26238e+06 7393 921 21165 45517 2996 103778 905 2091 1.58188e+06 4397 680499 206 29 227351 35028 29068 33869 13440 7725 2616 715 22088 74710 28902 6448 193482 10489 82 10407 177 267975 2145 331 143943 266189 685647 1786 1781 412524 5580 12940 27294 166 546 33538 47416 6992 683075 412036 49539 2572 896238 488 169 896219
internal_count=2668509 74996 2593513 8314 66682 331129 2262384 7393 921 21165 45517 2996 103778 905 2091 1581885 4397 680499 206 29 227351 35028 29068 33869 13440 7725 2616 715 22088 74710 28902 6448 193482 10489 82 10407 177 267975 2145 331 143943 266189 685647 1786 1781 412524 5580 12940 27294 166 546 33538 47416 6992 683075 412036 49539 2572 896238 488 169 896219
is_linear=0
shrinkage=0.05


Tree=10
num_leaves=63
num_cat=0
split_feature=3 0 3 4 4 4 3 1 24 0 9 9 7 4 11 4 2 2 9 1 9 4 2 2 1 4 4 1 9 22 9 2 2 9 10 2 12 10 9 0 0 2 2 9 2 0 9 4 3 4 10 3 9 10 6 4 10 4 0 10 3 3
split_gain=1.00374e+07 2.67388e+06 2.50756e+06 749974 551758 460919 380169 208574 168124 162681 158210 89491.4 80725.9 73366.8 69364.1 56855.9 54733.6 54337.7 54187.4 52851.6 51738 50197.5 44605.2 43455.1 33993.3 33107.9 31994.7 31484 27025.7 25899.9 24180.5 23563.4 18715.1 17599.6 17139 15312 31476.3 15307.9 15140.2 14338.4 14256.6 13371.9 13133 12975.7 12322.4 12104.6 12007.6 11520.9 11467.7 11336.3 11103.7 9884.63 9057.28 8067.5 7758.57 6710.11 6327.73 6325.08 6091.61 6066.91 4803.71 3594.94
threshold=13.214285714285717 50.500000000000007 3.785714285714286 24.964285714285719 87.500000000000014 1.3214285714285718 7.3571428571428585 58.500000000000007 0.89882252525570128 32.500000000000007 4.5000000000000009 4.5000000000000009 0.64620617265886426 2.6071428571428577 42.500000000000007 17.464285714285719 74.500000000000014 7.5000000000000009 4.5000000000000009 38.500000000000007 3.5000000000000004 19.107142857142861 41.500000000000007 23.500000000000004 91.000000000000014 9.6785714285714288 10.035714285714286 1.0000000180025095e-35 3.5000000000000004 1.3700000000000003 3.5000000000000004 78.500000000000014 31.500000000000004 3.5000000000000004 11.500000000000002 81.500000000000014 3.5000000000000004 11.500000000000002 4.5000000000000009 52.500000000000007 26.500000000000004 17.500000000000004 148.50000000000003 3.5000000000000004 34.500000000000007 12.500000000000002 4.5000000000000009 43.107142857142868 5.5000000000000009 5.3214285714285721 11.500000000000002 60.785714285714292 4.5000000000000009 11.500000000000002 3.2722216683688095e-07 5.8214285714285721 10.500000000000002 1.8214285714285718 7.5000000000000009 11.500000000000002 2.3571428571428572 0.92857142857142871
decision_type=2 2 2 2 2 2 2 2 2 2 2 2 2 2 2 2 2 2 2 2 2 2 2 2 2 2 2 2 2 2 2 2 2 2 2 2 2 2 2 2 2 2 2 2 2 2 2 2 2 2 2 2 2 2 2 2 2 2 2 2 2 2
left_child=2 3 5 10 7 12 17 22 18 23 21 26 35 38 20 40 30 28 42 47 -10 31 27 45 -25 39 50 -3 49 -16 -9 -2 -21 53 -28 54 -37 -23 57 -13 -12 -27 -6 -24 -17 -5 59 -11 -30 -4 -8 -18 58 -15 -1 -48 -35 -7 -14 -19 -40 -54
right_child=1 4 6 9 8 13 11 16 14 19 15 25 52 33 29 44 51 46 -20 32 -22 37 43 24 -26 41 34 -29 48 -31 -32 -33 -34 56 -36 36 -38 -39 60 -41 -42 -43 -44 -45 -46 -47 55 -49 -50 -51 -52 -53 61 -55 -56 -57 -58 -59 -60 -61 -62 -63
leaf_value=-0.055421426548522751 0.32762601503572086 1.9042565831873153 0.04713904605477362 0.35905826160146059 5.7395735159374413 -0.017601938690652467 0.19644963539116936 1.3632616896521252 2.0198122135890011 0.8670379300583454 0.45129633590248047 0.24992161110768302 -0.035204502822500074 0.039551713110891423 4.2932516635805369 0.66403273062816393 2.1785338694686476 0.15007915972523433 9.3059783143263601 1.0134520936937128 3.3340643449980636 0.55349878950643228 1.2829669368440513 0.7992053347981608 2.1561884944996939 0.33340897837041528 0.29708615638434671 1.0403168919543393 0.088679118145190278 2.2494944912454358 1.9570553658347074 2.6445418451049112 1.3068535625357678 0.074460540266699321 0.202432241622444 -0.16290844556057094 2.3608723638057709 0.42011571898968986 0.0048369659055590335 2.0574892256476662 0.62814876087644222 0.46114350671635851 2.9431472622264518 1.6504699819650916 0.85676485720168416 0.6201351534734556 0.14800342936097916 1.1306920042370256 0.13738809106740624 0.085107485070381461 0.1390879245582112 2.6636551317739805 -0.027541542699721866 0.0091301544915112463 -0.043993081273101559 0.21317638653430027 0.042579981849428704 -0.0033711908455614698 0.10600516838207841 0.096276320975585694 0.02922370603047484 -0.013504756289488244
leaf_weight=880616 22207 116 61146 516 20.000000000000004 163451 12775 232 172 2550 5753 13764 478667 33768 119 4424 229 9176 11.999999999999998 806 144 3275 377 4506 46 6887 7356 1269 40806 22 809 9.9999999999999982 1838 22801 13718 32 19 6370 100351 9.9999999999999982 1432 2933 9.9999999999999982 809 1040 3418 9044 511 17176 28980 24908 302 118664 61454 178672 7034 49068 149501 764 12240 25280 74104
leaf_count=880616 22207 116 61146 516 20 163451 12775 232 172 2550 5753 13764 478667 33768 119 4424 229 9176 12 806 144 3275 377 4506 46 6887 7356 1269 40806 22 809 10 1838 22801 13718 32 19 6370 100351 10 1432 2933 10 809 1040 3418 9044 511 17176 28980 24908 302 118664 61454 178672 7034 49068 149501 764 12240 25280 74104
internal_value=1.10232e-05 0.621892 -0.0151101 0.530521 1.777 -0.0317197 0.129766 1.58709 3.34742 0.847038 0.429592 0.219176 -0.0448519 0.00582337 3.05635 0.579221 2.04134 0.0900943 6.36961 1.05361 2.62736 0.370174 1.30865 0.708053 0.81339 0.301434 0.18614 1.114 0.0764813 3.99249 1.82616 0.328788 1.21783 0.0340168 0.235484 -0.0534518 0.804547 0.46546 -0.00491779 0.251384 0.486627 0.371604 4.9326 1.53483 0.700868 0.585992 0.143864 0.911409 0.10311 0.0593487 0.158539 2.45894 -0.031299 0.0199187 -0.0534938 0.176528 0.0526953 -0.0108038 -0.0349792 0.119335 0.0097444 -0.0221456
internal_weight=2.66851e+06 63344 2.60516e+06 58702 4642 2.33721e+06 267953 4143 499 14191 44511 82351 1.73154e+06 605674 457 12649 1572 185602 42 5705 316 31862 2571 8486 4552 23594 58757 1385 148108 141 1041 22217 2644 167091 21074 1.05934e+06 51 9645 438583 13774 7185 9820 30 1186 5464 3934 37494 3061 57982 90126 37683 531 672199 95222 1.05929e+06 16078 71869 312952 479431 21416 125631 192768
internal_count=2668509 63344 2605165 58702 4642 2337212 267953 4143 499 14191 44511 82351 1731538 605674 457 12649 1572 185602 42 5705 316 31862 2571 8486 4552 23594 58757 1385 148108 141 1041 22217 2644 167091 21074 1059339 51 9645 438583 13774 7185 9820 30 1186 5464 3934 37494 3061 57982 90126 37683 531 672199 95222 1059288 16078 71869 312952 479431 21416 125631 192768
is_linear=0
shrinkage=0.05


Tree=11
num_leaves=62
num_cat=0
split_feature=4 4 4 4 4 4 9 4 9 24 9 4 4 9 9 11 4 9 4 4 4 8 4 11 12 4 2 24 9 4 4 6 8 9 10 22 10 22 23 10 10 11 9 22 2 2 10 9 10 10 10 6 10 9 2 10 6 6 6 23 22
split_gain=9.05075e+06 2.55814e+06 2.00739e+06 649331 535915 382627 299919 285661 206200 163904 138121 104777 94531.5 73622.2 71471.3 54792.8 51261.3 49450 47868.8 46926.4 45975 43992.3 41178.6 36323.6 35583.5 34263.9 30344.7 29656.5 29559.8 29217.8 28107.2 21026.8 18486.2 18323.7 18125.1 17834.8 16408 16237.2 15984 14896.1 13778.9 13420.2 13371.8 12310.5 12167.6 11667.7 9383.6 9190.07 8739.61 7797.06 7453.29 7001.88 5315.04 5174.7 4968.17 4363.12 4183.79 4090.64 2758.41 2746.85 2364.64
threshold=11.750000000000002 39.321428571428577 2.9642857142857149 87.500000000000014 22.464285714285719 6.3214285714285721 4.5000000000000009 0.96428571428571441 4.5000000000000009 0.89882252525570128 4.5000000000000009 57.107142857142868 57.107142857142868 4.5000000000000009 3.5000000000000004 48.500000000000007 4.3214285714285721 4.5000000000000009 31.607142857142861 16.178571428571434 1.8214285714285718 0.62994078835105127 17.464285714285719 48.500000000000007 3.5000000000000004 31.607142857142861 75.500000000000014 0.99933507020599999 4.5000000000000009 8.3928571428571441 8.6785714285714288 17.624387813311571 17.064265348995342 4.5000000000000009 11.500000000000002 1.4600000000000002 11.500000000000002 1.4100000000000001 0.077998505832884299 12.500000000000002 11.500000000000002 7.5000000000000009 3.5000000000000004 0.81000000000000016 148.50000000000003 33.500000000000007 11.500000000000002 4.5000000000000009 10.500000000000002 10.500000000000002 10.500000000000002 12.077132895290584 10.500000000000002 4.5000000000000009 10.500000000000002 12.500000000000002 6.3733074317066754 1.0000000180025095e-35 5.2553827281224414 -1.0000000180025095e-35 1.9750000000000003
decision_type=2 2 2 2 2 2 2 2 2 2 2 2 2 2 2 2 2 2 2 2 2 2 2 2 2 2 2 2 2 2 2 2 2 2 2 2 2 2 2 2 2 2 2 2 2 2 2 2 2 2 2 2 2 2 2 2 2 2 2 2 2
left_child=2 4 7 6 10 16 12 21 25 17 19 35 37 29 24 -13 31 44 45 26 47 57 39 -14 -11 36 -2 -16 48 46 54 33 53 -4 -21 -8 -6 -3 -20 -12 -31 -34 52 -27 -5 -10 -7 56 -18 -32 -24 -30 -22 -23 -15 -44 -9 59 -49 -1 -59
right_child=1 3 5 9 8 13 11 20 18 14 22 15 23 30 27 -17 28 -19 38 34 42 32 50 -25 -26 43 -28 -29 51 40 49 -33 41 -35 -36 -37 -38 -39 -40 -41 -42 -43 55 -45 -46 -47 -48 58 -50 -51 -52 -53 -54 -55 -56 -57 -58 60 -60 -61 -62
leaf_value=-0.014436016915685947 0.26840880586421262 0.77087068792531288 0.032392094641799624 5.4603108870464823 0.63372415512825842 0.15390910483393164 1.3056110880686009 -0.021844390901575632 0.80472217305483573 1.8080520493925716 0.52450860907529095 2.6144366226498219 1.5450749551536114 0.18411196170001026 3.8574224735282314 0.10841854691505433 0.097579710213411414 8.876471674992489 1.2634849254150109 0.46090901482689861 0.012497639132027075 -0.037685736139313197 0.72591640986753081 0.26771521570285162 2.9789371524701096 0.2280813700432579 2.7846992767167591 2.2972815217177076 0.12957710145327059 0.2287082737667363 0.36450761699762335 1.7068403216412193 1.5818320226669311 0.070628622195471502 0.34580957140432877 1.7367431660987311 0.48528017175653543 1.0281101063433782 -0.53246550615017241 0.39820520705183332 0.16092220235334229 0.267507739014678 0.03370309544232624 0.74901973830404645 2.8093679011951793 0.9955719907372127 0.1020928934769486 -0.0062709900616907694 0.060606992946171515 0.27636844914375824 0.58410846350632672 0.55529789250497663 -0.0072104612374028461 -0.027023242614577704 0.24144561188709288 0.013882013839833972 0.28657190395332871 -0.015955342360272001 0.20081673315946036 -0.053612756121443818 -0.045398562397700029
leaf_weight=4500 20972 829 109183 22 2816 13407 338 324268 1993 162 3721 457 1143 11388 170 23 23231 11.999999999999998 1248 5211 50320 396398 1365 59 118 119 10.999999999999998 44 29847 11382 3642 18 20 43945 10047 1016 5604 2574 11.999999999999998 6353 22024 272 44587 3005 9.9999999999999982 1399 25129 130055 51271 8189 3081 96 106853 159634 5683 73593 109 7240 160 820263 117868
leaf_count=4500 20972 829 109183 22 2816 13407 338 324268 1993 162 3721 457 1143 11388 170 23 23231 12 1248 5211 50320 396398 1365 59 118 119 11 44 29847 11382 3642 18 20 43945 10047 1016 5604 2574 12 6353 22024 272 44587 3005 10 1399 25129 130055 51271 8189 3081 96 106853 159634 5683 73593 109 7240 160 820263 117868
internal_value=1.17123e-05 0.545501 -0.0155325 1.45656 0.450547 0.0943165 1.31673 -0.0331405 0.700977 3.12452 0.370631 1.85771 1.10092 0.176881 2.85297 2.49484 0.061993 6.0421 0.982074 0.318407 -0.00746953 -0.0455813 0.500947 1.48265 2.31036 0.587625 0.269861 3.54885 0.0890021 0.149798 0.244286 0.0435724 -0.0344155 0.0433657 0.385147 1.63017 0.534996 0.965691 1.24597 0.444905 0.184024 0.362639 0.00865366 0.729257 4.74228 0.883708 0.120124 -0.0172356 0.0721369 0.30353 0.627801 0.130961 -0.000900708 -0.0346247 0.203212 0.0213604 -0.0217399 -0.0521209 -0.00601496 -0.053399 -0.0436949
internal_weight=2.66851e+06 73934 2.59458e+06 6977 66957 358435 6439 2.23614e+06 16196 538 50761 1834 4605 100844 494 480 257591 44 4652 36241 729945 1.5062e+06 14520 1202 280 11544 20983 214 104445 71942 28902 153146 556324 153128 15258 1354 8420 3403 1260 10074 33406 292 275353 3124 32 3392 38536 454592 74502 11831 4446 29943 157173 556032 17071 118180 324377 949871 130215 824763 125108
internal_count=2668509 73934 2594575 6977 66957 358435 6439 2236140 16196 538 50761 1834 4605 100844 494 480 257591 44 4652 36241 729945 1506195 14520 1202 280 11544 20983 214 104445 71942 28902 153146 556324 153128 15258 1354 8420 3403 1260 10074 33406 292 275353 3124 32 3392 38536 454592 74502 11831 4446 29943 157173 556032 17071 118180 324377 949871 130215 824763 125108
is_linear=0
shrinkage=0.05


Tree=12
num_leaves=63
num_cat=0
split_feature=5 0 4 4 0 4 5 0 5 5 9 24 9 5 0 9 8 9 4 5 5 24 9 22 5 5 6 23 4 0 9 9 9 0 0 9 9 5 5 0 9 22 5 6 5 6 9 9 0 5 7 0 9 5 5 0 16 8 0 8 23 23
split_gain=8.18102e+06 2.5789e+06 1.61555e+06 744641 441260 285643 238631 236173 172138 157141 120260 102419 82571.2 69375.2 66236.8 62402.5 57629.4 53400.7 53941.2 49735.5 46460.3 43951.9 40511.3 38663.8 33384.1 30593.7 28841.7 28582.5 30628.7 27907 26218.4 25020.3 24868.4 22556.3 22076.3 21487.2 20072.4 18636.7 18581.9 18466 15763 15178.8 13658.6 12931.3 11634.6 11262.1 10611.8 10569.8 10409.4 9710.17 9622.08 9361.82 8722.89 6261.89 6078.72 5689.71 5687.25 5137.95 4892.44 3429.94 2564.93 2527.71
threshold=10.517857142857144 36.500000000000007 2.8214285714285716 63.392857142857146 17.500000000000004 6.1071428571428585 0.82738095238095244 123.50000000000001 41.875000000000007 24.482142857142861 4.5000000000000009 0.89882252525570128 4.5000000000000009 16.517857142857146 11.500000000000002 3.5000000000000004 13.406693029581112 4.5000000000000009 26.964285714285719 4.2886904761904772 1.7928571428571431 0.928232002813555 4.5000000000000009 1.3700000000000003 38.928571428571438 18.053571428571434 3.2722216683688095e-07 -0.21025048462604209 17.464285714285719 5.5000000000000009 3.5000000000000004 3.5000000000000004 3.5000000000000004 2.5000000000000004 87.500000000000014 3.5000000000000004 4.5000000000000009 45.910714285714292 16.875000000000004 64.500000000000014 3.5000000000000004 0.9850000000000001 52.392857142857146 2.6367367999823155 7.5535714285714297 1.8898223650461412 4.5000000000000009 3.5000000000000004 18.500000000000004 7.4464285714285721 12.794336794511773 12.500000000000002 4.5000000000000009 5.7321428571428585 2.5405844155844162 1.5000000000000002 1.0000000180025095e-35 17.064265348995342 2.5000000000000004 4.0992966231089865 0.02386648433268965 -0.060824911051873938
decision_type=2 2 2 2 2 2 2 2 2 2 2 2 2 2 2 2 2 2 2 2 2 2 2 2 2 2 2 2 2 2 2 2 2 2 2 2 2 2 2 2 2 2 2 2 2 2 2 2 2 2 2 2 2 2 2 2 2 2 2 2 2 2
left_child=2 4 6 8 13 19 26 15 17 22 47 12 -9 29 32 21 40 41 -19 36 51 -5 38 -13 30 -24 60 28 -15 45 -11 -31 49 -29 -18 56 50 -12 -6 -17 -16 -3 -26 58 -34 -2 54 -10 -38 -7 -4 52 -8 -37 -22 -45 -21 -48 -28 -53 61 -1
right_child=1 3 5 7 9 14 20 11 10 24 37 23 -14 27 16 39 34 18 -20 35 46 -23 25 -25 42 -27 43 33 -30 31 -32 -33 44 -35 -36 53 48 -39 -40 -41 -42 -43 -44 55 -46 -47 57 -49 -50 -51 -52 59 -54 -55 -56 -57 -58 -59 -60 -61 -62 -63
leaf_value=-0.0065027706656191082 -0.025551033927041812 0.34539916204109355 0.028251754995305186 2.3896794448137282 0.33036550796677838 0.087252057450504961 -0.02295935429715493 4.2702501657274032 1.047100758148567 0.59868264771769597 1.4789916351286672 3.8043654069046333 9.6743026192983006 3.8935464656352985 0.16815137310414655 1.5342897114157679 0.85363860985446083 0.79750858005310921 1.2029745015771074 0.051001467993999051 -0.0051692036611117953 1.4722200508066008 0.47664338338537304 2.4177980334590181 0.87608403436900151 0.67279067644171797 -0.037112258400021955 0.21160513609295895 0.21918080310026805 0.23464090260905457 0.81111738305729109 0.33341482227651492 0.14050065970663342 0.4046727472752899 2.9834383869171144 0.10037562403508016 0.063809562873143474 1.9563205427393258 0.45880491226508008 2.5649129565217392 0.25633901078123095 0.76719389040317865 1.3099764108987448 -0.0064352750850894857 0.20493655785649301 0.18251488309760708 0.022513791343000342 1.3399744074296678 0.376265970854464 0.13258624911992364 0.92383232711752261 0.14676046281710875 -0.0091949676242475322 0.14622556233186487 0.015274971089349693 0.10621061010569069 0.085073281082220426 0.84486356132908869 -0.014645344106179702 0.50528873652947703 -0.0053485622618625129 -0.05051486083753997
leaf_weight=3275 724 238 127865 174 5092 23586 401763 26 1252 3984 315 126 10.999999999999998 11.000000000000002 8275 55 255 1428 1961 34162 135169 570 5784 98 1306 3046 472455 1738 10.999999999999998 16654 2310 10444 15759 11870 11.999999999999998 30343 51212 712 6348 397 13112 2277 216 2264 12634 6370 74073 434 267 23685 29 293 161325 9879 49737 2219 19101 18 25544 86 3178 880952
leaf_count=3275 724 238 127865 174 5092 23586 401763 26 1252 3984 315 126 11 11 8275 55 255 1428 1961 34162 135169 570 5784 98 1306 3046 472455 1738 11 16654 2310 10444 15759 11870 12 30343 51212 712 6348 397 13112 2277 216 2264 12634 6370 74073 434 267 23685 29 293 161325 9879 49737 2219 19101 18 25544 86 3178 880952
internal_value=1.2155e-05 0.479807 -0.0159622 1.23144 0.38004 0.0807163 -0.0321387 2.27677 1.05445 0.537347 1.38435 3.64092 6.0893 0.287643 0.15426 1.97628 0.23137 0.902643 1.03241 0.0544855 -0.0107916 1.68971 0.463859 3.21121 0.727845 0.544376 -0.0447708 0.38304 2.14599 0.249605 0.676767 0.272721 0.13219 0.380032 0.960154 0.0840549 0.0390742 1.8115 0.40167 2.44318 0.222227 0.727434 0.938484 -0.0351988 0.169179 0.161279 0.00673661 1.12324 0.0654375 0.109969 0.0284621 -0.0188485 -0.0190159 0.11164 0.000330005 0.0493324 0.0632217 0.022725 -0.0359599 0.229244 -0.0501907 -0.0503519
internal_weight=2.66851e+06 85982 2.58253e+06 10074 75908 370176 2.21235e+06 1457 8617 28086 2713 261 37 47822 97318 1196 21654 5904 3389 272858 822464 744 20270 224 7816 8830 1.38989e+06 13630 22 34192 6294 27098 75664 13608 267 93485 179373 1027 11440 452 21387 2515 1522 502482 28393 7094 258997 1686 51479 47271 127894 563467 563088 40222 184906 4483 53263 74091 497999 379 887405 884227
internal_count=2668509 85982 2582527 10074 75908 370176 2212351 1457 8617 28086 2713 261 37 47822 97318 1196 21654 5904 3389 272858 822464 744 20270 224 7816 8830 1389887 13630 22 34192 6294 27098 75664 13608 267 93485 179373 1027 11440 452 21387 2515 1522 502482 28393 7094 258997 1686 51479 47271 127894 563467 563088 40222 184906 4483 53263 74091 497999 379 887405 884227
is_linear=0
shrinkage=0.05


Tree=13
num_leaves=63
num_cat=0
split_feature=3 3 3 0 0 4 3 4 0 2 2 2 9 4 22 2 8 4 2 0 0 22 8 11 0 9 2 11 0 0 9 2 9 8 4 10 11 4 9 3 0 10 9 9 4 4 4 4 3 2 10 0 0 10 6 2 4 10 4 23 22 2
split_gain=7.42384e+06 2.22528e+06 1.56124e+06 771933 318236 258167 257521 249418 113007 111137 110281 80048.2 68629 70024.6 66989 54424.1 46700.6 39517.8 38979.4 32637.8 29614.6 26626.7 32609.1 25410.2 24250.6 23696.7 22696.8 22093.9 21865.5 20196.9 17313.2 15978.3 15539.8 15208.5 13840 13392.3 12347.9 11935 11731.6 10550.7 9815.71 9627.01 9168.82 9099.29 9073.13 8702.28 8434.78 7899.42 7719.07 7587.59 6292.5 6156.07 5938.85 5492.9 5419.27 5123.55 4141.81 3554.41 2758.72 2329.51 2136.98 1917.69
threshold=11.357142857142859 31.928571428571434 3.2142857142857149 63.500000000000007 20.500000000000004 1.1071428571428574 6.5000000000000009 87.500000000000014 137.50000000000003 38.500000000000007 24.500000000000004 15.500000000000002 3.5000000000000004 57.107142857142868 1.2450000000000003 10.500000000000002 0.7417981870189404 2.1785714285714293 6.5000000000000009 43.500000000000007 36.500000000000007 0.22500000000000003 11.53218962258036 45.500000000000007 32.500000000000007 3.5000000000000004 106.50000000000001 25.500000000000004 7.5000000000000009 12.500000000000002 3.5000000000000004 95.500000000000014 4.5000000000000009 17.064265348995342 87.500000000000014 11.500000000000002 7.5000000000000009 57.107142857142868 3.5000000000000004 4.5000000000000009 23.500000000000004 12.500000000000002 3.5000000000000004 3.5000000000000004 24.964285714285719 4.5357142857142865 9.3214285714285747 8.1071428571428594 8.3571428571428594 20.500000000000004 10.500000000000002 27.500000000000004 3.5000000000000004 8.5000000000000018 1.0000000180025095e-35 4.5000000000000009 1.5357142857142858 11.500000000000002 33.535714285714292 0.02386648433268965 0.22500000000000003 20.500000000000004
decision_type=2 2 2 2 2 2 2 2 2 2 2 2 2 2 2 2 2 2 2 2 2 2 2 2 2 2 2 2 2 2 2 2 2 2 2 2 2 2 2 2 2 2 2 2 2 2 2 2 2 2 2 2 2 2 2 2 2 2 2 2 2 2
left_child=2 4 5 9 11 16 18 12 27 20 21 28 23 -14 -10 25 54 42 30 34 51 53 -23 -5 41 48 29 -9 58 -13 45 -21 49 52 -11 -30 -35 -22 50 -32 43 -12 57 -20 -26 -4 -34 -27 -8 -17 -19 -3 -18 -6 59 -40 -44 -7 -2 -1 -56 -42
right_child=1 3 6 7 10 17 15 8 14 19 24 26 13 -15 -16 32 33 38 40 31 37 22 -24 -25 44 47 -28 -29 35 -31 39 -33 46 36 -36 -37 -38 -39 55 -41 61 -43 56 -45 -46 -47 -48 -49 -50 -51 -52 -53 -54 -55 60 -57 -58 -59 -60 -61 -62 -63
leaf_value=-0.048321588676937123 0.16085574127018529 0.60049786370478964 0.027388517951378422 1.27142543894013 0.53009381230605734 -0.0092932102567020881 0.094135962993724009 1.6679689689059007 6.0565271922161701 0.96307716970755064 0.70224090500323832 0.31086717612188214 1.5681069615666163 2.2951236644060944 3.4601059347812573 0.17422740880878179 -0.029617455135823947 0.021926430100276728 0.074416787874709137 1.2460917320018172 0.87292209400848886 0.42662659173790551 0.63108928050033819 0.10350123392211066 0.71593336164562027 0.15268010947692509 2.6565115404129029 2.699370076919303 0.32561354355932115 0.42513810003071228 0.054174500683237252 1.9668271484261468 0.23071625208551089 1.4995101529075985 2.3039444199800494 0.24366411425966714 0.23952661029670552 1.2989502133306909 0.022158164789496931 0.093901222654439356 0.41741013763602386 0.55424294809996477 -0.0099717299653503174 0.11882020100220528 0.91118997861207096 0.05692633110988924 0.32174080963374785 0.21030921321594254 0.13727314597821696 0.28271445617996871 -0.0031464210989850584 0.7413312087264039 0.0014335883732578348 0.060824253117990806 0.091576157483144308 0.049650233617313411 0.0044195203824501476 -0.021357103678654704 0.72288608868013726 -0.0029576402781967214 -0.03918734827286361 0.93416630148887636
leaf_weight=833042 6249 1573 73198 395 70 94971 23366 75 37 1812 2049 6272 879 547 98 11959 552489 37343 20162 1714 2202 11263 2365 53 1176 15693 9.9999999999999982 237 7071 10158 44776 83 5953 20 19 17024 275 182 61914 26674 42 2452 101451 27000 1277 37822 4472 9598 18669 1866 75850 1622 15840 516 312 23336 98571 170998 21 2840 198471 35
leaf_count=833042 6249 1573 73198 395 70 94971 23366 75 37 1812 2049 6272 879 547 98 11959 552489 37343 20162 1714 2202 11263 2365 53 1176 15693 10 237 7071 10158 44776 83 5953 20 19 17024 275 182 61914 26674 42 2452 101451 27000 1277 37822 4472 9598 18669 1866 75850 1622 15840 516 312 23336 98571 170998 21 2840 198471 35
internal_value=1.26042e-05 0.475925 -0.0146015 1.11824 0.366975 -0.0292162 0.0885529 1.93311 2.99538 0.912636 0.527852 0.294207 1.67827 1.8484 4.21106 0.15945 -0.0400765 -0.00300988 0.0602885 1.12825 0.772246 0.447962 0.462153 1.13381 0.69106 0.136312 0.383084 2.45757 0.246077 0.381538 0.0498081 1.28046 0.223679 -0.0285654 0.978244 0.267726 0.329743 0.905979 0.0156758 0.0690066 0.100769 0.621759 -0.0109673 0.0998396 0.817913 0.0374518 0.269791 0.174558 0.113297 0.18889 0.00512533 0.672206 -0.028752 0.117696 -0.0464027 0.0296843 -0.0028797 -0.0170495 0.162854 -0.0481675 -0.0389816 0.661328
internal_weight=2.66851e+06 79501 2.58901e+06 11528 67973 2.26772e+06 321285 2321 447 9207 21168 46805 1874 1426 135 91576 1.60329e+06 664434 229709 3628 5579 14214 13628 448 6954 67326 16440 312 30365 16430 182470 1797 24250 568624 1831 24095 295 2384 198443 71450 47239 4501 465991 47162 2453 111020 10425 25291 42035 13825 113193 3195 568329 586 1.03466e+06 85250 200022 265969 6270 835882 198783 77
internal_count=2668509 79501 2589008 11528 67973 2267723 321285 2321 447 9207 21168 46805 1874 1426 135 91576 1603289 664434 229709 3628 5579 14214 13628 448 6954 67326 16440 312 30365 16430 182470 1797 24250 568624 1831 24095 295 2384 198443 71450 47239 4501 465991 47162 2453 111020 10425 25291 42035 13825 113193 3195 568329 586 1034665 85250 200022 265969 6270 835882 198783 77
is_linear=0
shrinkage=0.05


Tree=14
num_leaves=63
num_cat=0
split_feature=3 0 3 3 0 5 5 2 1 3 5 9 9 24 9 4 5 2 0 0 0 1 2 0 5 4 11 9 5 5 9 2 1 5 0 5 10 3 1 8 5 5 9 2 10 9 3 9 0 10 9 9 10 9 9 8 7 0 0 10 5 0
split_gain=6.71104e+06 1.81578e+06 1.6758e+06 510063 379939 316315 280776 125481 121701 110591 104847 72453 64783.3 61956.7 58972.3 58041.5 54209.2 44714.8 42386 41473.9 35497.5 31740.1 25854.9 24842.6 24221.2 23421.5 27623.4 21898.7 20518 20165.2 19837.9 18301.4 18171.3 15945.6 15674.1 15664.4 15420.5 15407.9 14283.9 14222.2 15952.1 12623.6 11590.3 11023.7 10829.6 9803.04 9756.34 9643.84 9198.96 8060.68 7974.78 7852.93 7582.75 7556.87 6840.33 6513.23 5793.77 4930.66 4831.95 3850.11 3289.33 2890.68
threshold=13.214285714285717 50.500000000000007 3.785714285714286 25.500000000000004 100.50000000000001 1.3603896103896107 7.5535714285714297 20.500000000000004 56.500000000000007 119.85714285714288 38.928571428571438 4.5000000000000009 4.5000000000000009 0.89882252525570128 4.5000000000000009 0.46428571428571436 2.6801948051948057 86.500000000000014 7.5000000000000009 14.500000000000002 26.500000000000004 79.500000000000014 41.500000000000007 161.00000000000003 10.517857142857144 57.107142857142868 48.500000000000007 3.5000000000000004 4.8770903010033457 10.375000000000002 3.5000000000000004 101.50000000000001 1.0000000180025095e-35 41.875000000000007 123.50000000000001 29.160714285714288 10.500000000000002 103.57142857142858 98.500000000000014 4.3344015777310085 3.2554347826086958 27.553571428571434 3.5000000000000004 119.00000000000001 4.5000000000000009 4.5000000000000009 2.0714285714285716 4.5000000000000009 4.5000000000000009 11.500000000000002 3.5000000000000004 3.5000000000000004 11.500000000000002 4.5000000000000009 4.5000000000000009 2.701118660875086e-06 4.3228246768534921 3.5000000000000004 16.500000000000004 11.500000000000002 2.1135714285714289 2.5000000000000004
decision_type=2 2 2 2 2 2 2 2 2 2 2 2 2 2 2 2 2 2 2 2 2 2 2 2 2 2 2 2 2 2 2 2 2 2 2 2 2 2 2 2 2 2 2 2 2 2 2 2 2 2 2 2 2 2 2 2 2 2 2 2 2 2
left_child=2 3 5 7 8 15 18 19 22 21 12 38 35 -13 24 55 45 33 28 48 31 23 32 -6 52 30 -27 -21 51 58 -12 -9 -3 -10 -23 -5 -26 -24 -11 50 -41 -14 43 -18 -19 59 54 -30 -2 -31 -20 -4 -8 -22 -17 -1 -48 -44 -16 -7 -47 -57
right_child=1 4 6 10 9 16 14 20 17 11 25 13 41 -15 29 46 42 44 39 27 53 34 37 -25 36 26 -28 -29 47 49 -32 -33 -34 -35 -36 -37 -38 -39 -40 40 -42 -43 57 -45 -46 60 56 -49 -50 -51 -52 -53 -54 -55 -56 61 -58 -59 -60 -61 -62 -63
leaf_value=-0.046035380606327669 0.12402124719365802 1.5596653244907808 0.033997290995196675 0.48778819211121061 1.9937107813996928 -0.00067678806057023698 0.16787082377060042 0.43368834623539548 1.1746734446947951 1.7194319162368776 0.79741654274312079 8.9689788913726822 0.72971657922236011 4.293050757090251 0.21038125867804647 -0.029089322532842896 0.01906760026437522 2.8256774561188442 0.069162564171067101 0.29950602103110419 0.50417940390623783 2.2697556913648333 1.2170436239114233 0.33527878708073078 0.26578212575754784 1.3291107491456935 -0.10033450548713273 0.41203410359926534 0.07345886414776269 0.3865719163145907 1.0946273639378594 2.4786765451864765 0.84864514031133942 1.5831320913094737 3.0569186248150908 0.62886376754095696 0.17158487614544957 3.1353702172366056 3.4575699871161891 0.34062235297645294 0.14259828923057713 0.95605662229809507 0.035812275794668495 1.5346412619948389 1.9948286897465046 0.0034746765150188695 0.0073385879044252575 0.1219183025029893 0.25009330364608473 0.28298210321485201 0.11795414218249584 0.064830520245770074 0.11811030700068562 0.67922587245201238 -0.017632036627056934 -0.03819481179335614 0.28407530378764839 0.06338699781930647 0.29761495181892678 -0.012416943728814987 0.021662842866322377 0.0015580897091354475
leaf_weight=770986 1632 98 52888 4561 153 110152 12028 9423 335 19 2091 10.999999999999998 1297 29 10981 454348 90308 54 13936 9629 872 174 1057 27 7056 518 36 7878 47163 3168 783 9.9999999999999982 1205 1010 128 3507 11338 9.9999999999999982 57 1106 12612 1223 41500 10.999999999999998 275 85931 19376 13128 12983 4670 21011 33885 21119 2259 182653 324737 190 26612 1864 190794 34976 4638
leaf_count=770986 1632 98 52888 4561 153 110152 12028 9423 335 19 2091 11 1297 29 10981 454348 90308 54 13936 9629 872 174 1057 27 7056 518 36 7878 47163 3168 783 10 1205 1010 128 3507 11338 10 57 1106 12612 1223 41500 11 275 85931 19376 13128 12983 4670 21011 33885 21119 2259 182653 324737 190 26612 1864 190794 34976 4638
internal_value=1.27955e-05 0.508514 -0.0123515 0.433218 1.46039 -0.0259297 0.106084 0.350661 1.28585 2.63665 0.696385 4.02873 0.618448 5.76645 0.190341 -0.0365009 0.0060767 1.61268 0.0749925 0.298242 0.484645 2.29396 1.05441 1.7482 0.161714 0.936857 1.2362 0.350164 0.0616069 0.261667 0.878744 0.436119 0.903281 1.48235 2.61239 0.549182 0.207732 1.23795 3.05107 0.115441 0.158588 0.839901 0.0310137 0.0192692 2.13936 -0.00328869 -0.0247359 0.0840125 0.236025 0.324896 0.0984999 0.0460384 0.136171 0.630653 -0.0258041 -0.0435209 0.0100405 0.0465868 0.223063 -0.00811986 0.00873633 -0.037635
internal_weight=2.66851e+06 63344 2.60516e+06 58702 4642 2.33721e+06 267953 44686 4044 598 14016 116 10588 40 72224 1.75693e+06 580284 1674 195729 32122 12564 482 2370 180 51541 3428 554 17507 147064 20683 2874 9433 1303 1345 302 8068 18394 1067 76 48665 13718 2520 158431 90319 329 421853 656567 60291 14615 7838 34947 86773 33147 3131 637001 1.10036e+06 19566 68112 12845 300946 120907 329375
internal_count=2668509 63344 2605165 58702 4642 2337212 267953 44686 4044 598 14016 116 10588 40 72224 1756928 580284 1674 195729 32122 12564 482 2370 180 51541 3428 554 17507 147064 20683 2874 9433 1303 1345 302 8068 18394 1067 76 48665 13718 2520 158431 90319 329 421853 656567 60291 14615 7838 34947 86773 33147 3131 637001 1100361 19566 68112 12845 300946 120907 329375
is_linear=0
shrinkage=0.05


Tree=15
num_leaves=63
num_cat=0
split_feature=5 5 5 1 5 5 5 9 24 9 9 10 5 13 8 5 1 11 9 5 5 2 5 1 24 6 10 9 5 1 1 6 5 5 5 5 6 8 23 7 7 6 2 7 9 6 10 10 6 1 6 10 8 2 6 6 10 6 7 23 9 6
split_gain=6.06515e+06 1.59392e+06 1.48739e+06 347559 303341 263997 261764 141841 130071 119394 101656 79505.4 62553.8 59757.6 52407.8 45638.7 59022.1 41933 36915.1 32538 31245.3 30370.2 27950.4 27796.9 27677.9 26176.4 25006.3 24844.2 24253.1 23908.5 21354.5 21191.7 19094.2 17260.5 16025.6 15971.7 15221.3 14818.2 13672.1 13298.8 12150.4 11584.7 11318.1 10265.8 10172.8 9472.33 9331.31 8494.47 8452.79 8367.35 7953.58 7417.94 7286.5 6396.35 4539.36 4170.25 4074.59 3961.98 2584.85 2275.37 762.172 43.7327
threshold=13.625000000000002 3.5892857142857149 41.875000000000007 91.000000000000014 23.553571428571434 1.3273809523809526 7.5535714285714297 4.5000000000000009 0.928232002813555 4.5000000000000009 4.5000000000000009 20.500000000000004 65.035714285714292 1.0000000180025095e-35 0.74446813513646248 65.035714285714292 52.500000000000007 45.500000000000007 4.5000000000000009 2.3964285714285718 31.089285714285719 78.500000000000014 18.482142857142861 98.500000000000014 0.96763102441192006 4.3752550946039381 11.500000000000002 3.5000000000000004 29.160714285714288 83.500000000000014 130.50000000000003 7.8876307054968272e-07 5.8035714285714297 5.5820105820105832 10.375000000000002 10.232142857142859 5.3807416730764368 9.380196934085367 0.077998505832884299 6.9442441945397873 5.426836044192739 0.48795003647426954 1.0000000180025095e-35 11.34571613981565 4.5000000000000009 19.985113427529875 9.5000000000000018 10.500000000000002 25.647317843702861 22.500000000000004 2.6095064302514839 14.500000000000002 13.406693029581112 1.0000000180025095e-35 1.0000000180025095e-35 19.985113427529875 12.500000000000002 25.647317843702861 5.268609091424584 -1.0000000180025095e-35 4.5000000000000009 19.985113427529875
decision_type=2 2 2 2 2 2 2 2 2 2 2 2 2 2 2 2 2 2 2 2 2 2 2 2 2 2 2 2 2 2 2 2 2 2 2 2 2 2 2 2 2 2 2 2 2 2 2 2 2 2 2 2 2 2 2 2 2 2 2 2 2 2
left_child=1 5 4 9 10 14 18 28 11 12 21 30 31 34 54 25 -17 27 32 37 46 26 42 -13 -14 -11 -2 -10 47 -24 -5 -4 45 43 51 48 50 40 -22 44 -7 -36 -12 -20 -21 -3 -9 -6 -15 -30 -16 -8 -35 -37 59 -41 -34 -19 -38 -1 -56 -39
right_child=2 6 3 8 7 19 13 20 17 15 22 23 24 35 36 16 -18 57 33 39 38 -23 29 -25 -26 -27 -28 -29 49 -31 -32 -33 56 52 41 53 58 61 -40 55 -42 -43 -44 -45 -46 -47 -48 -49 -50 -51 -52 -53 -54 -55 60 -57 -58 -59 -60 -61 -62 -63
leaf_value=-0.0082348217845918531 0.36000825330088565 0.045849370284997137 -0.34546704823630203 1.8744639040638764 0.53035616835749944 -0.0045427650154833714 0.15350276347178332 0.89873512225451424 1.0080842115274116 -0.34724203562736511 0.78086605354291716 2.0549924132029216 2.0691047926382584 0.20958296241118896 -0.025133003033204 6.0845422025160367 2.1438362317038053 0.5556321790483264 0.083997298500016193 0.012993962155245217 1.0439309148443525 2.9251877455277877 0.57973303682890454 4.683977734846227 1.2579893622020881 1.5094192700277811 0.25960436195286313 2.0850723555499333 0.48889475221703249 2.9209174433621494 3.0662507437827973 0.90144481652481301 0.10658404694126684 0.14196303399814464 -0.11764533242914413 0.50124756641279944 0.15253577602864712 0.9258650308847427 -0.44715591820888223 0.20159040469343645 0.15737787035816045 0.18801658186176118 0.40690870239311433 0.52405065884099422 0.038847461315275326 0.79691907972097398 0.68834882286435473 0.39529835163642651 1.4865534911705898 0.63178964412268734 0.012454900812751579 0.10770318576319338 0.75918200322737306 0.28756391957514982 -0.037143344824200022 1.1834296829050237 0.073658372047563786 -0.52582251846790318 0.37154693165115826 -0.043681375601576533 -0.030433416370067374 1.4311958472086832
leaf_weight=4553 9716 110153 34 81 1778 393710 16274 766 66 19 209 13.999999999999998 131 13778 680728 9.9999999999999982 100 17 41488 132738 1643 9.9999999999999982 3853 84 599 1004 17208 370 1426 9.9999999999999982 85 2843 15602 18339 314 366 446 11 14.999999999999998 881 1161 20911 6697 132 53339 41 1823 3461 11.999999999999998 3861 14370 19395 47 8731 147830 9.9999999999999982 23669 14.999999999999998 194 831961 59365 12
leaf_count=4553 9716 110153 34 81 1778 393710 16274 766 66 19 209 14 131 13778 680728 10 100 17 41488 132738 1643 10 3853 84 599 1004 17208 370 1426 10 85 2843 15602 18339 314 366 446 11 15 881 1161 20911 6697 132 53339 41 1823 3461 12 3861 14370 19395 47 8731 147830 10 23669 15 194 831961 59365 12
internal_value=1.32142e-05 -0.0112176 0.505955 1.29036 0.424137 -0.025009 0.099461 0.616192 2.30434 1.13331 0.348871 3.19389 0.992111 0.176533 -0.0347613 1.58156 2.55372 1.79679 0.0701059 0.00414501 0.860158 0.296934 0.478727 4.33301 1.40618 1.47463 0.295849 1.92473 0.517685 0.586549 2.49945 0.886592 0.0568056 0.103233 0.149082 0.244764 -0.0241314 -0.00399076 1.03018 0.0213285 -0.00406628 0.183489 0.418338 0.0854056 0.0204051 0.0461361 0.75092 0.441227 0.210802 0.593349 -0.0243559 0.128603 0.143582 0.296216 -0.0418473 0.21393 0.0867419 0.0479763 0.219407 -0.0434885 -0.035221 1.23837
internal_weight=2.66851e+06 2.61056e+06 57948 5472 52476 2.32131e+06 289252 14773 732 4740 37703 264 3607 79781 1.73945e+06 1133 110 468 209471 581862 4247 26934 10769 98 730 1023 26924 436 10526 3863 166 2877 149465 60006 56894 22887 695738 394894 1658 186968 394871 21225 6906 41620 186077 110194 2589 5239 13790 5287 695098 35669 18386 9097 1.04371e+06 891 39271 32 640 836514 207195 23
internal_count=2668509 2610561 57948 5472 52476 2321309 289252 14773 732 4740 37703 264 3607 79781 1739447 1133 110 468 209471 581862 4247 26934 10769 98 730 1023 26924 436 10526 3863 166 2877 149465 60006 56894 22887 695738 394894 1658 186968 394871 21225 6906 41620 186077 110194 2589 5239 13790 5287 695098 35669 18386 9097 1043709 891 39271 32 640 836514 207195 23
is_linear=0
shrinkage=0.05


Tree=16
num_leaves=62
num_cat=0
split_feature=3 3 0 0 4 4 3 24 2 1 2 2 8 11 2 0 9 4 9 9 2 3 1 1 1 0 9 3 9 0 0 22 1 4 3 3 8 22 2 9 2 0 6 9 0 0 4 4 6 0 0 6 9 23 4 2 9 3 0 23 22
split_gain=5.50363e+06 1.55939e+06 1.37368e+06 379654 283448 265425 254737 103198 102132 99830.2 71006.8 59970.8 54613.4 48622.9 44625.2 40294.9 81097.5 34335 32268.3 30375.9 29848.7 28018.1 27510.1 26225.6 25113.7 23111.7 21579.6 29061.4 21175.2 20311.3 19927.8 18830.2 16179.1 15728 14739.4 13309.6 11947.7 11467.2 11313.4 10933.6 10878.3 10744.8 10123 8925.81 8433.5 8421.19 8204.24 7423.37 7130.89 6283.56 5570.54 5432.18 4885.17 4231.61 4190.31 3951.12 3528.33 3284.77 2953.38 2084.46 2037.59
threshold=14.928571428571431 3.9285714285714293 53.500000000000007 27.500000000000004 87.500000000000014 1.4642857142857146 8.3571428571428594 0.89882252525570128 32.500000000000007 64.500000000000014 20.500000000000004 12.500000000000002 0.79265810934504666 42.500000000000007 8.5000000000000018 137.50000000000003 4.5000000000000009 2.6785714285714293 3.5000000000000004 3.5000000000000004 99.500000000000014 37.214285714285722 35.500000000000007 23.500000000000004 1.0000000180025095e-35 14.500000000000002 3.5000000000000004 62.857142857142868 3.5000000000000004 6.5000000000000009 12.500000000000002 1.3700000000000003 17.500000000000004 48.392857142857146 60.785714285714292 24.071428571428573 17.064265348995342 1.2650000000000003 1.5000000000000002 3.5000000000000004 23.500000000000004 8.5000000000000018 9.1910929968198225 4.5000000000000009 1.5000000000000002 13.500000000000002 57.107142857142868 5.3214285714285721 11.450720268006313 4.5000000000000009 5.5000000000000009 1.0000000180025095e-35 1.0000000180025095e-35 -0.26654713747191472 53.964285714285722 6.5000000000000009 3.5000000000000004 2.785714285714286 2.5000000000000004 -0.060824911051873938 0.22500000000000003
decision_type=2 2 2 2 2 2 2 2 2 2 2 2 2 2 2 2 2 2 2 2 2 2 2 2 2 2 2 2 2 2 2 2 2 2 2 2 2 2 2 2 2 2 2 2 2 2 2 2 2 2 2 2 2 2 2 2 2 2 2 2 2
left_child=1 5 3 10 9 12 14 15 21 18 25 28 51 19 29 -6 -17 43 33 -9 30 32 54 50 -20 49 40 -28 52 47 -13 -15 -5 -4 -25 -27 44 -24 -38 53 -11 56 -31 57 -14 -30 -23 -3 -43 -2 -12 59 -8 -19 -10 -41 -16 -7 -45 -1 -53
right_child=2 6 4 8 7 17 11 13 22 26 23 20 36 31 41 16 -18 39 24 -21 -22 46 37 34 -26 35 27 -29 45 42 -32 -33 -34 -35 -36 -37 38 -39 -40 55 -42 48 -44 58 -46 -47 -48 -49 -50 -51 -52 60 -54 -55 -56 -57 -58 -59 -60 -61 -62
leaf_value=-0.00068015459456686361 0.11895237312282619 0.042327632683377539 0.54878541335545628 0.39619285967203788 1.8738886590437458 -0.0075914954394501319 0.16680366286012926 1.4401517522288776 0.68706633875432355 0.22314011319029717 0.15085890923043144 0.21070423752666634 -0.024695788146835346 3.3333405460229439 0.08894067024758362 3.7667144244650141 9.3856276356090209 0.69337884997868016 2.0790406888336332 2.46208744691672 2.7505233174562456 0.705108539316607 0.72151335062159871 0.52440208661492949 1.1414475286639991 0.3108247341955005 1.4952068190669516 2.0631727295260918 0.17363355961484084 0.088191546172728508 0.30819164754889894 1.6210551368671915 0.55744180861617865 0.99281073206715087 1.3293885308298572 0.43550421334094624 0.92101674770486786 0.97799629229389196 0.14290581128636345 0.0353838967682268 1.2753477585675732 0.16614547255340761 0.31708456365403065 0.0042186770894726963 -0.011768853993228091 0.24497347811130898 1.1784139549627901 0.069628801339108759 0.70446474919396063 0.24825359504264868 0.38970140603368297 0.094034616617556618 0.12037365546152268 0.015082843625641582 1.1100820131020415 0.065194092586776872 0.12657851780052065 0.010551511392956294 0.020932053464658783 -0.041451104240328503 -0.033021339394105224
leaf_weight=3147 1061 71015 362 2304 9.9999999999999982 242285 7409 160 2283 30 256 11558 553489 118 11992 22 9.9999999999999982 22 76 144 10.999999999999998 1564 553 4838 1421 10659 621 375 11590 49263 9615 22 4880 458 57 2689 57 2370 243 58025 148 10138 487 62741 163429 6451 99 38351 61 8415 6171 315 24216 95103 62 13752 12989 27810 45675 838869 246163
leaf_count=3147 1061 71015 362 2304 10 242285 7409 160 2283 30 256 11558 553489 118 11992 22 10 22 76 144 11 1564 553 4838 1421 10659 621 375 11590 49263 9615 22 4880 458 57 2689 57 2370 243 58025 148 10138 487 62741 163429 6451 99 38351 61 8415 6171 315 24216 95103 62 13752 12989 27810 45675 838869 246163
internal_value=1.34975e-05 -0.010133 0.508178 0.434555 1.40126 -0.0230962 0.104815 2.53252 0.652679 1.24309 0.344372 0.185973 -0.0323291 2.2985 0.0752195 4.89533 5.75398 0.00747162 1.05183 1.93073 0.256413 0.548762 0.827056 0.446764 1.19041 0.293562 1.61935 1.71091 0.155924 0.0639515 0.254988 3.07771 0.50579 0.797703 0.534046 0.335973 -0.0216168 0.929738 0.293332 0.0263638 1.10027 0.126181 0.0904386 -0.000858808 -0.021749 0.199155 0.733979 0.0519018 0.169434 0.233791 0.380214 -0.0393876 0.131256 0.0152471 0.698721 0.0410962 0.108515 -0.00572337 0.0112601 -0.0412987 -0.0328586
internal_weight=2.66851e+06 2.61627e+06 52238 48261 3977 2.35112e+06 265146 486 14115 3491 34146 70850 1.80571e+06 444 194296 42 32 545413 2317 304 21184 8847 5268 11322 1497 22824 1174 996 49666 159116 21173 140 7184 820 4895 13348 717218 2923 300 166902 178 35180 49750 378511 716918 18041 1663 109366 10199 9476 6427 1.08849e+06 31625 95125 2345 71777 24981 270095 108416 842016 246478
internal_count=2668509 2616271 52238 48261 3977 2351125 265146 486 14115 3491 34146 70850 1805712 444 194296 42 32 545413 2317 304 21184 8847 5268 11322 1497 22824 1174 996 49666 159116 21173 140 7184 820 4895 13348 717218 2923 300 166902 178 35180 49750 378511 716918 18041 1663 109366 10199 9476 6427 1088494 31625 95125 2345 71777 24981 270095 108416 842016 246478
is_linear=0
shrinkage=0.05


Tree=17
num_leaves=63
num_cat=0
