{"learner":{"attributes":{"scikit_learn":"{\"_estimator_type\": \"regressor\"}"},"feature_names":["roll_mean_7","roll_mean_28","roll_mean_14","roll_std_7","lag_7","roll_std_28","day_of_week","day_of_month","lag_14","roll_std_14"],"feature_types":["float","float","float","float","float","float","int","int","float","float"],"gradient_booster":{"model":{"cats":{"enc":[],"feature_segments":[],"sorted_idx":[]},"gbtree_model_param":{"num_parallel_tree":"1","num_trees":"500"},"iteration_indptr":[0,1,2,3,4,5,6,7,8,9,10,11,12,13,14,15,16,17,18,19,20,21,22,23,24,25,26,27,28,29,30,31,32,33,34,35,36,37,38,39,40,41,42,43,44,45,46,47,48,49,50,51,52,53,54,55,56,57,58,59,60,61,62,63,64,65,66,67,68,69,70,71,72,73,74,75,76,77,78,79,80,81,82,83,84,85,86,87,88,89,90,91,92,93,94,95,96,97,98,99,100,101,102,103,104,105,106,107,108,109,110,111,112,113,114,115,116,117,118,119,120,121,122,123,124,125,126,127,128,129,130,131,132,133,134,135,136,137,138,139,140,141,142,143,144,145,146,147,148,149,150,151,152,153,154,155,156,157,158,159,160,161,162,163,164,165,166,167,168,169,170,171,172,173,174,175,176,177,178,179,180,181,182,183,184,185,186,187,188,189,190,191,192,193,194,195,196,197,198,199,200,201,202,203,204,205,206,207,208,209,210,211,212,213,214,215,216,217,218,219,220,221,222,223,224,225,226,227,228,229,230,231,232,233,234,235,236,237,238,239,240,241,242,243,244,245,246,247,248,249,250,251,252,253,254,255,256,257,258,259,260,261,262,263,264,265,266,267,268,269,270,271,272,273,274,275,276,277,278,279,280,281,282,283,284,285,286,287,288,289,290,291,292,293,294,295,296,297,298,299,300,301,302,303,304,305,306,307,308,309,310,311,312,313,314,315,316,317,318,319,320,321,322,323,324,325,326,327,328,329,330,331,332,333,334,335,336,337,338,339,340,341,342,343,344,345,346,347,348,349,350,351,352,353,354,355,356,357,358,359,360,361,362,363,364,365,366,367,368,369,370,371,372,373,374,375,376,377,378,379,380,381,382,383,384,385,386,387,388,389,390,391,392,393,394,395,396,397,398,399,400,401,402,403,404,405,406,407,408,409,410,411,412,413,414,415,416,417,418,419,420,421,422,423,424,425,426,427,428,429,430,431,432,433,434,435,436,437,438,439,440,441,442,443,444,445,446,447,448,449,450,451,452,453,454,455,456,457,458,459,460,461,462,463,464,465,466,467,468,469,470,471,472,473,474,475,476,477,478,479,480,481,482,483,484,485,486,487,488,489,490,491,492,493,494,495,496,497,498,499,500],"tree_info":[0,0,0,0,0,0,0,0,0,0,0,0,0,0,0,0,0,0,0,0,0,0,0,0,0,0,0,0,0,0,0,0,0,0,0,0,0,0,0,0,0,0,0,0,0,0,0,0,0,0,0,0,0,0,0,0,0,0,0,0,0,0,0,0,0,0,0,0,0,0,0,0,0,0,0,0,0,0,0,0,0,0,0,0,0,0,0,0,0,0,0,0,0,0,0,0,0,0,0,0,0,0,0,0,0,0,0,0,0,0,0,0,0,0,0,0,0,0,0,0,0,0,0,0,0,0,0,0,0,0,0,0,0,0,0,0,0,0,0,0,0,0,0,0,0,0,0,0,0,0,0,0,0,0,0,0,0,0,0,0,0,0,0,0,0,0,0,0,0,0,0,0,0,0,0,0,0,0,0,0,0,0,0,0,0,0,0,0,0,0,0,0,0,0,0,0,0,0,0,0,0,0,0,0,0,0,0,0,0,0,0,0,0,0,0,0,0,0,0,0,0,0,0,0,0,0,0,0,0,0,0,0,0,0,0,0,0,0,0,0,0,0,0,0,0,0,0,0,0,0,0,0,0,0,0,0,0,0,0,0,0,0,0,0,0,0,0,0,0,0,0,0,0,0,0,0,0,0,0,0,0,0,0,0,0,0,0,0,0,0,0,0,0,0,0,0,0,0,0,0,0,0,0,0,0,0,0,0,0,0,0,0,0,0,0,0,0,0,0,0,0,0,0,0,0,0,0,0,0,0,0,0,0,0,0,0,0,0,0,0,0,0,0,0,0,0,0,0,0,0,0,0,0,0,0,0,0,0,0,0,0,0,0,0,0,0,0,0,0,0,0,0,0,0,0,0,0,0,0,0,0,0,0,0,0,0,0,0,0,0,0,0,0,0,0,0,0,0,0,0,0,0,0,0,0,0,0,0,0,0,0,0,0,0,0,0,0,0,0,0,0,0,0,0,0,0,0,0,0,0,0,0,0,0,0,0,0,0,0,0,0,0,0,0,0,0,0,0,0,0,0,0,0,0,0,0,0,0,0,0,0,0,0,0,0,0,0,0,0,0,0,0,0,0,0,0,0,0,0,0,0,0,0,0,0,0,0,0,0,0,0,0,0,0,0,0,0,0,0,0],"trees":[{"base_weights":[3.639586E-3,-5.342901E-1,1.9370089E1,-1.105919E0,3.6914446E0,1.6096E1,5.121182E1,-1.5606585E0,-8.601604E-2,2.515559E0,6.5494294E0,1.3253438E1,2.5267845E1,4.505795E1,9.19379E1,-1.8362896E0,-1.1821077E0,-4.0243667E-1,7.7398413E-1,1.8856493E0,3.5244656E0,5.6675377E0,8.755226E0,1.1152154E1,1.690212E1,2.0748884E1,3.0068872E1,3.4932343E1,5.320593E1,8.0336464E1,1.3002095E2,-1.8761991E0,-1.6176671E0,-1.1863517E0,9.149168E0,-5.825786E-1,-5.2776225E-2,5.0750697E-1,1.4367275E0,1.4960469E0,2.8570313E0,2.930869E0,5.0008807E0,4.7946253E0,7.1837826E0,7.5104256E0,1.0880106E1,9.738919E0,1.3583365E1,1.4510657E1,1.9764706E1,1.831563E1,2.3465422E1,2.7339012E1,3.6290962E1,2.8159801E1,3.8456177E1,4.6517624E1,6.28649E1,6.791858E1,9.109529E1,1.2082008E2,9.871066E0,-9.392948E-2,-2.1570094E-2,-8.136739E-2,-2.2257648E-2,-6.637423E-2,-4.885533E-2,3.413518E-1,6.2636316E-1,-3.586356E-2,-1.2414603E-2,-1.2408805E-2,2.159382E-2,2.510336E-2,1.5726947E0,7.071865E-2,7.2691625E-1,5.8630195E-2,1.0335882E-1,1.2035181E-1,1.7493151E-1,1.4036532E-1,2.941576E-1,2.4451685E-1,1.0769562E0,2.1044476E-1,2.7246904E-1,3.2391694E-1,4.1685176E-1,3.2599762E-1,4.3008882E-1,3.3688423E-1,5.7533365E-1,4.463601E-1,6.429674E-1,4.3522355E-1,7.0038766E-1,5.8481103E-1,8.201311E-1,8.5967773E-1,1.1871082E0,8.661458E-1,1.2098478E0,1.1342287E0,1.6171271E0,1.2353294E0,1.6073694E0,1.7001923E0,2.0902276E0,1.2126935E0,1.7181673E0,1.6243874E0,2.154606E0,2.131111E0,2.7324226E0,3.0033362E0,4.2195992E0,2.6077964E0,3.5340714E0,4.061121E0,4.828361E0,5.534318E0,6.694265E0],"categories":[],"categories_nodes":[],"categories_segments":[],"categories_sizes":[],"default_left":[0,0,0,0,0,0,0,0,0,0,0,0,0,0,0,0,0,0,0,0,0,0,0,0,0,0,0,0,0,0,0,0,0,0,0,0,0,0,0,0,0,0,0,0,0,0,0,0,0,0,0,0,0,0,0,0,0,0,0,0,0,0,0,0,0,0,0,0,0,0,0,0,0,0,0,0,0,0,0,0,0,0,0,0,0,0,0,0,0,0,0,0,0,0,0,0,0,0,0,0,0,0,0,0,0,0,0,0,0,0,0,0,0,0,0,0,0,0,0,0,0,0,0,0,0],"id":0,"left_children":[1,3,5,7,9,11,13,15,17,19,21,23,25,27,29,31,33,35,37,39,41,43,45,47,49,51,53,55,57,59,61,63,65,67,69,71,73,75,77,79,81,83,85,87,89,91,93,95,97,99,101,103,105,107,109,111,113,115,117,119,121,123,-1,-1,-1,-1,-1,-1,-1,-1,-1,-1,-1,-1,-1,-1,-1,-1,-1,-1,-1,-1,-1,-1,-1,-1,-1,-1,-1,-1,-1,-1,-1,-1,-1,-1,-1,-1,-1,-1,-1,-1,-1,-1,-1,-1,-1,-1,-1,-1,-1,-1,-1,-1,-1,-1,-1,-1,-1,-1,-1,-1,-1,-1,-1],"loss_changes":[2.2236636E7,5.0166245E6,6.013086E6,8.4842975E5,8.31616E5,1.363437E6,1.343695E6,1.3201125E5,1.5350962E5,1.1141675E5,1.4027125E5,3.059875E5,2.678545E5,3.83753E5,3.01015E5,6.3845E3,2.33835E4,2.5975742E4,2.6795672E4,4.0845094E4,5.9044E4,6.81735E4,5.4407125E4,8.694425E4,9.960325E4,4.1725E4,1.0088E5,4.871725E4,1.64255E5,6.634275E4,7.719925E4,2.13725E3,1.282E3,1.57348125E4,1.6304609E3,1.225443E4,1.3279166E4,1.8198742E4,1.2721594E4,1.4229047E4,8.911734E3,1.7517062E4,3.521828E4,1.25203125E4,1.526125E4,1.398825E4,1.9667188E4,4.0488E4,1.9160875E4,4.2159E4,6.748225E4,1.92465E4,2.0125125E4,5.202025E4,2.15975E4,1.6558312E4,3.6499375E4,4.621525E4,5.852625E4,7.449875E3,7.69775E3,4.4865E3,0E0,0E0,0E0,0E0,0E0,0E0,0E0,0E0,0E0,0E0,0E0,0E0,0E0,0E0,0E0,0E0,0E0,0E0,0E0,0E0,0E0,0E0,0E0,0E0,0E0,0E0,0E0,0E0,0E0,0E0,0E0,0E0,0E0,0E0,0E0,0E0,0E0,0E0,0E0,0E0,0E0,0E0,0E0,0E0,0E0,0E0,0E0,0E0,0E0,0E0,0E0,0E0,0E0,0E0,0E0,0E0,0E0,0E0,0E0,0E0,0E0,0E0,0E0],"parents":[2147483647,0,0,1,1,2,2,3,3,4,4,5,5,6,6,7,7,8,8,9,9,10,10,11,11,12,12,13,13,14,14,15,15,16,16,17,17,18,18,19,19,20,20,21,21,22,22,23,23,24,24,25,25,26,26,27,27,28,28,29,29,30,30,31,31,32,32,33,33,34,34,35,35,36,36,37,37,38,38,39,39,40,40,41,41,42,42,43,43,44,44,45,45,46,46,47,47,48,48,49,49,50,50,51,51,52,52,53,53,54,54,55,55,56,56,57,57,58,58,59,59,60,60,61,61],"right_children":[2,4,6,8,10,12,14,16,18,20,22,24,26,28,30,32,34,36,38,40,42,44,46,48,50,52,54,56,58,60,62,64,66,68,70,72,74,76,78,80,82,84,86,88,90,92,94,96,98,100,102,104,106,108,110,112,114,116,118,120,122,124,-1,-1,-1,-1,-1,-1,-1,-1,-1,-1,-1,-1,-1,-1,-1,-1,-1,-1,-1,-1,-1,-1,-1,-1,-1,-1,-1,-1,-1,-1,-1,-1,-1,-1,-1,-1,-1,-1,-1,-1,-1,-1,-1,-1,-1,-1,-1,-1,-1,-1,-1,-1,-1,-1,-1,-1,-1,-1,-1,-1,-1,-1,-1],"split_conditions":[1.2E1,3.357143E0,4.4E1,1.1071428E0,6.642857E0,2.3285715E1,8.5E1,4.6880722E-1,2.2857144E0,4.857143E0,5E0,1.8E1,2.7E1,3.7642857E1,1.25E2,3.5714287E-2,4.281958E0,1.7857143E0,5E0,5E0,5E0,9.25E0,9.25E0,1.5928572E1,5E0,2.7321428E1,3.7642857E1,5E0,6.3E1,8.2E1,2.46E2,6.466715E-7,2.2546248E0,7.8571427E-1,3.7901292E0,5E0,5E0,3.7642857E1,1.6999962E1,4.107143E0,4E0,6.9113817E0,2.8E1,7E0,1E1,1E1,5E0,5E0,3E0,1.5928572E1,1.7607143E1,5E0,5.5E1,5E0,4.8E1,1.6999962E1,2.8285715E1,5.7E1,1.06E2,5.4E1,1E2,1.46E2,9.871066E0,-9.392948E-2,-2.1570094E-2,-8.136739E-2,-2.2257648E-2,-6.637423E-2,-4.885533E-2,3.413518E-1,6.2636316E-1,-3.586356E-2,-1.2414603E-2,-1.2408805E-2,2.159382E-2,2.510336E-2,1.5726947E0,7.071865E-2,7.2691625E-1,5.8630195E-2,1.0335882E-1,1.2035181E-1,1.7493151E-1,1.4036532E-1,2.941576E-1,2.4451685E-1,1.0769562E0,2.1044476E-1,2.7246904E-1,3.2391694E-1,4.1685176E-1,3.2599762E-1,4.3008882E-1,3.3688423E-1,5.7533365E-1,4.463601E-1,6.429674E-1,4.3522355E-1,7.0038766E-1,5.8481103E-1,8.201311E-1,8.5967773E-1,1.1871082E0,8.661458E-1,1.2098478E0,1.1342287E0,1.6171271E0,1.2353294E0,1.6073694E0,1.7001923E0,2.0902276E0,1.2126935E0,1.7181673E0,1.6243874E0,2.154606E0,2.131111E0,2.7324226E0,3.0033362E0,4.2195992E0,2.6077964E0,3.5340714E0,4.061121E0,4.828361E0,5.534318E0,6.694265E0],"split_indices":[2,2,4,1,1,2,8,9,1,2,6,4,4,1,4,1,9,2,6,6,6,1,1,1,6,1,1,6,4,4,4,3,5,2,5,6,6,1,5,1,1,5,4,4,4,4,4,6,4,1,1,6,8,6,8,5,2,8,4,4,8,4,0,0,0,0,0,0,0,0,0,0,0,0,0,0,0,0,0,0,0,0,0,0,0,0,0,0,0,0,0,0,0,0,0,0,0,0,0,0,0,0,0,0,0,0,0,0,0,0,0,0,0,0,0,0,0,0,0,0,0,0,0,0,0],"split_type":[0,0,0,0,0,0,0,0,0,0,0,0,0,0,0,0,0,0,0,0,0,0,0,0,0,0,0,0,0,0,0,0,0,0,0,0,0,0,0,0,0,0,0,0,0,0,0,0,0,0,0,0,0,0,0,0,0,0,0,0,0,0,0,0,0,0,0,0,0,0,0,0,0,0,0,0,0,0,0,0,0,0,0,0,0,0,0,0,0,0,0,0,0,0,0,0,0,0,0,0,0,0,0,0,0,0,0,0,0,0,0,0,0,0,0,0,0,0,0,0,0,0,0,0,0],"sum_hessian":[2.134485E6,2.0768E6,5.7685E4,1.82934E6,2.4746E5,5.2308E4,5.377E3,1.265221E6,5.64119E5,1.75326E5,7.2134E4,3.9934E4,1.2374E4,4.673E3,7.04E2,7.32134E5,5.33087E5,4.12389E5,1.5173E5,1.07938E5,6.7388E4,5.1534E4,2.06E4,2.5343E4,1.4591E4,6.377E3,5.997E3,2.086E3,2.587E3,5.42E2,1.62E2,6.19108E5,1.13026E5,5.32869E5,2.18E2,2.72169E5,1.4022E5,1.08219E5,4.3511E4,7.7041E4,3.0897E4,4.8066E4,1.9322E4,3.2708E4,1.8826E4,1.2993E4,7.607E3,1.603E4,9.313E3,7.953E3,6.638E3,3.368E3,3.009E3,4.172E3,1.825E3,7.17E2,1.369E3,1.532E3,1.055E3,2.55E2,2.87E2,1.45E2,1.7E1,6.18085E5,1.023E3,1.121E5,9.26E2,3.18225E5,2.14644E5,1.31E2,8.7E1,1.94E5,7.8169E4,9.9931E4,4.0289E4,1.08201E5,1.8E1,4.3438E4,7.3E1,4.9188E4,2.7853E4,1.8163E4,1.2734E4,4.6137E4,1.929E3,1.9195E4,1.27E2,1.7268E4,1.544E4,1.1685E4,7.141E3,6.815E3,6.178E3,1.001E3,6.606E3,1.2724E4,3.306E3,7.47E2,8.566E3,3.2E3,4.753E3,4.035E3,2.603E3,2.885E3,4.83E2,2.769E3,2.4E2,2.7E3,1.472E3,1.295E3,5.3E2,4.43E2,2.74E2,6.02E2,7.67E2,1.04E3,4.92E2,9.37E2,1.18E2,4.1E1,2.14E2,1.08E2,1.79E2,8.7E1,5.8E1],"tree_param":{"num_deleted":"0","num_feature":"10","num_nodes":"125","size_leaf_vector":"1"}},{"base_weights":[1.5885476E-3,-5.078679E-1,1.8417469E1,-1.0793586E0,3.3045206E0,1.5161656E1,4.7664543E1,-1.4931101E0,-1.61455E-1,2.169327E0,5.9923434E0,1.2713327E1,2.3794827E1,4.055404E1,7.541722E1,-1.749516E0,-1.1430113E0,-4.5897713E-1,5.3688025E-1,1.6396966E0,3.2395155E0,5.1688137E0,8.051386E0,1.1063382E1,1.6811333E1,2.056401E1,3.1867517E1,3.690076E1,5.520667E1,6.621921E1,1.02323425E2,-1.7499529E0,1.1271356E0,-1.1595349E0,1.1663593E0,-5.9768414E-1,-1.1417347E-1,3.07288E-1,1.1084378E0,1.2670612E0,2.5625372E0,2.7211967E0,4.5293055E0,4.379915E0,6.8655734E0,6.9184136E0,1.0442659E1,9.538938E0,1.4473657E1,1.4687303E1,2.1630066E1,1.7874847E1,2.3265278E1,2.7353157E1,3.631563E1,3.4773903E1,4.8159554E1,5.5903788E0,5.400787E1,6.0840656E1,7.3492966E1,5.180535E1,1.0657444E2,-8.873155E-2,-7.131698E-2,-6.6732265E-2,-5.1282704E-2,3.4879263E-2,3.926111E-1,-3.719932E-2,-1.798967E-2,-1.6011849E-2,1.1071534E-2,4.890065E-3,4.006923E-2,5.462354E-2,5.9424734E-1,6.2376488E-2,3.4711424E-1,1.2600294E-1,6.6930073E-1,1.2023957E-1,1.7562722E-1,1.9924125E-1,2.776927E-1,1.9242017E-1,2.4929081E-1,3.9715588E-1,3.0661863E-1,3.0765647E-1,4.0059647E-1,5.7899725E-1,4.8461565E-1,4.3273494E-1,5.445412E-1,8.174192E-1,6.7028385E-1,6.7426884E-1,8.3093137E-1,9.934192E-1,1.1481112E0,1.5480964E0,8.8526994E-1,1.2689508E0,1.0975224E0,1.3213519E0,1.7584791E0,1.6323351E0,1.9250021E0,1.3519161E0,1.800977E0,2.0416646E0,2.5196266E0,2.1853745E0,2.862759E0,2.0444198E0,3.1089854E0,3.3040407E0,3.865537E0,1.8791465E0,3.324045E0,4.9336886E0,6.4250727E0],"categories":[],"categories_nodes":[],"categories_segments":[],"categories_sizes":[],"default_left":[0,0,0,0,0,0,0,0,0,0,0,0,0,0,0,0,0,0,0,0,0,0,0,0,0,0,0,0,0,0,0,0,0,0,0,0,0,0,0,0,0,0,0,0,0,0,0,0,0,0,0,0,0,0,0,0,0,0,0,0,0,0,0,0,0,0,0,0,0,0,0,0,0,0,0,0,0,0,0,0,0,0,0,0,0,0,0,0,0,0,0,0,0,0,0,0,0,0,0,0,0,0,0,0,0,0,0,0,0,0,0,0,0,0,0,0,0,0,0,0,0,0,0],"id":1,"left_children":[1,3,5,7,9,11,13,15,17,19,21,23,25,27,29,31,33,35,37,39,41,43,45,47,49,51,53,55,57,59,61,63,-1,65,67,69,71,73,75,77,79,81,83,85,87,89,91,93,95,97,99,101,103,105,107,109,111,-1,113,115,117,119,121,-1,-1,-1,-1,-1,-1,-1,-1,-1,-1,-1,-1,-1,-1,-1,-1,-1,-1,-1,-1,-1,-1,-1,-1,-1,-1,-1,-1,-1,-1,-1,-1,-1,-1,-1,-1,-1,-1,-1,-1,-1,-1,-1,-1,-1,-1,-1,-1,-1,-1,-1,-1,-1,-1,-1,-1,-1,-1,-1,-1],"loss_changes":[2.0032272E7,4.5267465E6,5.472402E6,6.8620625E5,8.264065E5,1.092913E6,1.132991E6,1.1179775E5,1.1664097E5,1.07929125E5,1.3633225E5,2.722725E5,2.97345E5,2.433895E5,2.835055E5,7.66875E3,2.0093188E4,1.8827883E4,2.2008867E4,4.3802562E4,4.2131312E4,7.6871E4,6.2171E4,1.4923075E5,1.18048E5,5.887725E4,6.4543E4,8.62695E4,5.5895E4,2.98255E4,5.82445E4,5.73875E3,0E0,1.22545E4,1.1718555E4,9.770391E3,7.810257E3,1.23852295E4,8.256242E3,1.0049391E4,1.6810875E4,1.1251344E4,1.00571875E4,1.26104375E4,1.43541875E4,1.29975E4,6.186875E3,2.3643125E4,1.7545125E4,1.8413125E4,7.837875E3,8.528E3,1.0747E4,1.0820375E4,1.188775E4,2.88235E4,7.437875E3,0E0,2.745725E4,1.1072875E4,5.2905E3,2.7090938E3,3.459175E4,0E0,0E0,0E0,0E0,0E0,0E0,0E0,0E0,0E0,0E0,0E0,0E0,0E0,0E0,0E0,0E0,0E0,0E0,0E0,0E0,0E0,0E0,0E0,0E0,0E0,0E0,0E0,0E0,0E0,0E0,0E0,0E0,0E0,0E0,0E0,0E0,0E0,0E0,0E0,0E0,0E0,0E0,0E0,0E0,0E0,0E0,0E0,0E0,0E0,0E0,0E0,0E0,0E0,0E0,0E0,0E0,0E0,0E0,0E0,0E0],"parents":[2147483647,0,0,1,1,2,2,3,3,4,4,5,5,6,6,7,7,8,8,9,9,10,10,11,11,12,12,13,13,14,14,15,15,16,16,17,17,18,18,19,19,20,20,21,21,22,22,23,23,24,24,25,25,26,26,27,27,28,28,29,29,30,30,31,31,33,33,34,34,35,35,36,36,37,37,38,38,39,39,40,40,41,41,42,42,43,43,44,44,45,45,46,46,47,47,48,48,49,49,50,50,51,51,52,52,53,53,54,54,55,55,56,56,58,58,59,59,60,60,61,61,62,62],"right_children":[2,4,6,8,10,12,14,16,18,20,22,24,26,28,30,32,34,36,38,40,42,44,46,48,50,52,54,56,58,60,62,64,-1,66,68,70,72,74,76,78,80,82,84,86,88,90,92,94,96,98,100,102,104,106,108,110,112,-1,114,116,118,120,122,-1,-1,-1,-1,-1,-1,-1,-1,-1,-1,-1,-1,-1,-1,-1,-1,-1,-1,-1,-1,-1,-1,-1,-1,-1,-1,-1,-1,-1,-1,-1,-1,-1,-1,-1,-1,-1,-1,-1,-1,-1,-1,-1,-1,-1,-1,-1,-1,-1,-1,-1,-1,-1,-1,-1,-1,-1,-1,-1,-1],"split_conditions":[1.2E1,3.142857E0,3.892857E1,1.0714285E0,6.428571E0,2.3285715E1,7.4E1,6.466715E-7,2.107143E0,4.678571E0,5E0,5E0,5E0,5E0,1.17E2,5.0136056E0,2.992053E0,5E0,5E0,5E0,5E0,9.25E0,9.25E0,1.7607143E1,1.7607143E1,2.7321428E1,2.7321428E1,5.7E1,4E0,9.1E1,1.7660826E1,6.8525666E-1,1.1271356E0,8.482787E-1,4.0660753E0,1.6428572E0,1.6428572E0,2.857143E0,1.6999962E1,1.0334869E1,1.0334869E1,6E0,5.821429E0,7.428571E0,1.2E1,8E0,1.2E1,1.5142858E1,1.1E1,1.4571428E1,1.9821428E1,1E0,1.2E1,1.6999962E1,3.8E1,3.7642857E1,1.7359325E1,5.5903788E0,4.9E1,3.7642857E1,5E0,6E0,1.72E2,-8.873155E-2,-7.131698E-2,-6.6732265E-2,-5.1282704E-2,3.4879263E-2,3.926111E-1,-3.719932E-2,-1.798967E-2,-1.6011849E-2,1.1071534E-2,4.890065E-3,4.006923E-2,5.462354E-2,5.9424734E-1,6.2376488E-2,3.4711424E-1,1.2600294E-1,6.6930073E-1,1.2023957E-1,1.7562722E-1,1.9924125E-1,2.776927E-1,1.9242017E-1,2.4929081E-1,3.9715588E-1,3.0661863E-1,3.0765647E-1,4.0059647E-1,5.7899725E-1,4.8461565E-1,4.3273494E-1,5.445412E-1,8.174192E-1,6.7028385E-1,6.7426884E-1,8.3093137E-1,9.934192E-1,1.1481112E0,1.5480964E0,8.8526994E-1,1.2689508E0,1.0975224E0,1.3213519E0,1.7584791E0,1.6323351E0,1.9250021E0,1.3519161E0,1.800977E0,2.0416646E0,2.5196266E0,2.1853745E0,2.862759E0,2.0444198E0,3.1089854E0,3.3040407E0,3.865537E0,1.8791465E0,3.324045E0,4.9336886E0,6.4250727E0],"split_indices":[2,2,2,1,2,2,8,3,1,1,6,6,6,6,8,5,3,6,6,6,6,1,1,1,1,1,1,8,8,8,3,5,0,5,9,2,2,1,5,3,3,1,1,1,7,2,7,2,7,1,1,8,7,5,8,1,9,0,8,1,6,6,8,0,0,0,0,0,0,0,0,0,0,0,0,0,0,0,0,0,0,0,0,0,0,0,0,0,0,0,0,0,0,0,0,0,0,0,0,0,0,0,0,0,0,0,0,0,0,0,0,0,0,0,0,0,0,0,0,0,0,0,0],"split_type":[0,0,0,0,0,0,0,0,0,0,0,0,0,0,0,0,0,0,0,0,0,0,0,0,0,0,0,0,0,0,0,0,0,0,0,0,0,0,0,0,0,0,0,0,0,0,0,0,0,0,0,0,0,0,0,0,0,0,0,0,0,0,0,0,0,0,0,0,0,0,0,0,0,0,0,0,0,0,0,0,0,0,0,0,0,0,0,0,0,0,0,0,0,0,0,0,0,0,0,0,0,0,0,0,0,0,0,0,0,0,0,0,0,0,0,0,0,0,0,0,0,0,0],"sum_hessian":[2.135159E6,2.077683E6,5.7476E4,1.806833E6,2.7085E5,5.172E4,5.756E3,1.245441E6,5.61392E5,1.90426E5,8.0424E4,4.0295E4,1.1425E4,4.584E3,1.172E3,7.18916E5,5.26525E5,3.93671E5,1.67721E5,1.27386E5,6.304E4,5.745E4,2.2974E4,2.8731E4,1.1564E4,8.162E3,3.263E3,3.672E3,9.12E2,8.76E2,2.96E2,7.18904E5,1.2E1,5.22785E5,3.74E3,2.80736E5,1.12935E5,1.19657E5,4.8064E4,9.0746E4,3.664E4,4.4971E4,1.8069E4,3.9219E4,1.8231E4,1.5591E4,7.383E3,1.9858E4,8.873E3,8.029E3,3.535E3,4.094E3,4.068E3,1.623E3,1.64E3,3.092E3,5.8E2,1.7E1,8.95E2,5.09E2,3.67E2,2.4E1,2.72E2,6.67962E5,5.0942E4,2.2651E5,2.96275E5,3.496E3,2.44E2,1.73829E5,1.06907E5,6.9972E4,4.2963E4,8.4031E4,3.5626E4,4.7994E4,7E1,9.0436E4,3.1E2,3.6498E4,1.42E2,3.2129E4,1.2842E4,1.1802E4,6.267E3,2.0896E4,1.8323E4,7.378E3,1.0853E4,9.176E3,6.415E3,2.929E3,4.454E3,1.201E4,7.848E3,3.215E3,5.658E3,4.954E3,3.075E3,1.529E3,2.006E3,5E1,4.044E3,1.553E3,2.515E3,1.455E3,1.68E2,6.18E2,1.022E3,4.32E2,2.66E3,1.4E2,4.4E2,2.18E2,6.77E2,3.4E1,4.75E2,1.31E2,2.36E2,1.4E1,1E1,2.04E2,6.8E1],"tree_param":{"num_deleted":"0","num_feature":"10","num_nodes":"123","size_leaf_vector":"1"}},{"base_weights":[2.3883858E-3,-4.724472E-1,1.7867132E1,-9.8025733E-1,3.5061674E0,1.4727992E1,4.525548E1,-1.3792163E0,1.9138668E-2,2.4063458E0,6.051954E0,1.23981695E1,2.3102533E1,3.9757854E1,7.909917E1,-1.6450768E0,-1.0175494E0,-3.289094E-1,6.536925E-1,1.8670713E0,3.4828928E0,5.224534E0,8.104058E0,1.0746206E1,1.6498112E1,1.9980736E1,3.0928415E1,3.398354E1,4.9186943E1,7.001293E1,1.0304661E2,-1.6871821E0,-1.3532711E0,-1.0224738E0,1.0630439E1,-4.7312889E-1,2.9363703E-2,4.097295E-1,1.2600853E0,1.5047476E0,2.7776363E0,2.9403536E0,4.8344526E0,4.306832E0,6.498616E0,6.894499E0,1.0296651E1,8.97523E0,1.2949557E1,1.43769865E1,2.1152521E1,1.7365297E1,2.2639496E1,2.653644E1,3.5149017E1,3.241547E1,4.6963577E1,4.44983E1,5.4948586E1,3.8794304E1,7.1771355E1,6.2922025E-1,1.073764E2,-8.4867954E-2,-7.847362E-2,3.706392E-1,-6.793309E-2,-5.773705E-2,-4.2508207E-2,8.012721E-1,2.043526E-1,-2.8940454E-2,-9.269453E-3,-8.700601E-3,1.6576534E-2,1.3730756E-2,4.7007278E-2,4.3232474E-2,8.182983E-2,1.0158187E-1,6.318591E-2,1.1655895E-1,1.6306363E-1,1.8507649E-1,1.265039E-1,2.8713474E-1,2.1480294E-1,2.0769826E-1,3.1517E-1,3.9477986E-1,2.8728333E-1,3.121007E-1,3.904805E-1,5.8567524E-1,4.760143E-1,5.2364737E-1,4.166104E-1,7.4819124E-1,5.940964E-1,6.529378E-1,8.2248515E-1,1.0510435E0,3.0404959E0,1.0181262E0,8.066273E-1,1.0899245E0,1.3039508E0,1.2238902E0,1.4649858E0,1.5654258E0,1.8811058E0,1.2999228E0,1.6877989E0,6.8148875E0,2.1402075E0,1.4226345E0,2.3079212E0,2.1211417E0,2.8706918E0,3.1502938E0,1.1910034E0,3.3611162E0,4.2180133E0,4.8097496E0,6.172142E0],"categories":[],"categories_nodes":[],"categories_segments":[],"categories_sizes":[],"default_left":[0,0,0,0,0,0,0,0,0,0,0,0,0,0,0,0,0,0,0,0,0,0,0,0,0,0,0,0,0,0,0,0,0,0,0,0,0,0,0,0,0,0,0,0,0,0,0,0,0,0,0,0,0,0,0,0,0,0,0,0,0,0,0,0,0,0,0,0,0,0,0,0,0,0,0,0,0,0,0,0,0,0,0,0,0,0,0,0,0,0,0,0,0,0,0,0,0,0,0,0,0,0,0,0,0,0,0,0,0,0,0,0,0,0,0,0,0,0,0,0,0,0,0,0,0],"id":2,"left_children":[1,3,5,7,9,11,13,15,17,19,21,23,25,27,29,31,33,35,37,39,41,43,45,47,49,51,53,55,57,59,61,63,65,67,69,71,73,75,77,79,81,83,85,87,89,91,93,95,97,99,101,103,105,107,109,111,113,115,117,119,121,-1,123,-1,-1,-1,-1,-1,-1,-1,-1,-1,-1,-1,-1,-1,-1,-1,-1,-1,-1,-1,-1,-1,-1,-1,-1,-1,-1,-1,-1,-1,-1,-1,-1,-1,-1,-1,-1,-1,-1,-1,-1,-1,-1,-1,-1,-1,-1,-1,-1,-1,-1,-1,-1,-1,-1,-1,-1,-1,-1,-1,-1,-1,-1],"loss_changes":[1.8105264E7,4.200547E6,4.75044E6,7.3513975E5,6.58882E5,9.67075E5,1.054037E6,1.26701E5,1.1617805E5,9.539831E4,1.20501E5,2.625495E5,2.629855E5,2.64564E5,1.653185E5,9.3285E3,3.2032188E4,1.7552805E4,2.7564203E4,3.6118594E4,4.0201438E4,5.9130375E4,5.4024375E4,1.0778625E5,1.0966325E5,5.325825E4,5.60615E4,6.026325E4,4.7656E4,2.89345E4,8.324025E4,7.92125E2,4.535E3,1.27170625E4,8.263668E3,7.365035E3,5.9917812E3,9.522209E3,7.9571875E3,9.9443125E3,6.721078E3,1.22125E4,7.6554375E3,8.9504375E3,2.223475E4,7.8010625E3,7.861375E3,1.46785E4,2.63135E4,2.069825E4,1.690825E4,1.40555E4,1.04855E4,7.872875E3,1.36795E4,2.244525E4,1.1491125E5,2.6062875E4,2.312225E4,1.0454656E4,2.558175E4,0E0,2.51105E4,0E0,0E0,0E0,0E0,0E0,0E0,0E0,0E0,0E0,0E0,0E0,0E0,0E0,0E0,0E0,0E0,0E0,0E0,0E0,0E0,0E0,0E0,0E0,0E0,0E0,0E0,0E0,0E0,0E0,0E0,0E0,0E0,0E0,0E0,0E0,0E0,0E0,0E0,0E0,0E0,0E0,0E0,0E0,0E0,0E0,0E0,0E0,0E0,0E0,0E0,0E0,0E0,0E0,0E0,0E0,0E0,0E0,0E0,0E0,0E0,0E0,0E0],"parents":[2147483647,0,0,1,1,2,2,3,3,4,4,5,5,6,6,7,7,8,8,9,9,10,10,11,11,12,12,13,13,14,14,15,15,16,16,17,17,18,18,19,19,20,20,21,21,22,22,23,23,24,24,25,25,26,26,27,27,28,28,29,29,30,30,31,31,32,32,33,33,34,34,35,35,36,36,37,37,38,38,39,39,40,40,41,41,42,42,43,43,44,44,45,45,46,46,47,47,48,48,49,49,50,50,51,51,52,52,53,53,54,54,55,55,56,56,57,57,58,58,59,59,60,60,62,62],"right_children":[2,4,6,8,10,12,14,16,18,20,22,24,26,28,30,32,34,36,38,40,42,44,46,48,50,52,54,56,58,60,62,64,66,68,70,72,74,76,78,80,82,84,86,88,90,92,94,96,98,100,102,104,106,108,110,112,114,116,118,120,122,-1,124,-1,-1,-1,-1,-1,-1,-1,-1,-1,-1,-1,-1,-1,-1,-1,-1,-1,-1,-1,-1,-1,-1,-1,-1,-1,-1,-1,-1,-1,-1,-1,-1,-1,-1,-1,-1,-1,-1,-1,-1,-1,-1,-1,-1,-1,-1,-1,-1,-1,-1,-1,-1,-1,-1,-1,-1,-1,-1,-1,-1,-1,-1],"split_conditions":[1.2571428E1,3.5E0,3.892857E1,1.2142857E0,7E0,2.4285715E1,8.5E1,6.341265E-1,2.2142856E0,5.214286E0,5E0,5E0,5E0,5.2E1,1.28E2,6.466715E-7,1.6999962E1,5E0,5E0,5E0,5E0,9.142858E0,9.571428E0,1.6571428E1,1.8214285E1,2.9428572E1,2.8285715E1,5E0,5E0,4.0142857E1,4.0142857E1,2.608389E-6,3.1907925E-7,1.0788981E0,1.8E1,1.8329725E0,1.7142857E0,2.7070358E0,2.7142856E0,1.1E1,4.214286E0,1.2E1,1.3E1,7.340094E0,1.2E1,8E0,1.2E1,1.1E1,1.2E1,1.5142858E1,7.5E1,1.1E1,4E0,3.2E1,3.9E1,4.0142857E1,4E0,4.0142857E1,4.0142857E1,1.2E1,1.09E2,6.2922025E-1,1.9E1,-8.4867954E-2,-7.847362E-2,3.706392E-1,-6.793309E-2,-5.773705E-2,-4.2508207E-2,8.012721E-1,2.043526E-1,-2.8940454E-2,-9.269453E-3,-8.700601E-3,1.6576534E-2,1.3730756E-2,4.7007278E-2,4.3232474E-2,8.182983E-2,1.0158187E-1,6.318591E-2,1.1655895E-1,1.6306363E-1,1.8507649E-1,1.265039E-1,2.8713474E-1,2.1480294E-1,2.0769826E-1,3.1517E-1,3.9477986E-1,2.8728333E-1,3.121007E-1,3.904805E-1,5.8567524E-1,4.760143E-1,5.2364737E-1,4.166104E-1,7.4819124E-1,5.940964E-1,6.529378E-1,8.2248515E-1,1.0510435E0,3.0404959E0,1.0181262E0,8.066273E-1,1.0899245E0,1.3039508E0,1.2238902E0,1.4649858E0,1.5654258E0,1.8811058E0,1.2999228E0,1.6877989E0,6.8148875E0,2.1402075E0,1.4226345E0,2.3079212E0,2.1211417E0,2.8706918E0,3.1502938E0,1.1910034E0,3.3611162E0,4.2180133E0,4.8097496E0,6.172142E0],"split_indices":[0,2,2,2,0,0,8,5,2,2,6,6,6,8,8,3,5,6,6,6,6,2,2,2,2,0,2,6,6,0,0,5,5,5,7,5,2,5,2,7,2,7,7,5,7,2,7,7,7,2,8,7,6,8,8,0,8,0,0,7,8,0,7,0,0,0,0,0,0,0,0,0,0,0,0,0,0,0,0,0,0,0,0,0,0,0,0,0,0,0,0,0,0,0,0,0,0,0,0,0,0,0,0,0,0,0,0,0,0,0,0,0,0,0,0,0,0,0,0,0,0,0,0,0,0],"split_type":[0,0,0,0,0,0,0,0,0,0,0,0,0,0,0,0,0,0,0,0,0,0,0,0,0,0,0,0,0,0,0,0,0,0,0,0,0,0,0,0,0,0,0,0,0,0,0,0,0,0,0,0,0,0,0,0,0,0,0,0,0,0,0,0,0,0,0,0,0,0,0,0,0,0,0,0,0,0,0,0,0,0,0,0,0,0,0,0,0,0,0,0,0,0,0,0,0,0,0,0,0,0,0,0,0,0,0,0,0,0,0,0,0,0,0,0,0,0,0,0,0,0,0,0,0],"sum_hessian":[2.134344E6,2.079084E6,5.526E4,1.843757E6,2.35327E5,4.9579E4,5.681E3,1.317722E6,5.26035E5,1.64334E5,7.0993E4,3.879E4,1.0789E4,4.889E3,7.92E2,7.59449E5,5.58273E5,3.39708E5,1.86327E5,1.0949E5,5.4844E4,5.0596E4,2.0397E4,2.7652E4,1.1138E4,7.715E3,3.074E3,3.035E3,1.854E3,5.77E2,2.15E2,6.6368E5,9.5769E4,5.58038E5,2.35E2,2.42209E5,9.7499E4,1.32872E5,5.3455E4,7.8326E4,3.1164E4,3.9137E4,1.5707E4,2.9414E4,2.1182E4,1.3148E4,7.249E3,1.5333E4,1.2319E4,7.654E3,3.484E3,3.893E3,3.822E3,1.51E3,1.564E3,2.711E3,3.24E2,1.027E3,8.27E2,3.2E1,5.45E2,1E1,2.05E2,6.10852E5,5.2828E4,5.8E1,9.5711E4,3.15698E5,2.4234E5,1.28E2,1.07E2,1.77146E5,6.5063E4,5.8276E4,3.9223E4,1.05898E5,2.6974E4,2.6074E4,2.7381E4,2.4582E4,5.3744E4,1.6208E4,1.4956E4,1.3704E4,2.5433E4,5.842E3,9.865E3,2.7325E4,2.089E3,7.415E3,1.3767E4,7.68E3,5.468E3,2.561E3,4.688E3,4.601E3,1.0732E4,4.263E3,8.056E3,4.683E3,2.971E3,3.474E3,1E1,1.13E3,2.763E3,3.077E3,7.45E2,8.71E2,6.39E2,6.18E2,9.46E2,4.72E2,2.239E3,1.3E1,3.11E2,9.8E1,9.29E2,1.39E2,6.88E2,1.1E1,2.1E1,4.05E2,1.4E2,1.25E2,8E1],"tree_param":{"num_deleted":"0","num_feature":"10","num_nodes":"125","size_leaf_vector":"1"}},{"base_weights":[-1.548668E-3,-4.5084214E-1,1.6907429E1,-9.4086385E-1,3.2688544E0,1.3795277E1,4.2132023E1,-1.3284142E0,-4.4269446E-2,2.2308536E0,5.7266965E0,1.1459978E1,2.1235735E1,3.6851433E1,8.023386E1,-1.5644906E0,-9.925267E-1,-3.456077E-1,5.902908E-1,1.6325283E0,2.9767573E0,4.942959E0,7.68189E0,9.978254E0,1.5257866E1,1.7649012E1,2.5294994E1,3.1087706E1,4.8594418E1,7.323724E1,1.2314081E2,-1.6047918E0,-1.3326008E0,-1.0023212E0,2.0900483E0,-4.8014104E-1,-1.0997696E-2,3.6497998E-1,1.1514978E0,1.6232195E0,3.296861E1,2.4918513E0,4.1862416E0,4.114425E0,5.98291E0,6.5689993E0,9.563845E0,8.406926E0,1.1482293E1,1.3033705E1,1.7508053E1,1.615101E1,2.0571356E1,2.3356102E1,3.0370434E1,2.2672539E1,3.443173E1,4.345906E1,5.683795E1,6.2173885E1,8.441938E1,9.691123E1,1.5420914E2,-8.053126E-2,-7.577256E-2,-6.7040674E-2,-1.5705212E-3,-5.707084E-2,-4.279805E-2,6.4315334E-2,3.610758E-1,-2.4272857E-2,3.2534918E-1,-1.514814E-2,1.0458383E-2,1.6796175E-2,1.3171269E-1,5.4671556E-2,1.9279857E-1,6.4151645E-2,1.235528E-1,2.5264418E0,1.0200107E0,1.1337163E-1,1.617875E-1,1.8822782E-1,2.5483584E-1,2.4992417E-1,1.8192975E-1,3.6816162E-1,2.622081E-1,3.0423233E-1,4.0913668E-1,3.0525777E-1,5.037338E-1,3.7021676E-1,5.054025E-1,5.4027766E-1,7.425329E-1,5.632445E-1,7.4732435E-1,7.8500813E-1,1.0131727E0,7.632224E-1,1.0588393E0,9.947733E-1,1.6985161E0,1.1105082E0,1.3957385E0,1.4142653E0,1.6721478E0,9.533311E-1,1.3584721E0,1.566255E0,1.9186372E0,1.9259058E0,2.3309522E0,2.6840875E0,3.2380855E0,2.995319E0,6.0619855E0,3.8584893E0,5.0536532E0,3.1933248E0,5.1231456E0,4.8604493E0,8.385733E0],"categories":[],"categories_nodes":[],"categories_segments":[],"categories_sizes":[],"default_left":[0,0,0,0,0,0,0,0,0,0,0,0,0,0,0,0,0,0,0,0,0,0,0,0,0,0,0,0,0,0,0,0,0,0,0,0,0,0,0,0,0,0,0,0,0,0,0,0,0,0,0,0,0,0,0,0,0,0,0,0,0,0,0,0,0,0,0,0,0,0,0,0,0,0,0,0,0,0,0,0,0,0,0,0,0,0,0,0,0,0,0,0,0,0,0,0,0,0,0,0,0,0,0,0,0,0,0,0,0,0,0,0,0,0,0,0,0,0,0,0,0,0,0,0,0,0,0],"id":3,"left_children":[1,3,5,7,9,11,13,15,17,19,21,23,25,27,29,31,33,35,37,39,41,43,45,47,49,51,53,55,57,59,61,63,65,67,69,71,73,75,77,79,81,83,85,87,89,91,93,95,97,99,101,103,105,107,109,111,113,115,117,119,121,123,125,-1,-1,-1,-1,-1,-1,-1,-1,-1,-1,-1,-1,-1,-1,-1,-1,-1,-1,-1,-1,-1,-1,-1,-1,-1,-1,-1,-1,-1,-1,-1,-1,-1,-1,-1,-1,-1,-1,-1,-1,-1,-1,-1,-1,-1,-1,-1,-1,-1,-1,-1,-1,-1,-1,-1,-1,-1,-1,-1,-1,-1,-1,-1,-1],"loss_changes":[1.6223211E7,3.791608E6,4.338496E6,6.3867325E5,6.17739E5,8.54707E5,1.218316E6,1.0175975E5,1.06071266E5,7.597294E4,1.1013125E5,2.106035E5,1.70667E5,3.59437E5,2.12512E5,7.040625E3,1.5994656E4,1.6930992E4,2.2583445E4,2.7499797E4,4.4429875E4,4.419875E4,4.301975E4,6.357925E4,5.2364E4,2.6993875E4,5.35175E4,9.99565E4,7.17725E4,7.354125E4,6.8151E4,3.31875E2,1.1922969E3,1.07481875E4,6.910561E3,9.966703E3,6.933121E3,8.402043E3,8.0300703E3,2.723564E4,5.1418184E3,9.022469E3,8.305156E3,1.199925E4,2.3165688E4,1.00550625E4,1.3438875E4,2.2404E4,3.1212125E4,1.77235E4,2.56865E4,1.8083875E4,1.8445438E4,2.0229E4,8.785875E3,1.60333125E4,3.0134E4,1.513625E4,1.326775E4,3.6112875E4,3.009225E4,4.07975E3,1.831175E4,0E0,0E0,0E0,0E0,0E0,0E0,0E0,0E0,0E0,0E0,0E0,0E0,0E0,0E0,0E0,0E0,0E0,0E0,0E0,0E0,0E0,0E0,0E0,0E0,0E0,0E0,0E0,0E0,0E0,0E0,0E0,0E0,0E0,0E0,0E0,0E0,0E0,0E0,0E0,0E0,0E0,0E0,0E0,0E0,0E0,0E0,0E0,0E0,0E0,0E0,0E0,0E0,0E0,0E0,0E0,0E0,0E0,0E0,0E0,0E0,0E0,0E0,0E0,0E0],"parents":[2147483647,0,0,1,1,2,2,3,3,4,4,5,5,6,6,7,7,8,8,9,9,10,10,11,11,12,12,13,13,14,14,15,15,16,16,17,17,18,18,19,19,20,20,21,21,22,22,23,23,24,24,25,25,26,26,27,27,28,28,29,29,30,30,31,31,32,32,33,33,34,34,35,35,36,36,37,37,38,38,39,39,40,40,41,41,42,42,43,43,44,44,45,45,46,46,47,47,48,48,49,49,50,50,51,51,52,52,53,53,54,54,55,55,56,56,57,57,58,58,59,59,60,60,61,61,62,62],"right_children":[2,4,6,8,10,12,14,16,18,20,22,24,26,28,30,32,34,36,38,40,42,44,46,48,50,52,54,56,58,60,62,64,66,68,70,72,74,76,78,80,82,84,86,88,90,92,94,96,98,100,102,104,106,108,110,112,114,116,118,120,122,124,126,-1,-1,-1,-1,-1,-1,-1,-1,-1,-1,-1,-1,-1,-1,-1,-1,-1,-1,-1,-1,-1,-1,-1,-1,-1,-1,-1,-1,-1,-1,-1,-1,-1,-1,-1,-1,-1,-1,-1,-1,-1,-1,-1,-1,-1,-1,-1,-1,-1,-1,-1,-1,-1,-1,-1,-1,-1,-1,-1,-1,-1,-1,-1,-1],"split_conditions":[1.2571428E1,3.4285715E0,4.2E1,1.1428572E0,6.857143E0,2.3285715E1,8.8E1,6.2889004E-1,2.2142856E0,4.714286E0,5E0,2.1E1,2.7E1,5.3E1,1.4E2,1.9613922E-6,6.9113817E0,5E0,5E0,1.345342E1,5E0,9.142858E0,9.571428E0,1.5142858E1,5E0,2.9428572E1,4.1E1,2.9428572E1,6.5E1,8.4E1,1.46E2,2.4950823E-6,3E0,7.1428573E-1,1.6999962E1,1.3E1,1.5E0,4.857143E0,4.571429E0,5E0,1.4E1,6.571429E0,9E0,1.2E1,1.2E1,1.4E1,6E0,4E0,5E0,1.8214285E1,1.8214285E1,5E0,6.3E1,3.892857E1,4.0142857E1,2.6E1,4E1,5.1E1,8.4E1,2.6E2,1.25E2,1.04E2,1.53E2,-8.053126E-2,-7.577256E-2,-6.7040674E-2,-1.5705212E-3,-5.707084E-2,-4.279805E-2,6.4315334E-2,3.610758E-1,-2.4272857E-2,3.2534918E-1,-1.514814E-2,1.0458383E-2,1.6796175E-2,1.3171269E-1,5.4671556E-2,1.9279857E-1,6.4151645E-2,1.235528E-1,2.5264418E0,1.0200107E0,1.1337163E-1,1.617875E-1,1.8822782E-1,2.5483584E-1,2.4992417E-1,1.8192975E-1,3.6816162E-1,2.622081E-1,3.0423233E-1,4.0913668E-1,3.0525777E-1,5.037338E-1,3.7021676E-1,5.054025E-1,5.4027766E-1,7.425329E-1,5.632445E-1,7.4732435E-1,7.8500813E-1,1.0131727E0,7.632224E-1,1.0588393E0,9.947733E-1,1.6985161E0,1.1105082E0,1.3957385E0,1.4142653E0,1.6721478E0,9.533311E-1,1.3584721E0,1.566255E0,1.9186372E0,1.9259058E0,2.3309522E0,2.6840875E0,3.2380855E0,2.995319E0,6.0619855E0,3.8584893E0,5.0536532E0,3.1933248E0,5.1231456E0,4.8604493E0,8.385733E0],"split_indices":[0,2,4,2,2,2,4,5,2,2,6,4,4,8,8,9,5,6,6,9,6,2,2,2,6,0,8,0,4,8,4,5,4,2,5,4,2,0,0,6,7,0,4,7,7,4,4,6,6,2,2,6,8,2,0,8,8,4,8,4,4,4,8,0,0,0,0,0,0,0,0,0,0,0,0,0,0,0,0,0,0,0,0,0,0,0,0,0,0,0,0,0,0,0,0,0,0,0,0,0,0,0,0,0,0,0,0,0,0,0,0,0,0,0,0,0,0,0,0,0,0,0,0,0,0,0,0],"split_type":[0,0,0,0,0,0,0,0,0,0,0,0,0,0,0,0,0,0,0,0,0,0,0,0,0,0,0,0,0,0,0,0,0,0,0,0,0,0,0,0,0,0,0,0,0,0,0,0,0,0,0,0,0,0,0,0,0,0,0,0,0,0,0,0,0,0,0,0,0,0,0,0,0,0,0,0,0,0,0,0,0,0,0,0,0,0,0,0,0,0,0,0,0,0,0,0,0,0,0,0,0,0,0,0,0,0,0,0,0,0,0,0,0,0,0,0,0,0,0,0,0,0,0,0,0,0,0],"sum_hessian":[2.135448E6,2.080176E6,5.5272E4,1.838039E6,2.42137E5,4.9203E4,6.069E3,1.283325E6,5.54714E5,1.70242E5,7.1895E4,3.7451E4,1.1752E4,5.332E3,7.37E2,7.53634E5,5.29691E5,3.76109E5,1.78605E5,9.4468E4,7.5774E4,5.1325E4,2.057E4,2.6943E4,1.0508E4,6.242E3,5.51E3,3.579E3,1.753E3,6.36E2,1.01E2,6.42044E5,1.1159E5,5.28014E5,1.677E3,2.68254E5,1.07855E5,1.27442E5,5.1163E4,9.4441E4,2.7E1,5.4091E4,2.1683E4,2.8569E4,2.2756E4,1.2929E4,7.641E3,1.318E4,1.3763E4,5.288E3,5.22E3,4.131E3,2.111E3,3.991E3,1.519E3,1.02E3,2.559E3,1.084E3,6.69E2,3.23E2,3.13E2,5.7E1,4.4E1,6.02675E5,3.9369E4,1.1089E5,7E2,2.70722E5,2.57292E5,1.451E3,2.26E2,2.68051E5,2.03E2,4.6367E4,6.1488E4,1.25832E5,1.61E3,5.0089E4,1.074E3,6.74E4,2.7041E4,1E1,1.7E1,4.1558E4,1.2533E4,1.4823E4,6.86E3,9.993E3,1.8576E4,7.93E3,1.4826E4,9.948E3,2.981E3,9.85E2,6.656E3,8.296E3,4.884E3,1.1464E4,2.299E3,2.751E3,2.537E3,3.156E3,2.064E3,3.515E3,6.16E2,2.012E3,9.9E1,3.194E3,7.97E2,9.11E2,6.08E2,5.69E2,4.51E2,1.436E3,1.123E3,4.28E2,6.56E2,4.84E2,1.85E2,3.13E2,1E1,2.22E2,9.1E1,1E1,4.7E1,1E1,3.4E1],"tree_param":{"num_deleted":"0","num_feature":"10","num_nodes":"127","size_leaf_vector":"1"}},{"base_weights":[-6.9062616E-4,-4.4833943E-1,1.5421608E1,-9.181469E-1,2.8763561E0,1.2425284E1,3.8797314E1,-1.2684152E0,-8.3822824E-2,1.9508786E0,5.261689E0,9.727736E0,1.8193394E1,3.3434288E1,7.2919464E1,-1.4845793E0,-9.5264643E-1,-4.0249148E-1,3.8448507E-1,1.4737917E0,2.7180374E0,4.590701E0,7.108897E0,8.501289E0,1.28681345E1,1.5176089E1,2.2247192E1,2.8925655E1,4.6232845E1,6.3757397E1,1.0730227E2,-1.5299976E0,-1.2847829E0,-1.055117E0,-7.054001E-1,-4.3649536E-1,2.3456342E0,3.5593233E-1,6.2165375E0,1.1580727E0,2.2578928E0,2.282309E0,3.7963977E0,4.085193E0,5.931227E0,6.2182784E0,8.996694E0,7.1767826E0,1.0299415E1,1.0910129E1,1.5610436E1,1.4281425E1,1.959376E1,2.0640715E1,2.8225271E1,2.2072145E1,3.2631775E1,4.1817406E1,5.3631847E1,5.683787E1,7.584101E1,9.4081505E1,1.4898477E2,-7.65953E-2,-1.8494971E-2,-6.506105E-2,-2.9901836E-2,-5.3188454E-2,4.9505737E-2,-4.021327E-2,-2.3044234E-2,-2.7786737E-2,-6.931984E-3,8.768313E-2,3.7125418E-1,8.087701E-3,4.1991185E-2,2.7318862E-1,8.56365E-1,4.5687634E-2,7.4813925E-2,1.0495426E-1,1.6803674E-1,9.496486E-2,1.3553125E-1,1.5338264E-1,2.170035E-1,1.8444832E-1,2.7139202E-1,3.75779E-1,2.494316E-1,2.5470445E-1,3.720252E-1,3.8286987E-1,5.373783E-1,3.507664E-1,7.5261086E-1,4.958898E-1,6.908309E-1,4.9410138E-1,6.706777E-1,7.356894E-1,9.116351E-1,6.718737E-1,9.42632E-1,9.507934E-1,2.006708E0,9.363592E-1,1.1874622E0,1.3166629E0,1.5695456E0,8.982219E-1,1.2607394E0,1.5098056E0,1.8886279E0,1.6872424E0,2.2170699E0,2.3467844E0,2.8343062E0,2.5628994E0,3.4412491E0,3.5540874E0,4.84759E0,4.1072326E0,5.2311034E0,6.167854E0,9.385945E0],"categories":[],"categories_nodes":[],"categories_segments":[],"categories_sizes":[],"default_left":[0,0,0,0,0,0,0,0,0,0,0,0,0,0,0,0,0,0,0,0,0,0,0,0,0,0,0,0,0,0,0,0,0,0,0,0,0,0,0,0,0,0,0,0,0,0,0,0,0,0,0,0,0,0,0,0,0,0,0,0,0,0,0,0,0,0,0,0,0,0,0,0,0,0,0,0,0,0,0,0,0,0,0,0,0,0,0,0,0,0,0,0,0,0,0,0,0,0,0,0,0,0,0,0,0,0,0,0,0,0,0,0,0,0,0,0,0,0,0,0,0,0,0,0,0,0,0],"id":4,"left_children":[1,3,5,7,9,11,13,15,17,19,21,23,25,27,29,31,33,35,37,39,41,43,45,47,49,51,53,55,57,59,61,63,65,67,69,71,73,75,77,79,81,83,85,87,89,91,93,95,97,99,101,103,105,107,109,111,113,115,117,119,121,123,125,-1,-1,-1,-1,-1,-1,-1,-1,-1,-1,-1,-1,-1,-1,-1,-1,-1,-1,-1,-1,-1,-1,-1,-1,-1,-1,-1,-1,-1,-1,-1,-1,-1,-1,-1,-1,-1,-1,-1,-1,-1,-1,-1,-1,-1,-1,-1,-1,-1,-1,-1,-1,-1,-1,-1,-1,-1,-1,-1,-1,-1,-1,-1,-1],"loss_changes":[1.4748454E7,3.2426925E6,4.220124E6,5.315771E5,5.67421E5,8.30929E5,1.250354E6,8.744625E4,8.0266664E4,6.777544E4,8.9021125E4,1.4006875E5,2.07828E5,3.401475E5,2.857935E5,6.898875E3,1.3189375E4,2.990966E4,3.6264086E4,2.8263938E4,3.3354875E4,3.569225E4,3.2127812E4,6.226825E4,5.470275E4,3.82915E4,6.9135E4,1.105005E5,4.805925E4,5.721475E4,9.286725E4,1.370875E3,1.5892656E3,6.5143438E3,3.6873047E3,1.1228316E4,1.1749018E4,2.0364162E4,8.61841E3,6.725172E3,5.7329375E3,8.29125E3,8.0814688E3,2.0342688E4,2.1512594E4,1.783675E4,1.42996875E4,1.9063062E4,1.476075E4,1.522025E4,9.7330625E3,3.10695E4,1.8709688E4,3.36105E4,8.361375E3,1.9422688E4,3.441275E4,1.8239375E4,9.027625E3,2.803075E4,1.971675E4,1.0260375E4,2.1482438E4,0E0,0E0,0E0,0E0,0E0,0E0,0E0,0E0,0E0,0E0,0E0,0E0,0E0,0E0,0E0,0E0,0E0,0E0,0E0,0E0,0E0,0E0,0E0,0E0,0E0,0E0,0E0,0E0,0E0,0E0,0E0,0E0,0E0,0E0,0E0,0E0,0E0,0E0,0E0,0E0,0E0,0E0,0E0,0E0,0E0,0E0,0E0,0E0,0E0,0E0,0E0,0E0,0E0,0E0,0E0,0E0,0E0,0E0,0E0,0E0,0E0,0E0,0E0,0E0],"parents":[2147483647,0,0,1,1,2,2,3,3,4,4,5,5,6,6,7,7,8,8,9,9,10,10,11,11,12,12,13,13,14,14,15,15,16,16,17,17,18,18,19,19,20,20,21,21,22,22,23,23,24,24,25,25,26,26,27,27,28,28,29,29,30,30,31,31,32,32,33,33,34,34,35,35,36,36,37,37,38,38,39,39,40,40,41,41,42,42,43,43,44,44,45,45,46,46,47,47,48,48,49,49,50,50,51,51,52,52,53,53,54,54,55,55,56,56,57,57,58,58,59,59,60,60,61,61,62,62],"right_children":[2,4,6,8,10,12,14,16,18,20,22,24,26,28,30,32,34,36,38,40,42,44,46,48,50,52,54,56,58,60,62,64,66,68,70,72,74,76,78,80,82,84,86,88,90,92,94,96,98,100,102,104,106,108,110,112,114,116,118,120,122,124,126,-1,-1,-1,-1,-1,-1,-1,-1,-1,-1,-1,-1,-1,-1,-1,-1,-1,-1,-1,-1,-1,-1,-1,-1,-1,-1,-1,-1,-1,-1,-1,-1,-1,-1,-1,-1,-1,-1,-1,-1,-1,-1,-1,-1,-1,-1,-1,-1,-1,-1,-1,-1,-1,-1,-1,-1,-1,-1,-1,-1,-1,-1,-1,-1],"split_conditions":[1.1857142E1,3.2142856E0,4E1,1.1428572E0,6.642857E0,1.9821428E1,8.2E1,2.857143E-1,1.9285715E0,4.678571E0,1.1E1,5E0,2.5E1,5.5E1,1.21E2,3.5714287E-2,8.9285713E-1,3.7142856E0,7E0,5E0,5E0,9.75E0,1.0285714E1,1.4571428E1,1.4571428E1,2.9428572E1,3.7642857E1,2.7321428E1,6.4E1,8.5E1,1.78E2,6.466715E-7,2E0,6E0,5E0,5E0,1.2E1,5E0,2.6E1,4E0,9E0,5E0,6E0,5E0,1.1E1,5E0,5E0,2.4285715E1,2.5E1,2.2E1,2.7E1,5E0,8.3E1,5E0,4.3E1,2.4285715E1,5.5E1,3.7642857E1,6.6E1,1.06E2,1.28E2,1.18E2,2.1E1,-7.65953E-2,-1.8494971E-2,-6.506105E-2,-2.9901836E-2,-5.3188454E-2,4.9505737E-2,-4.021327E-2,-2.3044234E-2,-2.7786737E-2,-6.931984E-3,8.768313E-2,3.7125418E-1,8.087701E-3,4.1991185E-2,2.7318862E-1,8.56365E-1,4.5687634E-2,7.4813925E-2,1.0495426E-1,1.6803674E-1,9.496486E-2,1.3553125E-1,1.5338264E-1,2.170035E-1,1.8444832E-1,2.7139202E-1,3.75779E-1,2.494316E-1,2.5470445E-1,3.720252E-1,3.8286987E-1,5.373783E-1,3.507664E-1,7.5261086E-1,4.958898E-1,6.908309E-1,4.9410138E-1,6.706777E-1,7.356894E-1,9.116351E-1,6.718737E-1,9.42632E-1,9.507934E-1,2.006708E0,9.363592E-1,1.1874622E0,1.3166629E0,1.5695456E0,8.982219E-1,1.2607394E0,1.5098056E0,1.8886279E0,1.6872424E0,2.2170699E0,2.3467844E0,2.8343062E0,2.5628994E0,3.4412491E0,3.5540874E0,4.84759E0,4.1072326E0,5.2311034E0,6.167854E0,9.385945E0],"split_indices":[0,1,4,2,1,1,4,2,1,1,4,6,4,8,8,1,1,0,0,6,6,1,1,1,1,0,1,1,4,8,4,3,4,4,6,6,4,6,4,4,4,4,4,6,7,6,6,0,4,4,4,6,8,6,8,0,4,1,8,4,4,4,7,0,0,0,0,0,0,0,0,0,0,0,0,0,0,0,0,0,0,0,0,0,0,0,0,0,0,0,0,0,0,0,0,0,0,0,0,0,0,0,0,0,0,0,0,0,0,0,0,0,0,0,0,0,0,0,0,0,0,0,0,0,0,0,0],"split_type":[0,0,0,0,0,0,0,0,0,0,0,0,0,0,0,0,0,0,0,0,0,0,0,0,0,0,0,0,0,0,0,0,0,0,0,0,0,0,0,0,0,0,0,0,0,0,0,0,0,0,0,0,0,0,0,0,0,0,0,0,0,0,0,0,0,0,0,0,0,0,0,0,0,0,0,0,0,0,0,0,0,0,0,0,0,0,0,0,0,0,0,0,0,0,0,0,0,0,0,0,0,0,0,0,0,0,0,0,0,0,0,0,0,0,0,0,0,0,0,0,0,0,0,0,0,0,0],"sum_hessian":[2.136287E6,2.076029E6,6.0258E4,1.818991E6,2.57038E5,5.3413E4,6.845E3,1.281139E6,5.37852E5,1.85189E5,7.1849E4,3.6395E4,1.7018E4,5.917E3,9.28E2,7.60514E5,5.20625E5,3.20061E5,2.17791E5,1.14183E5,7.1006E4,5.2707E4,1.9142E4,2.6176E4,1.0219E4,9.759E3,7.259E3,4.378E3,1.539E3,7.35E2,1.93E2,6.19647E5,1.40867E5,3.68074E5,1.52551E5,3.1615E5,3.911E3,2.16731E5,1.06E3,8.1407E4,3.2776E4,5.0574E4,2.0432E4,3.8277E4,1.443E4,1.3009E4,6.133E3,1.5076E4,1.11E4,5.965E3,4.254E3,8.119E3,1.64E3,5.725E3,1.534E3,1.539E3,2.839E3,9.68E2,5.71E2,4.71E2,2.64E2,1.49E2,4.4E1,6.18629E5,1.018E3,1.37573E5,3.294E3,3.66524E5,1.55E3,1.08627E5,4.3924E4,2.25768E5,9.0382E4,3.504E3,4.07E2,1.54667E5,6.2064E4,9.93E2,6.7E1,4.7266E4,3.4141E4,2.8653E4,4.123E3,2.6702E4,2.3872E4,8.733E3,1.1699E4,2.9558E4,8.719E3,5.38E3,9.05E3,6.779E3,6.23E3,3.478E3,2.655E3,1.4775E4,3.01E2,1.0017E4,1.083E3,4.232E3,1.733E3,3.175E3,1.079E3,6.857E3,1.262E3,1.597E3,4.3E1,3.548E3,2.177E3,9.66E2,5.68E2,6.7E2,8.69E2,1.931E3,9.08E2,2.34E2,7.34E2,1.84E2,3.87E2,3.25E2,1.46E2,2.19E2,4.5E1,7.4E1,7.5E1,2.9E1,1.5E1],"tree_param":{"num_deleted":"0","num_feature":"10","num_nodes":"127","size_leaf_vector":"1"}},{"base_weights":[2.929878E-3,-4.0648377E-1,1.5398357E1,-8.442881E-1,3.0226924E0,1.2687427E1,4.006281E1,-1.1622277E0,8.9032486E-2,2.1562428E0,5.6074853E0,1.0510388E1,2.0181738E1,3.3739346E1,6.856392E1,-1.3893027E0,-8.192362E-1,-1.4430645E-1,7.439514E-1,1.6795846E0,3.1161873E0,4.9088736E0,7.6043525E0,8.485136E0,1.3762932E1,1.730062E1,2.5920864E1,2.946273E1,4.226422E1,5.916671E1,9.338134E1,-1.4353793E0,-1.1338692E0,-8.361746E-1,1.6099825E0,-3.262146E-1,1.5316746E-1,6.6383755E-1,4.4061155E0,1.3355895E0,2.213879E0,2.5854006E0,3.928245E0,4.3632336E0,6.0628223E0,6.829808E0,9.764419E0,6.8584127E0,9.665899E0,1.197932E1,1.5548286E1,1.4541594E1,1.9137932E1,2.2789373E1,3.0009941E1,2.3316095E1,3.123268E1,3.8381294E1,4.62806E1,5.5736595E1,6.999622E1,8.766697E1,8.227634E0,-7.258385E-2,-6.376926E-2,3.196101E-1,-5.6898523E-2,-4.530883E-2,-2.918346E-2,6.1175074E-2,4.4659597E-1,-2.1473654E-2,-9.0382425E-3,9.9732E-4,2.152818E-2,2.5507227E-2,5.70291E-2,1.84841E-1,6.066707E-1,5.1009515E-3,6.948382E-2,1.0210041E-1,1.5329155E-1,7.755318E-2,1.3850631E-1,1.8487735E-1,2.4417834E-1,1.7378087E-1,2.3987833E-1,3.7924767E-1,2.5817963E-1,3.1796435E-1,3.962474E-1,4.804429E-1,1.3163891E0,2.5827232E-1,3.7259027E-1,4.268348E-1,5.296647E-1,6.9923514E-1,5.618138E-1,6.98109E-1,8.631323E-1,6.732244E-1,1.2945231E0,8.8640326E-1,1.1090683E0,1.270479E0,1.0722703E0,1.42378E0,1.7507206E0,5.8152217E-1,1.2068036E0,1.4409509E0,1.68999E0,2.546983E0,1.8649839E0,1.5999278E0,2.3744283E0,3.4541974E0,2.6879122E0,2.9242823E0,4.2801485E0,4.226349E0,6.7613153E0],"categories":[],"categories_nodes":[],"categories_segments":[],"categories_sizes":[],"default_left":[0,0,0,0,0,0,0,0,0,0,0,0,0,0,0,0,0,0,0,0,0,0,0,0,0,0,0,0,0,0,0,0,0,0,0,0,0,0,0,0,0,0,0,0,0,0,0,0,0,0,0,0,0,0,0,0,0,0,0,0,0,0,0,0,0,0,0,0,0,0,0,0,0,0,0,0,0,0,0,0,0,0,0,0,0,0,0,0,0,0,0,0,0,0,0,0,0,0,0,0,0,0,0,0,0,0,0,0,0,0,0,0,0,0,0,0,0,0,0,0,0,0,0,0,0],"id":5,"left_children":[1,3,5,7,9,11,13,15,17,19,21,23,25,27,29,31,33,35,37,39,41,43,45,47,49,51,53,55,57,59,61,63,65,67,69,71,73,75,77,79,81,83,85,87,89,91,93,95,97,99,101,103,105,107,109,111,113,115,117,119,121,123,-1,-1,-1,-1,-1,-1,-1,-1,-1,-1,-1,-1,-1,-1,-1,-1,-1,-1,-1,-1,-1,-1,-1,-1,-1,-1,-1,-1,-1,-1,-1,-1,-1,-1,-1,-1,-1,-1,-1,-1,-1,-1,-1,-1,-1,-1,-1,-1,-1,-1,-1,-1,-1,-1,-1,-1,-1,-1,-1,-1,-1,-1,-1],"loss_changes":[1.3451342E7,3.120925E6,3.69584E6,5.470245E5,5.27084E5,8.124395E5,9.84233E5,1.07093125E5,7.158214E4,8.064894E4,8.23885E4,2.54141E5,1.849225E5,1.62151E5,2.260415E5,9.73525E3,2.2538438E4,1.8688781E4,3.6097906E4,2.1645125E4,2.51975E4,2.7534875E4,2.5549625E4,4.5627375E4,4.697175E4,3.757025E4,4.7265E4,3.17735E4,2.153025E4,2.2943E4,9.57645E4,1.825375E3,3.9093438E3,9.613719E3,1.0721453E4,3.2185938E3,4.843048E3,8.822402E3,1.4390348E4,4.7805938E3,6.748E3,6.7533594E3,5.0754375E3,1.1442125E4,1.9191812E4,5.7575E3,1.0150344E4,1.001525E4,1.43405E4,1.0886375E4,1.9872125E4,3.6184812E4,1.8821375E4,6.9335E3,1.14435E4,6.1547812E3,1.337625E4,8.496E3,1.1066625E4,1.0902875E4,2.551825E4,2.632975E4,0E0,0E0,0E0,0E0,0E0,0E0,0E0,0E0,0E0,0E0,0E0,0E0,0E0,0E0,0E0,0E0,0E0,0E0,0E0,0E0,0E0,0E0,0E0,0E0,0E0,0E0,0E0,0E0,0E0,0E0,0E0,0E0,0E0,0E0,0E0,0E0,0E0,0E0,0E0,0E0,0E0,0E0,0E0,0E0,0E0,0E0,0E0,0E0,0E0,0E0,0E0,0E0,0E0,0E0,0E0,0E0,0E0,0E0,0E0,0E0,0E0,0E0,0E0],"parents":[2147483647,0,0,1,1,2,2,3,3,4,4,5,5,6,6,7,7,8,8,9,9,10,10,11,11,12,12,13,13,14,14,15,15,16,16,17,17,18,18,19,19,20,20,21,21,22,22,23,23,24,24,25,25,26,26,27,27,28,28,29,29,30,30,31,31,32,32,33,33,34,34,35,35,36,36,37,37,38,38,39,39,40,40,41,41,42,42,43,43,44,44,45,45,46,46,47,47,48,48,49,49,50,50,51,51,52,52,53,53,54,54,55,55,56,56,57,57,58,58,59,59,60,60,61,61],"right_children":[2,4,6,8,10,12,14,16,18,20,22,24,26,28,30,32,34,36,38,40,42,44,46,48,50,52,54,56,58,60,62,64,66,68,70,72,74,76,78,80,82,84,86,88,90,92,94,96,98,100,102,104,106,108,110,112,114,116,118,120,122,124,-1,-1,-1,-1,-1,-1,-1,-1,-1,-1,-1,-1,-1,-1,-1,-1,-1,-1,-1,-1,-1,-1,-1,-1,-1,-1,-1,-1,-1,-1,-1,-1,-1,-1,-1,-1,-1,-1,-1,-1,-1,-1,-1,-1,-1,-1,-1,-1,-1,-1,-1,-1,-1,-1,-1,-1,-1,-1,-1,-1,-1,-1,-1],"split_conditions":[1.2571428E1,3.4642856E0,4.0142857E1,1.3214285E0,7.428571E0,2.7E1,7.9E1,6.462062E-1,2.5714285E0,5.321429E0,1.2E1,1.7607143E1,2.7321428E1,5.4E1,1.2E2,6.466715E-7,2.857143E0,1.9285715E0,6.142857E0,5E0,7E0,1.0285714E1,1.1571428E1,1.3E1,1.8E1,1.7607143E1,3.9E1,3.7642857E1,6.4E1,1.03E2,2.66E2,3.7796447E-1,3.1907925E-7,1.2857143E0,1.3E1,2E0,3E0,5E0,2E1,1.1428572E0,1E1,1E0,1.3E1,5E0,1.1E1,1.7E1,3.6E1,1.0892858E1,1.3428572E1,8E0,2.2607143E1,1.7359325E1,3.7E1,1.1E1,5.5E1,1.5E1,4E1,4E0,3.892857E1,5E0,1.9E1,3E1,8.227634E0,-7.258385E-2,-6.376926E-2,3.196101E-1,-5.6898523E-2,-4.530883E-2,-2.918346E-2,6.1175074E-2,4.4659597E-1,-2.1473654E-2,-9.0382425E-3,9.9732E-4,2.152818E-2,2.5507227E-2,5.70291E-2,1.84841E-1,6.066707E-1,5.1009515E-3,6.948382E-2,1.0210041E-1,1.5329155E-1,7.755318E-2,1.3850631E-1,1.8487735E-1,2.4417834E-1,1.7378087E-1,2.3987833E-1,3.7924767E-1,2.5817963E-1,3.1796435E-1,3.962474E-1,4.804429E-1,1.3163891E0,2.5827232E-1,3.7259027E-1,4.268348E-1,5.296647E-1,6.9923514E-1,5.618138E-1,6.98109E-1,8.631323E-1,6.732244E-1,1.2945231E0,8.8640326E-1,1.1090683E0,1.270479E0,1.0722703E0,1.42378E0,1.7507206E0,5.8152217E-1,1.2068036E0,1.4409509E0,1.68999E0,2.546983E0,1.8649839E0,1.5999278E0,2.3744283E0,3.4541974E0,2.6879122E0,2.9242823E0,4.2801485E0,4.226349E0,6.7613153E0],"split_indices":[0,1,0,1,1,4,4,9,2,1,4,1,1,4,4,3,0,1,0,4,4,1,1,4,4,1,4,1,4,4,4,5,5,0,4,4,4,4,4,0,4,4,4,4,7,4,4,1,1,7,1,9,4,7,4,4,4,7,2,7,7,7,0,0,0,0,0,0,0,0,0,0,0,0,0,0,0,0,0,0,0,0,0,0,0,0,0,0,0,0,0,0,0,0,0,0,0,0,0,0,0,0,0,0,0,0,0,0,0,0,0,0,0,0,0,0,0,0,0,0,0,0,0,0,0],"split_type":[0,0,0,0,0,0,0,0,0,0,0,0,0,0,0,0,0,0,0,0,0,0,0,0,0,0,0,0,0,0,0,0,0,0,0,0,0,0,0,0,0,0,0,0,0,0,0,0,0,0,0,0,0,0,0,0,0,0,0,0,0,0,0,0,0,0,0,0,0,0,0,0,0,0,0,0,0,0,0,0,0,0,0,0,0,0,0,0,0,0,0,0,0,0,0,0,0,0,0,0,0,0,0,0,0,0,0,0,0,0,0,0,0,0,0,0,0,0,0,0,0,0,0,0,0],"sum_hessian":[2.134082E6,2.078801E6,5.5281E4,1.843448E6,2.35353E5,4.9808E4,5.473E3,1.375036E6,4.68412E5,1.76268E5,5.9085E4,3.8598E4,1.121E4,4.481E3,9.92E2,8.27315E5,5.47721E5,3.45364E5,1.23048E5,1.17785E5,5.8483E4,4.3774E4,1.5311E4,2.3789E4,1.4809E4,7.466E3,3.744E3,2.987E3,1.494E3,7.22E2,2.7E2,7.00881E5,1.26434E5,5.43929E5,3.792E3,2.14311E5,1.31053E5,1.20415E5,2.633E3,7.1655E4,4.613E4,3.5369E4,2.3114E4,2.9724E4,1.405E4,1.1273E4,4.038E3,1.0008E4,1.3781E4,7.412E3,7.397E3,2.988E3,4.478E3,2.124E3,1.62E3,6.71E2,2.316E3,7.65E2,7.29E2,5.53E2,1.69E2,2.52E2,1.8E1,6.36079E5,6.4802E4,6.8E1,1.26366E5,4.25864E5,1.18065E5,3.603E3,1.89E2,1.25332E5,8.8979E4,8.8535E4,4.2518E4,9.1061E4,2.9354E4,2.413E3,2.2E2,3.01E3,6.8645E4,3.8389E4,7.741E3,5.361E3,3.0008E4,1.8622E4,4.492E3,9.769E3,1.9955E4,5.215E3,8.835E3,7.89E3,3.383E3,4.002E3,3.6E1,2.6E3,7.408E3,6.219E3,7.562E3,1.999E3,5.413E3,3.847E3,3.55E3,2.731E3,2.57E2,3.065E3,1.413E3,7.14E2,1.41E3,1.245E3,3.75E2,4.5E1,6.26E2,1.2E3,1.116E3,5.7E1,7.08E2,5.9E1,6.7E2,6.7E1,4.86E2,1E2,6.9E1,2.39E2,1.3E1],"tree_param":{"num_deleted":"0","num_feature":"10","num_nodes":"125","size_leaf_vector":"1"}},{"base_weights":[3.3107313E-4,-3.9408427E-1,1.4249453E1,-8.374863E-1,2.5551126E0,1.1441001E1,3.526576E1,-1.1759335E0,-1.6150293E-1,1.7750993E0,4.916918E0,8.984924E0,1.6180387E1,2.973261E1,6.082665E1,-1.3581753E0,-9.0774435E-1,-4.103542E-1,3.268845E-1,1.4270061E0,2.8767626E0,3.9536066E0,6.179527E0,7.8309746E0,1.1944568E1,1.29368305E1,1.9544973E1,2.3825459E1,3.594655E1,5.3728348E1,8.870622E1,-1.3733678E0,-1.1147484E0,-9.2692095E-1,8.1462705E-1,-5.657349E-1,-1.4506646E-1,2.6844835E-1,3.9022243E0,1.1209958E0,2.1907868E0,2.7847023E0,9.394646E0,3.486892E0,4.8563795E0,5.2123175E0,7.614525E0,6.8775954E0,9.689605E0,1.043441E1,1.4188963E1,1.2154132E1,1.7548649E1,1.6639269E1,2.2498468E1,1.8808046E1,2.6955225E1,3.254928E1,4.3109676E1,3.742021E1,5.669108E1,1.6258081E0,9.332674E1,-6.908227E-2,-6.414672E-2,-5.58676E-2,6.7029886E-2,-4.875122E-2,-3.3872847E-2,3.0439064E-2,4.680701E-1,-3.3091497E-2,-1.6337285E-2,-1.3725825E-2,8.867981E-3,1.1480036E-3,2.965979E-2,1.5369259E-1,5.183293E-1,4.197293E-2,8.2073025E-2,8.965104E-2,1.4274667E-1,1.0776173E-1,1.8060224E-1,3.6949524E-1,1.1084862E0,1.5967435E-1,2.308114E-1,9.971397E-2,2.61418E-1,2.2734044E-1,3.3576274E-1,3.3079678E-1,4.6723977E-1,2.783921E-1,3.7836444E-1,4.5243976E-1,6.0439795E-1,4.4212008E-1,5.7989854E-1,6.336642E-1,8.003877E-1,2.2156806E-1,6.375172E-1,7.760027E-1,1.1661385E0,7.208679E-1,9.809498E-1,1.0317158E0,1.2738986E0,6.080734E-1,1.0054793E0,1.1422769E0,1.5578476E0,1.3879277E0,1.8051165E0,1.8299357E0,2.3109474E0,1.4781018E0,2.1586444E0,2.5676398E0,3.1632748E0,4.0905776E0,5.8493743E0],"categories":[],"categories_nodes":[],"categories_segments":[],"categories_sizes":[],"default_left":[0,0,0,0,0,0,0,0,0,0,0,0,0,0,0,0,0,0,0,0,0,0,0,0,0,0,0,0,0,0,0,0,0,0,0,0,0,0,0,0,0,0,0,0,0,0,0,0,0,0,0,0,0,0,0,0,0,0,0,0,0,0,0,0,0,0,0,0,0,0,0,0,0,0,0,0,0,0,0,0,0,0,0,0,0,0,0,0,0,0,0,0,0,0,0,0,0,0,0,0,0,0,0,0,0,0,0,0,0,0,0,0,0,0,0,0,0,0,0,0,0,0,0,0,0],"id":6,"left_children":[1,3,5,7,9,11,13,15,17,19,21,23,25,27,29,31,33,35,37,39,41,43,45,47,49,51,53,55,57,59,61,63,65,67,69,71,73,75,77,79,81,83,85,87,89,91,93,95,97,99,101,103,105,107,109,111,113,115,117,119,121,-1,123,-1,-1,-1,-1,-1,-1,-1,-1,-1,-1,-1,-1,-1,-1,-1,-1,-1,-1,-1,-1,-1,-1,-1,-1,-1,-1,-1,-1,-1,-1,-1,-1,-1,-1,-1,-1,-1,-1,-1,-1,-1,-1,-1,-1,-1,-1,-1,-1,-1,-1,-1,-1,-1,-1,-1,-1,-1,-1,-1,-1,-1,-1],"loss_changes":[1.1996765E7,2.7162275E6,3.393135E6,4.1310675E5,5.001125E5,5.902365E5,9.56669E5,5.880675E4,7.321673E4,7.8255625E4,8.1949875E4,1.140055E5,1.886625E5,2.03704E5,2.33686E5,2.64775E3,1.6080156E4,1.645025E4,4.248364E4,3.624328E4,2.9373906E4,1.609125E4,4.0439875E4,4.2529875E4,3.1608E4,3.1610125E4,7.252575E4,4.44E4,6.463425E4,4.4398E4,6.0042125E4,5.02625E2,2.705625E2,5.7767812E3,9.425002E3,5.779547E3,6.152626E3,1.5950482E4,1.7477309E4,1.6222484E4,1.17129375E4,2.5154906E4,1.7299719E4,8.336906E3,1.3857969E4,1.7398156E4,2.0223E4,1.43131875E4,1.2411125E4,1.02780625E4,1.0176E4,3.4663625E4,1.4592094E4,2.809E4,2.285325E4,9.285375E3,2.9656875E4,3.03965E4,1.591275E4,5.5424844E3,2.527275E4,0E0,5.1439875E4,0E0,0E0,0E0,0E0,0E0,0E0,0E0,0E0,0E0,0E0,0E0,0E0,0E0,0E0,0E0,0E0,0E0,0E0,0E0,0E0,0E0,0E0,0E0,0E0,0E0,0E0,0E0,0E0,0E0,0E0,0E0,0E0,0E0,0E0,0E0,0E0,0E0,0E0,0E0,0E0,0E0,0E0,0E0,0E0,0E0,0E0,0E0,0E0,0E0,0E0,0E0,0E0,0E0,0E0,0E0,0E0,0E0,0E0,0E0,0E0,0E0,0E0],"parents":[2147483647,0,0,1,1,2,2,3,3,4,4,5,5,6,6,7,7,8,8,9,9,10,10,11,11,12,12,13,13,14,14,15,15,16,16,17,17,18,18,19,19,20,20,21,21,22,22,23,23,24,24,25,25,26,26,27,27,28,28,29,29,30,30,31,31,32,32,33,33,34,34,35,35,36,36,37,37,38,38,39,39,40,40,41,41,42,42,43,43,44,44,45,45,46,46,47,47,48,48,49,49,50,50,51,51,52,52,53,53,54,54,55,55,56,56,57,57,58,58,59,59,60,60,62,62],"right_children":[2,4,6,8,10,12,14,16,18,20,22,24,26,28,30,32,34,36,38,40,42,44,46,48,50,52,54,56,58,60,62,64,66,68,70,72,74,76,78,80,82,84,86,88,90,92,94,96,98,100,102,104,106,108,110,112,114,116,118,120,122,-1,124,-1,-1,-1,-1,-1,-1,-1,-1,-1,-1,-1,-1,-1,-1,-1,-1,-1,-1,-1,-1,-1,-1,-1,-1,-1,-1,-1,-1,-1,-1,-1,-1,-1,-1,-1,-1,-1,-1,-1,-1,-1,-1,-1,-1,-1,-1,-1,-1,-1,-1,-1,-1,-1,-1,-1,-1,-1,-1,-1,-1,-1,-1],"split_conditions":[1.2E1,3.107143E0,4E1,1E0,6.892857E0,1.9821428E1,7.5E1,6.466715E-7,2E0,5.571429E0,9E0,5E0,2.3E1,3.7642857E1,1.23E2,3.5714287E-1,2.142857E0,1.5357143E0,5.428571E0,5E0,1.3428572E1,9.25E0,5E0,1.5928572E1,2.1E1,2.9428572E1,2.7321428E1,5E0,5E0,3.7642857E1,3.7642857E1,3.5714287E-2,3.561084E0,2E0,4.4027963E0,5E0,5E0,4E0,7.4851503E0,4.357143E0,4.285714E0,4E0,2.9E1,5E0,3.857143E0,1.0285714E1,9.75E0,1E1,2.1E1,1.3428572E1,1.5928572E1,2E0,3.7642857E1,5E0,3.7642857E1,2.4285715E1,2.8285715E1,1.7359325E1,5.4E1,1.5E1,9.2E1,1.6258081E0,2.1E1,-6.908227E-2,-6.414672E-2,-5.58676E-2,6.7029886E-2,-4.875122E-2,-3.3872847E-2,3.0439064E-2,4.680701E-1,-3.3091497E-2,-1.6337285E-2,-1.3725825E-2,8.867981E-3,1.1480036E-3,2.965979E-2,1.5369259E-1,5.183293E-1,4.197293E-2,8.2073025E-2,8.965104E-2,1.4274667E-1,1.0776173E-1,1.8060224E-1,3.6949524E-1,1.1084862E0,1.5967435E-1,2.308114E-1,9.971397E-2,2.61418E-1,2.2734044E-1,3.3576274E-1,3.3079678E-1,4.6723977E-1,2.783921E-1,3.7836444E-1,4.5243976E-1,6.0439795E-1,4.4212008E-1,5.7989854E-1,6.336642E-1,8.003877E-1,2.2156806E-1,6.375172E-1,7.760027E-1,1.1661385E0,7.208679E-1,9.809498E-1,1.0317158E0,1.2738986E0,6.080734E-1,1.0054793E0,1.1422769E0,1.5578476E0,1.3879277E0,1.8051165E0,1.8299357E0,2.3109474E0,1.4781018E0,2.1586444E0,2.5676398E0,3.1632748E0,4.0905776E0,5.8493743E0],"split_indices":[2,1,4,1,1,1,4,3,2,0,4,6,4,1,4,1,0,1,0,6,0,1,6,1,4,0,1,6,6,1,1,1,9,4,9,6,6,6,9,1,1,6,4,6,0,1,1,4,4,1,1,4,1,6,1,0,2,9,4,7,4,0,7,0,0,0,0,0,0,0,0,0,0,0,0,0,0,0,0,0,0,0,0,0,0,0,0,0,0,0,0,0,0,0,0,0,0,0,0,0,0,0,0,0,0,0,0,0,0,0,0,0,0,0,0,0,0,0,0,0,0,0,0,0,0],"split_type":[0,0,0,0,0,0,0,0,0,0,0,0,0,0,0,0,0,0,0,0,0,0,0,0,0,0,0,0,0,0,0,0,0,0,0,0,0,0,0,0,0,0,0,0,0,0,0,0,0,0,0,0,0,0,0,0,0,0,0,0,0,0,0,0,0,0,0,0,0,0,0,0,0,0,0,0,0,0,0,0,0,0,0,0,0,0,0,0,0,0,0,0,0,0,0,0,0,0,0,0,0,0,0,0,0,0,0,0,0,0,0,0,0,0,0,0,0,0,0,0,0,0,0,0,0],"sum_hessian":[2.134626E6,2.077132E6,5.7494E4,1.805658E6,2.71474E5,5.0718E4,6.776E3,1.203231E6,6.02427E5,2.04077E5,6.7397E4,3.3408E4,1.731E4,5.572E3,1.204E3,7.16408E5,4.86823E5,3.99081E5,2.03346E5,1.55079E5,4.8998E4,3.8232E4,2.9165E4,2.4039E4,9.369E3,8.816E3,8.494E3,2.859E3,2.713E3,9.62E2,2.42E2,6.74318E5,4.209E4,4.81463E5,5.36E3,2.51673E5,1.47408E5,2.00077E5,3.269E3,1.10721E5,4.4358E4,4.8317E4,6.81E2,2.5206E4,1.3026E4,1.7425E4,1.174E4,1.5892E4,8.147E3,5.604E3,3.765E3,7.54E3,1.276E3,4.285E3,4.209E3,1.101E3,1.758E3,1.844E3,8.69E2,1.5E2,8.12E2,1.9E1,2.23E2,6.17758E5,5.656E4,4.2046E4,4.4E1,4.03629E5,7.7834E4,5.235E3,1.25E2,1.79497E5,7.2176E4,1.0518E5,4.2228E4,1.13944E5,8.6133E4,2.899E3,3.7E2,7.1855E4,3.8866E4,2.7745E4,1.6613E4,2.7442E4,2.0875E4,5.9E2,9.1E1,2.0011E4,5.195E3,1.499E3,1.1527E4,1.208E4,5.345E3,7.447E3,4.293E3,5.485E3,1.0407E4,6.433E3,1.714E3,2.37E3,3.234E3,2.058E3,1.707E3,5.41E2,6.999E3,9.47E2,3.29E2,2.458E3,1.827E3,2.594E3,1.615E3,1.82E2,9.19E2,8.92E2,8.66E2,7.89E2,1.055E3,2.85E2,5.84E2,6.6E1,8.4E1,4.53E2,3.59E2,1.53E2,7E1],"tree_param":{"num_deleted":"0","num_feature":"10","num_nodes":"125","size_leaf_vector":"1"}},{"base_weights":[-1.5997096E-3,-3.8503197E-1,1.3210555E1,-7.9824924E-1,2.3893018E0,1.0959503E1,3.5682087E1,-1.1041331E0,-1.23242766E-1,1.5740305E0,4.4165053E0,8.490479E0,1.6111883E1,2.8940073E1,5.422583E1,-1.2713993E0,-8.248447E-1,-3.1211644E-1,4.666862E-1,1.1331835E0,2.145436E0,3.8368282E0,5.860338E0,7.5357504E0,1.0792238E1,1.4021035E1,2.1149975E1,2.5945969E1,3.5353367E1,4.8182358E1,7.886483E1,-1.3069618E0,-1.0567893E0,-9.143079E-1,-6.371824E-1,-4.8280656E-1,2.8305175E-2,4.1166344E-1,5.4024534E0,1.0761698E0,2.105902E0,1.8868425E0,2.6200643E0,3.4552083E0,4.48158E0,7.020036E0,5.0595393E0,7.353353E0,1.4935959E1,1.0118258E1,1.3064189E1,1.3134367E1,1.7488739E1,1.9962236E1,2.7148489E1,4.559317E1,2.5293335E1,3.9520523E1,3.2494205E1,4.544901E1,5.75335E1,7.001518E1,9.438037E1,-6.571655E-2,-6.1774697E-2,1.990363E-1,-5.30079E-2,-4.6259753E-2,8.447322E-3,-3.2071758E-2,1.5378945E-1,-2.9574234E-2,-1.7052488E-2,-3.147147E-3,1.4969124E-2,1.566205E-2,6.366122E-2,2.4376495E-1,8.502207E-1,6.941082E-2,4.59149E-2,9.207836E-2,1.7246214E-1,1.1642553E-1,8.0013506E-2,1.5668698E-1,1.2021574E-1,1.4470272E-2,1.7682205E-1,2.011689E-1,2.5019997E-1,3.2337686E-1,4.601069E-1,9.829711E-2,2.7612633E-1,3.3492145E-1,4.5969754E-1,1.1959327E0,6.350267E-1,5.0083417E-1,9.5717233E-1,7.6677203E-1,5.9857506E-1,7.4189234E-1,6.003405E-1,9.7920305E-1,8.2288563E-1,8.7087816E-1,1.1026753E0,1.8805132E0,1.2896465E0,3.69218E0,1.8306131E0,9.8831713E-1,1.3572565E0,1.6260287E0,2.016877E0,1.5122671E0,1.7208731E0,1.5513254E0,2.3230999E0,2.2696514E0,2.978998E0,2.6159122E0,3.7406387E0,3.7685792E0,6.133215E0],"categories":[],"categories_nodes":[],"categories_segments":[],"categories_sizes":[],"default_left":[0,0,0,0,0,0,0,0,0,0,0,0,0,0,0,0,0,0,0,0,0,0,0,0,0,0,0,0,0,0,0,0,0,0,0,0,0,0,0,0,0,0,0,0,0,0,0,0,0,0,0,0,0,0,0,0,0,0,0,0,0,0,0,0,0,0,0,0,0,0,0,0,0,0,0,0,0,0,0,0,0,0,0,0,0,0,0,0,0,0,0,0,0,0,0,0,0,0,0,0,0,0,0,0,0,0,0,0,0,0,0,0,0,0,0,0,0,0,0,0,0,0,0,0,0,0,0],"id":7,"left_children":[1,3,5,7,9,11,13,15,17,19,21,23,25,27,29,31,33,35,37,39,41,43,45,47,49,51,53,55,57,59,61,63,65,67,69,71,73,75,77,79,81,83,85,87,89,91,93,95,97,99,101,103,105,107,109,111,113,115,117,119,121,123,125,-1,-1,-1,-1,-1,-1,-1,-1,-1,-1,-1,-1,-1,-1,-1,-1,-1,-1,-1,-1,-1,-1,-1,-1,-1,-1,-1,-1,-1,-1,-1,-1,-1,-1,-1,-1,-1,-1,-1,-1,-1,-1,-1,-1,-1,-1,-1,-1,-1,-1,-1,-1,-1,-1,-1,-1,-1,-1,-1,-1,-1,-1,-1,-1],"loss_changes":[1.0811749E7,2.3776442E6,3.044292E6,3.7271375E5,4.44348E5,6.95858E5,6.835435E5,5.8029625E4,6.272205E4,4.829953E4,6.451775E4,8.120225E4,1.86392E5,7.6288E4,2.13589E5,5.927875E3,7.811125E3,2.4776957E4,3.707296E4,6.000375E3,1.02440625E4,1.3522875E4,2.0477E4,3.5182E4,1.646725E4,3.828725E4,3.647325E4,3.403725E4,1.39235E4,2.740775E4,3.264525E4,3.49125E2,1.8782109E3,3.7162188E3,2.3736523E3,4.3750156E3,3.5223977E3,1.1448293E4,9.119527E3,5.035789E3,2.1208281E3,6.83825E3,3.2555938E3,8.889125E3,4.8755938E3,1.08135E4,1.87085E4,3.0701125E4,1.2302891E4,7.47475E3,5.9610312E3,1.89905E4,5.178625E3,2.2713E4,1.11629375E4,1.9358531E4,2.6673125E4,1.62625E3,2.2526875E3,1.190425E4,3.7943125E3,1.18651875E4,4.503675E4,0E0,0E0,0E0,0E0,0E0,0E0,0E0,0E0,0E0,0E0,0E0,0E0,0E0,0E0,0E0,0E0,0E0,0E0,0E0,0E0,0E0,0E0,0E0,0E0,0E0,0E0,0E0,0E0,0E0,0E0,0E0,0E0,0E0,0E0,0E0,0E0,0E0,0E0,0E0,0E0,0E0,0E0,0E0,0E0,0E0,0E0,0E0,0E0,0E0,0E0,0E0,0E0,0E0,0E0,0E0,0E0,0E0,0E0,0E0,0E0,0E0,0E0,0E0,0E0],"parents":[2147483647,0,0,1,1,2,2,3,3,4,4,5,5,6,6,7,7,8,8,9,9,10,10,11,11,12,12,13,13,14,14,15,15,16,16,17,17,18,18,19,19,20,20,21,21,22,22,23,23,24,24,25,25,26,26,27,27,28,28,29,29,30,30,31,31,32,32,33,33,34,34,35,35,36,36,37,37,38,38,39,39,40,40,41,41,42,42,43,43,44,44,45,45,46,46,47,47,48,48,49,49,50,50,51,51,52,52,53,53,54,54,55,55,56,56,57,57,58,58,59,59,60,60,61,61,62,62],"right_children":[2,4,6,8,10,12,14,16,18,20,22,24,26,28,30,32,34,36,38,40,42,44,46,48,50,52,54,56,58,60,62,64,66,68,70,72,74,76,78,80,82,84,86,88,90,92,94,96,98,100,102,104,106,108,110,112,114,116,118,120,122,124,126,-1,-1,-1,-1,-1,-1,-1,-1,-1,-1,-1,-1,-1,-1,-1,-1,-1,-1,-1,-1,-1,-1,-1,-1,-1,-1,-1,-1,-1,-1,-1,-1,-1,-1,-1,-1,-1,-1,-1,-1,-1,-1,-1,-1,-1,-1,-1,-1,-1,-1,-1,-1,-1,-1,-1,-1,-1,-1,-1,-1,-1,-1,-1,-1],"split_conditions":[1.1857142E1,3.107143E0,4.0142857E1,1.0714285E0,6.428571E0,1.9821428E1,6.6E1,6.6963625E-1,2.4285715E0,4.357143E0,9.75E0,1.5928572E1,3.2E1,4.9E1,1.16E2,6.466715E-7,8.5714287E-1,1.75E0,5.572696E0,5.714286E0,5.714286E0,9E0,1.2E1,2.4285715E1,2.4E1,2.9428572E1,5.2E1,1E0,1.5E1,9.5E1,2E1,2.4950823E-6,3.1907925E-7,2.2990682E0,6.5436063E0,1.3571428E0,2.392857E0,4E0,7.8386507E0,1.1E1,5.0136056E0,1.2E1,1.2E1,1.4285715E-1,8.071428E0,1.3428572E1,6.142857E0,1.7E1,1E0,1.6999962E1,1.3E1,1.2E1,1.2E1,2.7321428E1,4E0,6E0,3.7642857E1,3.7642857E1,1.7359325E1,3.7642857E1,1.7660826E1,1.25E2,1.46E2,-6.571655E-2,-6.1774697E-2,1.990363E-1,-5.30079E-2,-4.6259753E-2,8.447322E-3,-3.2071758E-2,1.5378945E-1,-2.9574234E-2,-1.7052488E-2,-3.147147E-3,1.4969124E-2,1.566205E-2,6.366122E-2,2.4376495E-1,8.502207E-1,6.941082E-2,4.59149E-2,9.207836E-2,1.7246214E-1,1.1642553E-1,8.0013506E-2,1.5668698E-1,1.2021574E-1,1.4470272E-2,1.7682205E-1,2.011689E-1,2.5019997E-1,3.2337686E-1,4.601069E-1,9.829711E-2,2.7612633E-1,3.3492145E-1,4.5969754E-1,1.1959327E0,6.350267E-1,5.0083417E-1,9.5717233E-1,7.6677203E-1,5.9857506E-1,7.4189234E-1,6.003405E-1,9.7920305E-1,8.2288563E-1,8.7087816E-1,1.1026753E0,1.8805132E0,1.2896465E0,3.69218E0,1.8306131E0,9.8831713E-1,1.3572565E0,1.6260287E0,2.016877E0,1.5122671E0,1.7208731E0,1.5513254E0,2.3230999E0,2.2696514E0,2.978998E0,2.6159122E0,3.7406387E0,3.7685792E0,6.133215E0],"split_indices":[0,1,0,2,1,1,8,5,0,1,1,1,8,8,8,3,1,1,9,0,0,8,7,0,8,0,8,8,7,8,7,5,5,3,5,1,1,0,5,7,5,7,7,0,1,1,0,8,8,5,7,7,7,1,7,7,1,1,9,1,3,8,8,0,0,0,0,0,0,0,0,0,0,0,0,0,0,0,0,0,0,0,0,0,0,0,0,0,0,0,0,0,0,0,0,0,0,0,0,0,0,0,0,0,0,0,0,0,0,0,0,0,0,0,0,0,0,0,0,0,0,0,0,0,0,0,0],"split_type":[0,0,0,0,0,0,0,0,0,0,0,0,0,0,0,0,0,0,0,0,0,0,0,0,0,0,0,0,0,0,0,0,0,0,0,0,0,0,0,0,0,0,0,0,0,0,0,0,0,0,0,0,0,0,0,0,0,0,0,0,0,0,0,0,0,0,0,0,0,0,0,0,0,0,0,0,0,0,0,0,0,0,0,0,0,0,0,0,0,0,0,0,0,0,0,0,0,0,0,0,0,0,0,0,0,0,0,0,0,0,0,0,0,0,0,0,0,0,0,0,0,0,0,0,0,0,0],"sum_hessian":[2.134191E6,2.074002E6,6.0189E4,1.80514E6,2.68862E5,5.471E4,5.479E3,1.242219E6,5.62921E5,1.91749E5,7.7113E4,3.6988E4,1.7722E4,4.02E3,1.459E3,7.76918E5,4.65301E5,4.26403E5,1.36518E5,1.08242E5,8.3507E4,5.5025E4,2.2088E4,2.6147E4,1.0841E4,1.2527E4,5.195E3,2.744E3,1.276E3,1.174E3,2.85E2,6.66473E5,1.10445E5,3.15087E5,1.50214E5,2.84002E5,1.42401E5,1.35014E5,1.504E3,1.02251E5,5.991E3,5.4059E4,2.9448E4,3.457E4,2.0455E4,9.019E3,1.3069E4,2.552E4,6.27E2,8.365E3,2.476E3,9.98E3,2.547E3,4.34E3,8.55E2,8.6E1,2.658E3,5.14E2,7.62E2,9.13E2,2.61E2,1.85E2,1E2,6.04158E5,6.2315E4,7.3E1,1.10372E5,3.11952E5,3.135E3,1.50043E5,1.71E2,1.60755E5,1.23247E5,1.06539E5,3.5862E4,1.21173E5,1.3841E4,1.44E3,6.4E1,3.4349E4,6.7902E4,5.008E3,9.83E2,2.127E4,3.2789E4,8.706E3,2.0742E4,8.65E2,3.3705E4,1.0902E4,9.553E3,7.2E3,1.819E3,1.702E3,1.1367E4,1.8826E4,6.694E3,1.23E2,5.04E2,8.274E3,9.1E1,8E2,1.676E3,3.97E3,6.01E3,8.34E2,1.713E3,1.962E3,2.378E3,9.5E1,7.6E2,1.9E1,6.7E1,6.7E2,1.988E3,5.8E1,4.56E2,3.59E2,4.03E2,6.2E1,8.51E2,4.1E1,2.2E2,4.2E1,1.43E2,6.2E1,3.8E1],"tree_param":{"num_deleted":"0","num_feature":"10","num_nodes":"127","size_leaf_vector":"1"}},{"base_weights":[2.1149237E-4,-3.827677E-1,1.2037229E1,-7.7328914E-1,2.0946004E0,1.0394007E1,3.939325E1,-1.0788804E0,-2.0750636E-1,1.3736749E0,3.9610388E0,8.29851E0,1.7595638E1,3.483556E1,7.194868E1,-1.2221653E0,-8.432884E-1,-4.3678665E-1,1.8859667E-1,9.659806E-1,1.9186568E0,3.3565698E0,5.4661307E0,7.1160326E0,1.1854307E1,1.4405143E1,2.2416288E1,2.8570444E1,4.473228E1,6.781316E1,1.5063216E2,-1.2435443E0,-1.0583515E0,-9.1547525E-1,-6.6396487E-1,-4.615632E-1,1.761931E0,1.6668485E-1,5.7352405E0,6.0009253E-1,1.394855E0,1.4832267E0,2.588632E0,2.8111668E0,4.3283844E0,4.6416097E0,6.966781E0,5.9396324E0,8.922988E0,1.0350579E1,1.4248524E1,1.3781458E1,2.1309355E1,1.9540398E1,2.5742704E1,2.331894E1,3.1806713E1,4.0523895E1,5.0680138E1,5.297769E1,8.0869804E1,5.693111E0,8.852096E0,-6.2339433E-2,-5.8743544E-2,-5.5365752E-2,-4.5038484E-2,-4.6106543E-2,6.3177615E-2,-3.3474393E-2,1.9254336E-1,-2.8058961E-2,-1.0677385E-2,6.591143E-2,3.1352222E-1,3.2399342E-4,2.8364008E-2,2.6620302E-1,1.5743576E0,4.591206E-2,2.4682565E-2,9.5915966E-2,6.1010834E-2,6.1001826E-2,9.364354E-2,1.13835745E-1,1.623818E-1,1.21240996E-1,1.6809022E-1,5.629111E-2,2.2632526E-1,1.4421313E-1,2.485349E-1,1.6234986E-1,3.6975592E-1,2.5212386E-1,3.6917743E-1,3.9532444E-1,5.518617E-1,4.991231E-1,7.7970165E-1,5.9792197E-1,7.712056E-1,5.602498E-1,7.585319E-1,9.82861E-1,1.5970618E0,9.271318E-1,1.1137141E0,1.1424053E0,1.4141248E0,1.8698647E0,1.0722324E0,1.454151E0,1.719244E0,1.533288E0,2.099126E0,2.3601587E0,3.038696E0,1.8524427E0,3.0003726E0,3.706078E0,5.650651E0],"categories":[],"categories_nodes":[],"categories_segments":[],"categories_sizes":[],"default_left":[0,0,0,0,0,0,0,0,0,0,0,0,0,0,0,0,0,0,0,0,0,0,0,0,0,0,0,0,0,0,0,0,0,0,0,0,0,0,0,0,0,0,0,0,0,0,0,0,0,0,0,0,0,0,0,0,0,0,0,0,0,0,0,0,0,0,0,0,0,0,0,0,0,0,0,0,0,0,0,0,0,0,0,0,0,0,0,0,0,0,0,0,0,0,0,0,0,0,0,0,0,0,0,0,0,0,0,0,0,0,0,0,0,0,0,0,0,0,0,0,0,0,0],"id":8,"left_children":[1,3,5,7,9,11,13,15,17,19,21,23,25,27,29,31,33,35,37,39,41,43,45,47,49,51,53,55,57,59,61,63,65,67,69,71,73,75,77,79,81,83,85,87,89,91,93,95,97,99,101,103,105,107,109,111,113,115,117,119,121,-1,-1,-1,-1,-1,-1,-1,-1,-1,-1,-1,-1,-1,-1,-1,-1,-1,-1,-1,-1,-1,-1,-1,-1,-1,-1,-1,-1,-1,-1,-1,-1,-1,-1,-1,-1,-1,-1,-1,-1,-1,-1,-1,-1,-1,-1,-1,-1,-1,-1,-1,-1,-1,-1,-1,-1,-1,-1,-1,-1,-1,-1],"loss_changes":[9.839323E6,2.0012636E6,2.958103E6,3.0894912E5,3.7900838E5,9.368065E5,5.50783E5,3.9164125E4,5.6912773E4,4.514472E4,7.1384E4,2.021365E5,2.148895E5,2.01654E5,1.3846975E5,2.525125E3,5.6791562E3,2.162321E4,2.7921598E4,1.8239352E4,2.5362906E4,2.966775E4,2.7790062E4,7.667275E4,4.3056625E4,3.5972625E4,5.278675E4,3.3362375E4,2.965125E4,8.015625E4,1.1763438E3,1.405E2,6.4146094E2,4.5381875E3,3.1426172E3,9.696828E3,8.838913E3,1.4686736E4,9.40085E3,2.1236348E3,4.8893438E3,5.402336E3,7.0325E3,7.622375E3,1.2765469E4,8.3798125E3,1.2676906E4,2.8285812E4,3.0495125E4,1.4077E4,1.2269625E4,2.7487125E4,1.1592406E4,7.744375E3,1.8316125E4,1.9483719E4,7.694E3,9.446625E3,1.5405375E4,2.0946062E4,4.1493875E4,0E0,0E0,0E0,0E0,0E0,0E0,0E0,0E0,0E0,0E0,0E0,0E0,0E0,0E0,0E0,0E0,0E0,0E0,0E0,0E0,0E0,0E0,0E0,0E0,0E0,0E0,0E0,0E0,0E0,0E0,0E0,0E0,0E0,0E0,0E0,0E0,0E0,0E0,0E0,0E0,0E0,0E0,0E0,0E0,0E0,0E0,0E0,0E0,0E0,0E0,0E0,0E0,0E0,0E0,0E0,0E0,0E0,0E0,0E0,0E0,0E0,0E0],"parents":[2147483647,0,0,1,1,2,2,3,3,4,4,5,5,6,6,7,7,8,8,9,9,10,10,11,11,12,12,13,13,14,14,15,15,16,16,17,17,18,18,19,19,20,20,21,21,22,22,23,23,24,24,25,25,26,26,27,27,28,28,29,29,30,30,31,31,32,32,33,33,34,34,35,35,36,36,37,37,38,38,39,39,40,40,41,41,42,42,43,43,44,44,45,45,46,46,47,47,48,48,49,49,50,50,51,51,52,52,53,53,54,54,55,55,56,56,57,57,58,58,59,59,60,60],"right_children":[2,4,6,8,10,12,14,16,18,20,22,24,26,28,30,32,34,36,38,40,42,44,46,48,50,52,54,56,58,60,62,64,66,68,70,72,74,76,78,80,82,84,86,88,90,92,94,96,98,100,102,104,106,108,110,112,114,116,118,120,122,-1,-1,-1,-1,-1,-1,-1,-1,-1,-1,-1,-1,-1,-1,-1,-1,-1,-1,-1,-1,-1,-1,-1,-1,-1,-1,-1,-1,-1,-1,-1,-1,-1,-1,-1,-1,-1,-1,-1,-1,-1,-1,-1,-1,-1,-1,-1,-1,-1,-1,-1,-1,-1,-1,-1,-1,-1,-1,-1,-1,-1,-1],"split_conditions":[1.1142858E1,2.9642856E0,5.1E1,9.285714E-1,6.178571E0,2.2607143E1,1.03E2,5.669467E-1,1.7857143E0,4E0,5E0,2.1E1,3.1E1,5.9E1,2.62E2,1.9613922E-6,7.8571427E-1,3.4285715E0,7E0,4.107143E0,4.357143E0,8.785714E0,8.785714E0,1.4571428E1,2.1E1,4.0142857E1,3.7E1,3.5E1,7.4E1,9.7E1,1.81E2,2.608389E-6,1E0,6E0,6.5436063E0,5E0,1.2E1,5E0,1.0069074E1,1E0,1E0,3.7142856E0,8E0,7E0,3E0,4E0,1E0,4E0,4E0,1.3247541E1,5E0,1.8E1,6.3E1,5E0,3.7642857E1,1E0,5E0,3.7642857E1,1E2,4E0,1.71E2,5.693111E0,8.852096E0,-6.2339433E-2,-5.8743544E-2,-5.5365752E-2,-4.5038484E-2,-4.6106543E-2,6.3177615E-2,-3.3474393E-2,1.9254336E-1,-2.8058961E-2,-1.0677385E-2,6.591143E-2,3.1352222E-1,3.2399342E-4,2.8364008E-2,2.6620302E-1,1.5743576E0,4.591206E-2,2.4682565E-2,9.5915966E-2,6.1010834E-2,6.1001826E-2,9.364354E-2,1.13835745E-1,1.623818E-1,1.21240996E-1,1.6809022E-1,5.629111E-2,2.2632526E-1,1.4421313E-1,2.485349E-1,1.6234986E-1,3.6975592E-1,2.5212386E-1,3.6917743E-1,3.9532444E-1,5.518617E-1,4.991231E-1,7.7970165E-1,5.9792197E-1,7.712056E-1,5.602498E-1,7.585319E-1,9.82861E-1,1.5970618E0,9.271318E-1,1.1137141E0,1.1424053E0,1.4141248E0,1.8698647E0,1.0722324E0,1.454151E0,1.719244E0,1.533288E0,2.099126E0,2.3601587E0,3.038696E0,1.8524427E0,3.0003726E0,3.706078E0,5.650651E0],"split_indices":[0,1,4,2,1,1,4,5,1,6,6,4,4,8,4,9,1,0,0,1,2,1,1,1,8,0,8,8,4,8,8,5,4,4,5,6,4,6,5,6,6,1,4,4,0,4,4,6,6,5,6,4,8,6,1,8,6,1,8,6,4,0,0,0,0,0,0,0,0,0,0,0,0,0,0,0,0,0,0,0,0,0,0,0,0,0,0,0,0,0,0,0,0,0,0,0,0,0,0,0,0,0,0,0,0,0,0,0,0,0,0,0,0,0,0,0,0,0,0,0,0,0,0],"split_type":[0,0,0,0,0,0,0,0,0,0,0,0,0,0,0,0,0,0,0,0,0,0,0,0,0,0,0,0,0,0,0,0,0,0,0,0,0,0,0,0,0,0,0,0,0,0,0,0,0,0,0,0,0,0,0,0,0,0,0,0,0,0,0,0,0,0,0,0,0,0,0,0,0,0,0,0,0,0,0,0,0,0,0,0,0,0,0,0,0,0,0,0,0,0,0,0,0,0,0,0,0,0,0,0,0,0,0,0,0,0,0,0,0,0,0,0,0,0,0,0,0,0,0],"sum_hessian":[2.134375E6,2.068561E6,6.5814E4,1.786885E6,2.81676E5,6.2086E4,3.728E3,1.160223E6,6.26662E5,2.03193E5,7.8483E4,4.8094E4,1.3992E4,3.272E3,4.56E2,7.21443E5,4.3878E5,3.96913E5,2.29749E5,1.16239E5,8.6954E4,5.5997E4,2.2486E4,3.6094E4,1.2E4,8.422E3,5.57E3,2.006E3,1.266E3,4.35E2,2.1E1,6.38152E5,8.3291E4,3.12841E5,1.25939E5,3.92491E5,4.422E3,2.28846E5,9.03E2,6.2727E4,5.3512E4,5.2704E4,3.425E4,3.587E4,2.0127E4,1.4515E4,7.971E3,2.1864E4,1.423E4,7.374E3,4.626E3,7.727E3,6.95E2,2.991E3,2.579E3,7.68E2,1.238E3,7.46E2,5.2E2,2.06E2,2.29E2,1.1E1,1E1,6.09347E5,2.8805E4,6.3541E4,1.975E4,3.11889E5,9.52E2,1.25786E5,1.53E2,2.80019E5,1.12472E5,4.027E3,3.95E2,1.63472E5,6.5374E4,8.9E2,1.3E1,1.5723E4,4.7004E4,1.3384E4,4.0128E4,3.1459E4,2.1245E4,2.325E4,1.1E4,2.1083E4,1.4787E4,1.173E3,1.8954E4,2.291E3,1.2224E4,8.24E2,7.147E3,1.3488E4,8.376E3,9.613E3,4.617E3,6.893E3,4.81E2,1.573E3,3.053E3,2.71E3,5.017E3,6.04E2,9.1E1,2.197E3,7.94E2,1.21E3,1.369E3,8.8E1,6.8E2,6.08E2,6.3E2,9.9E1,6.47E2,3.91E2,1.29E2,6.5E1,1.41E2,1.92E2,3.7E1],"tree_param":{"num_deleted":"0","num_feature":"10","num_nodes":"123","size_leaf_vector":"1"}},{"base_weights":[8.9469575E-4,-3.391627E-1,1.2255245E1,-7.337109E-1,2.105839E0,1.0136075E1,3.254096E1,-1.0062536E0,-1.7083782E-1,1.3762428E0,4.01581E0,8.483691E0,1.629012E1,2.8713463E1,6.2652714E1,-1.1426117E0,-7.451083E-1,-3.833278E-1,1.7993411E-1,9.7648704E-1,2.037618E0,3.3961525E0,5.551455E0,7.2664733E0,1.1496197E1,1.3831737E1,2.2481773E1,2.5134104E1,3.9172485E1,5.78232E1,8.779639E1,-1.178154E0,-9.4880676E-1,-7.501197E-1,8.06872E0,-4.8251528E-1,-1.365412E-1,2.3456974E-2,5.7130915E-1,6.3368005E-1,1.4345117E0,1.5254275E0,2.719317E0,2.7374072E0,4.12031E0,4.6153316E0,6.890017E0,6.165846E0,8.922051E0,1.0071183E1,1.4772046E1,1.2009258E1,1.5640138E1,1.9332317E1,2.6516264E1,2.2931955E1,3.3695976E1,4.525619E0,3.8250526E1,5.318936E1,6.580785E1,7.4924034E1,1.1683812E2,-5.9276875E-2,-5.547867E-2,2.9225612E-1,-4.764498E-2,-4.101413E-2,-2.8792037E-2,2.783046E-1,9.8861134E-1,-2.64203E-2,-7.5019374E-3,-7.9521965E-3,7.4892536E-2,-4.8150515E-4,5.8462184E-2,2.6888922E-2,1.3355087E-1,3.1459484E-2,1.1434709E0,9.2386045E-2,6.114606E-2,1.07827835E-1,6.141041E-2,1.1739095E-1,1.6521691E-1,1.2995137E-1,2.1644314E-1,2.4852784E-1,1.8053679E-1,2.1654081E-1,2.9170784E-1,3.3932E-1,7.578327E-1,3.8387734E-1,2.675805E-1,5.340203E-1,4.0850487E-1,5.921937E-1,4.6470165E-1,4.5103246E-1,7.642333E-1,7.142165E-1,5.5531853E-1,7.3988014E-1,9.504774E-1,1.4519621E0,9.421175E-1,1.4682463E0,1.2415099E0,1.0589718E0,1.28023E0,1.4680803E0,1.8602186E0,1.4835619E0,2.0608633E0,1.8990916E0,2.7452238E0,2.3104265E0,3.5867264E0,1.9435695E0,4.287639E0,4.615094E0,7.3178797E0],"categories":[],"categories_nodes":[],"categories_segments":[],"categories_sizes":[],"default_left":[0,0,0,0,0,0,0,0,0,0,0,0,0,0,0,0,0,0,0,0,0,0,0,0,0,0,0,0,0,0,0,0,0,0,0,0,0,0,0,0,0,0,0,0,0,0,0,0,0,0,0,0,0,0,0,0,0,0,0,0,0,0,0,0,0,0,0,0,0,0,0,0,0,0,0,0,0,0,0,0,0,0,0,0,0,0,0,0,0,0,0,0,0,0,0,0,0,0,0,0,0,0,0,0,0,0,0,0,0,0,0,0,0,0,0,0,0,0,0,0,0,0,0,0,0],"id":9,"left_children":[1,3,5,7,9,11,13,15,17,19,21,23,25,27,29,31,33,35,37,39,41,43,45,47,49,51,53,55,57,59,61,63,65,67,69,71,73,75,77,79,81,83,85,87,89,91,93,95,97,99,101,103,105,107,109,111,113,-1,115,117,119,121,123,-1,-1,-1,-1,-1,-1,-1,-1,-1,-1,-1,-1,-1,-1,-1,-1,-1,-1,-1,-1,-1,-1,-1,-1,-1,-1,-1,-1,-1,-1,-1,-1,-1,-1,-1,-1,-1,-1,-1,-1,-1,-1,-1,-1,-1,-1,-1,-1,-1,-1,-1,-1,-1,-1,-1,-1,-1,-1,-1,-1,-1,-1],"loss_changes":[8.896869E6,2.003949E6,2.477803E6,2.7439838E5,4.0221738E5,5.30622E5,6.265495E5,4.2914E4,4.3494477E4,5.5217906E4,7.589875E4,1.50803E5,1.678365E5,1.801645E5,6.946775E4,5.4523125E3,1.826561E4,8.89523E3,1.3481574E4,2.043882E4,2.7468E4,2.7106062E4,2.870725E4,5.3351375E4,5.51195E4,2.5879E4,3.9355625E4,6.72485E4,5.48395E4,1.5653625E4,2.7488875E4,3.3725E2,3.417E3,5.0517656E3,6.77045E3,3.9548672E3,3.8318494E3,5.9621587E3,4.4250117E3,7.4173926E3,4.8694453E3,8.424961E3,7.327578E3,6.5443906E3,1.1712656E4,4.6551875E3,7.978375E3,2.1632125E4,1.538325E4,1.12589375E4,1.0435125E4,7.9403125E3,1.09770625E4,7.847375E3,5.86E3,1.2909875E4,1.0093125E4,0E0,2.961825E4,6.5908125E3,1.8279E4,2.3982531E4,6.747375E3,0E0,0E0,0E0,0E0,0E0,0E0,0E0,0E0,0E0,0E0,0E0,0E0,0E0,0E0,0E0,0E0,0E0,0E0,0E0,0E0,0E0,0E0,0E0,0E0,0E0,0E0,0E0,0E0,0E0,0E0,0E0,0E0,0E0,0E0,0E0,0E0,0E0,0E0,0E0,0E0,0E0,0E0,0E0,0E0,0E0,0E0,0E0,0E0,0E0,0E0,0E0,0E0,0E0,0E0,0E0,0E0,0E0,0E0,0E0,0E0,0E0,0E0],"parents":[2147483647,0,0,1,1,2,2,3,3,4,4,5,5,6,6,7,7,8,8,9,9,10,10,11,11,12,12,13,13,14,14,15,15,16,16,17,17,18,18,19,19,20,20,21,21,22,22,23,23,24,24,25,25,26,26,27,27,28,28,29,29,30,30,31,31,32,32,33,33,34,34,35,35,36,36,37,37,38,38,39,39,40,40,41,41,42,42,43,43,44,44,45,45,46,46,47,47,48,48,49,49,50,50,51,51,52,52,53,53,54,54,55,55,56,56,58,58,59,59,60,60,61,61,62,62],"right_children":[2,4,6,8,10,12,14,16,18,20,22,24,26,28,30,32,34,36,38,40,42,44,46,48,50,52,54,56,58,60,62,64,66,68,70,72,74,76,78,80,82,84,86,88,90,92,94,96,98,100,102,104,106,108,110,112,114,-1,116,118,120,122,124,-1,-1,-1,-1,-1,-1,-1,-1,-1,-1,-1,-1,-1,-1,-1,-1,-1,-1,-1,-1,-1,-1,-1,-1,-1,-1,-1,-1,-1,-1,-1,-1,-1,-1,-1,-1,-1,-1,-1,-1,-1,-1,-1,-1,-1,-1,-1,-1,-1,-1,-1,-1,-1,-1,-1,-1,-1,-1,-1,-1,-1,-1],"split_conditions":[1.2E1,3E0,4.0142857E1,1E0,6.571429E0,2.4285715E1,9.1E1,6.9006556E-1,1.8571428E0,4.5E0,5E0,5E0,5E0,5E0,1.53E2,6.466715E-7,1.6999962E1,5E0,5E0,4E0,4E0,8.357142E0,8.714286E0,1.7142857E1,1.8214285E1,2.9428572E1,3.9E1,5.7E1,1E0,1.16E2,2.1E1,2.4950823E-6,3.1907925E-7,5E0,6.466715E-7,2E0,2.7142856E0,3.857143E0,4.142857E0,1.0221987E1,1.2E1,1.1E1,5.642857E0,6.9113817E0,1.3E1,5.646908E0,1.7142857E1,1.2E1,1.1E1,1.1E1,1.5714286E1,1.1E1,4E0,1E0,1.3E1,4.1E1,6.6E1,4.525619E0,4.9E1,2E0,4E0,3E0,1.87E2,-5.9276875E-2,-5.547867E-2,2.9225612E-1,-4.764498E-2,-4.101413E-2,-2.8792037E-2,2.783046E-1,9.8861134E-1,-2.64203E-2,-7.5019374E-3,-7.9521965E-3,7.4892536E-2,-4.8150515E-4,5.8462184E-2,2.6888922E-2,1.3355087E-1,3.1459484E-2,1.1434709E0,9.2386045E-2,6.114606E-2,1.07827835E-1,6.141041E-2,1.1739095E-1,1.6521691E-1,1.2995137E-1,2.1644314E-1,2.4852784E-1,1.8053679E-1,2.1654081E-1,2.9170784E-1,3.3932E-1,7.578327E-1,3.8387734E-1,2.675805E-1,5.340203E-1,4.0850487E-1,5.921937E-1,4.6470165E-1,4.5103246E-1,7.642333E-1,7.142165E-1,5.5531853E-1,7.3988014E-1,9.504774E-1,1.4519621E0,9.421175E-1,1.4682463E0,1.2415099E0,1.0589718E0,1.28023E0,1.4680803E0,1.8602186E0,1.4835619E0,2.0608633E0,1.8990916E0,2.7452238E0,2.3104265E0,3.5867264E0,1.9435695E0,4.287639E0,4.615094E0,7.3178797E0],"split_indices":[2,2,0,2,0,0,8,5,2,2,6,6,6,6,8,3,5,6,6,6,6,2,2,0,2,0,8,8,8,8,7,5,5,6,3,0,0,0,0,9,7,7,2,5,7,5,0,7,7,7,0,7,6,8,7,8,8,0,8,6,6,6,8,0,0,0,0,0,0,0,0,0,0,0,0,0,0,0,0,0,0,0,0,0,0,0,0,0,0,0,0,0,0,0,0,0,0,0,0,0,0,0,0,0,0,0,0,0,0,0,0,0,0,0,0,0,0,0,0,0,0,0,0,0,0],"split_type":[0,0,0,0,0,0,0,0,0,0,0,0,0,0,0,0,0,0,0,0,0,0,0,0,0,0,0,0,0,0,0,0,0,0,0,0,0,0,0,0,0,0,0,0,0,0,0,0,0,0,0,0,0,0,0,0,0,0,0,0,0,0,0,0,0,0,0,0,0,0,0,0,0,0,0,0,0,0,0,0,0,0,0,0,0,0,0,0,0,0,0,0,0,0,0,0,0,0,0,0,0,0,0,0,0,0,0,0,0,0,0,0,0,0,0,0,0,0,0,0,0,0,0,0,0],"sum_hessian":[2.134982E6,2.077337E6,5.7645E4,1.788697E6,2.8864E5,5.2194E4,5.451E3,1.205159E6,5.83538E5,2.08859E5,7.9781E4,4.1148E4,1.1046E4,4.838E3,6.13E2,7.91743E5,4.13416E5,3.63399E5,2.20139E5,1.30178E5,7.8681E4,5.6846E4,2.2935E4,2.9309E4,1.1839E4,7.909E3,3.137E3,3.607E3,1.231E3,5.17E2,9.6E1,6.69041E5,1.22702E5,4.13182E5,2.34E2,2.59215E5,1.04184E5,1.57264E5,6.2875E4,7.4455E4,5.5723E4,4.4928E4,3.3753E4,2.977E4,2.7076E4,1.3499E4,9.436E3,1.7608E4,1.1701E4,8.253E3,3.586E3,3.943E3,3.966E3,1.765E3,1.372E3,2.872E3,7.35E2,2E1,1.211E3,3.32E2,1.85E2,6.9E1,2.7E1,6.03996E5,6.5045E4,7.3E1,1.22629E5,2.94582E5,1.186E5,1.94E2,4E1,2.27775E5,3.144E4,1.0277E5,1.414E3,1.52851E5,4.413E3,6.1888E4,9.87E2,7.4441E4,1.4E1,1.8868E4,3.6855E4,1.4382E4,3.0546E4,2.0647E4,1.3106E4,2.7391E4,2.379E3,1.0143E4,1.6933E4,1.0948E4,2.551E3,9.321E3,1.15E2,6.161E3,1.1447E4,3.501E3,8.2E3,2.511E3,5.742E3,2.95E2,3.291E3,1.116E3,2.827E3,3.177E3,7.89E2,8.2E1,1.683E3,5.04E2,8.68E2,1.74E3,1.132E3,3.33E2,4.02E2,3.14E2,8.97E2,3.6E1,2.96E2,4.5E1,1.4E2,1.7E1,5.2E1,1.7E1,1E1],"tree_param":{"num_deleted":"0","num_feature":"10","num_nodes":"125","size_leaf_vector":"1"}},{"base_weights":[-1.8996963E-3,-3.2834035E-1,1.1422981E1,-6.9032496E-1,2.012171E0,8.99857E0,2.7281473E1,-9.336751E-1,-7.9966284E-2,1.3116866E0,3.6708815E0,7.256708E0,1.2998958E1,2.3620953E1,5.269978E1,-1.098251E0,-6.98419E-1,-2.2869058E-1,4.6990272E-1,1.0495502E0,2.2570941E0,3.151961E0,5.3780594E0,6.195867E0,9.541911E0,1.154068E1,1.7262978E1,2.0802956E1,3.297454E1,4.4445206E1,7.579358E1,-1.1250169E0,-9.8467845E-1,-7.0640856E-1,2.440804E0,-3.5694796E-1,-5.5741396E-2,3.2756048E-1,8.880751E-1,6.9105947E-1,1.4291273E0,2.1260905E0,9.907591E0,2.576263E0,3.6255789E0,5.300483E0,2.3217241E1,4.812456E0,7.045848E0,5.1256666E0,1.0054269E1,1.0260204E1,1.3809892E1,1.6364273E1,2.1523907E1,1.6567219E1,2.3233917E1,2.959036E1,3.998095E1,4.125603E1,6.0828094E1,6.849975E1,1.1517928E2,-5.6319993E-2,-1.272631E-2,-4.9435355E-2,8.402362E-2,-3.692558E-2,-1.5666677E-2,7.874519E-2,3.9259094E-1,-1.8095754E-2,2.5452018E-1,-2.8575747E-3,8.61797E-1,2.8553039E-2,5.4345573E-3,4.189292E-2,2.1265669E-1,4.7857426E-2,2.7017275E-2,8.8898145E-2,6.1604947E-2,9.418626E-2,1.6847916E-1,4.4886485E-1,1.8137658E0,1.6269816E-1,1.10807694E-1,1.6139376E-1,2.1671763E-1,2.4209194E-1,3.3495688E-1,1.6439943E0,6.002702E-1,-1.5292707E-2,2.5216237E-1,4.1222993E-1,3.2303545E-1,4.6561494E-1,1.8589692E-1,4.5939547E-1,6.028101E-1,4.3670258E-1,5.5762684E-1,8.38669E-1,6.398864E-1,7.376271E-1,9.2151624E-1,1.5123456E0,1.0244217E0,7.874758E-1,1.0951791E0,1.0129076E0,1.2696389E0,1.2187265E0,1.5741819E0,2.2932334E0,1.828569E0,1.6680777E0,2.1910324E0,1.0352653E0,3.3489094E0,3.1485372E0,4.130605E0,4.0005383E0,6.691083E0],"categories":[],"categories_nodes":[],"categories_segments":[],"categories_sizes":[],"default_left":[0,0,0,0,0,0,0,0,0,0,0,0,0,0,0,0,0,0,0,0,0,0,0,0,0,0,0,0,0,0,0,0,0,0,0,0,0,0,0,0,0,0,0,0,0,0,0,0,0,0,0,0,0,0,0,0,0,0,0,0,0,0,0,0,0,0,0,0,0,0,0,0,0,0,0,0,0,0,0,0,0,0,0,0,0,0,0,0,0,0,0,0,0,0,0,0,0,0,0,0,0,0,0,0,0,0,0,0,0,0,0,0,0,0,0,0,0,0,0,0,0,0,0,0,0,0,0],"id":10,"left_children":[1,3,5,7,9,11,13,15,17,19,21,23,25,27,29,31,33,35,37,39,41,43,45,47,49,51,53,55,57,59,61,63,65,67,69,71,73,75,77,79,81,83,85,87,89,91,93,95,97,99,101,103,105,107,109,111,113,115,117,119,121,123,125,-1,-1,-1,-1,-1,-1,-1,-1,-1,-1,-1,-1,-1,-1,-1,-1,-1,-1,-1,-1,-1,-1,-1,-1,-1,-1,-1,-1,-1,-1,-1,-1,-1,-1,-1,-1,-1,-1,-1,-1,-1,-1,-1,-1,-1,-1,-1,-1,-1,-1,-1,-1,-1,-1,-1,-1,-1,-1,-1,-1,-1,-1,-1,-1],"loss_changes":[7.9614675E6,1.7583424E6,2.2796875E6,2.669712E5,3.2299038E5,3.5833025E5,7.30355E5,4.9753375E4,4.1899902E4,4.8435062E4,7.3102625E4,8.6816625E4,9.681325E4,1.805225E5,1.8515175E5,2.2971875E3,1.3268234E4,8.945498E3,6.4921836E3,2.0821516E4,4.250086E4,1.7249688E4,2.6498938E4,2.8747938E4,2.5651188E4,3.3645875E4,1.4861625E4,5.40405E4,3.65105E4,3.56735E4,6.64955E4,7.361875E2,1.5500312E3,6.6575E3,6.279181E3,6.266791E3,4.1863804E3,4.3368896E3,4.6765723E3,3.1554648E3,5.105922E3,1.2565172E4,1.7184047E4,6.9658438E3,9.7741875E3,1.2255375E4,8.59266E3,1.1010203E4,1.05790625E4,6.936254E3,1.7539812E4,1.003E4,1.23564375E4,1.06669375E4,5.5985625E3,8.0773125E3,2.1040875E4,9.8525625E3,8.64575E3,1.09818125E4,2.747525E4,1.20273125E4,1.4840781E4,0E0,0E0,0E0,0E0,0E0,0E0,0E0,0E0,0E0,0E0,0E0,0E0,0E0,0E0,0E0,0E0,0E0,0E0,0E0,0E0,0E0,0E0,0E0,0E0,0E0,0E0,0E0,0E0,0E0,0E0,0E0,0E0,0E0,0E0,0E0,0E0,0E0,0E0,0E0,0E0,0E0,0E0,0E0,0E0,0E0,0E0,0E0,0E0,0E0,0E0,0E0,0E0,0E0,0E0,0E0,0E0,0E0,0E0,0E0,0E0,0E0,0E0,0E0,0E0],"parents":[2147483647,0,0,1,1,2,2,3,3,4,4,5,5,6,6,7,7,8,8,9,9,10,10,11,11,12,12,13,13,14,14,15,15,16,16,17,17,18,18,19,19,20,20,21,21,22,22,23,23,24,24,25,25,26,26,27,27,28,28,29,29,30,30,31,31,32,32,33,33,34,34,35,35,36,36,37,37,38,38,39,39,40,40,41,41,42,42,43,43,44,44,45,45,46,46,47,47,48,48,49,49,50,50,51,51,52,52,53,53,54,54,55,55,56,56,57,57,58,58,59,59,60,60,61,61,62,62],"right_children":[2,4,6,8,10,12,14,16,18,20,22,24,26,28,30,32,34,36,38,40,42,44,46,48,50,52,54,56,58,60,62,64,66,68,70,72,74,76,78,80,82,84,86,88,90,92,94,96,98,100,102,104,106,108,110,112,114,116,118,120,122,124,126,-1,-1,-1,-1,-1,-1,-1,-1,-1,-1,-1,-1,-1,-1,-1,-1,-1,-1,-1,-1,-1,-1,-1,-1,-1,-1,-1,-1,-1,-1,-1,-1,-1,-1,-1,-1,-1,-1,-1,-1,-1,-1,-1,-1,-1,-1,-1,-1,-1,-1,-1,-1,-1,-1,-1,-1,-1,-1,-1,-1,-1,-1,-1,-1],"split_conditions":[1.1571428E1,3.0714285E0,3.7E1,1.1428572E0,6.178571E0,2.1E1,7.9E1,5.135526E-1,2.357143E0,7E0,1.2E1,1.7607143E1,2.7321428E1,5.5E1,1.08E2,2.608389E-6,8E0,1.6785715E0,4E0,3.9285715E0,9.3105755E0,6E0,1.6999962E1,1E1,3E0,2.4E1,4.5E1,2.7321428E1,6.3E1,1.22E2,1.79E2,6.466715E-7,3.019119E0,3E0,5.411628E0,1.3E1,8.416647E0,1.4E1,5.646908E0,1.4E1,1.2E1,4.358747E0,5.5E1,1.1E1,8.785714E0,1.4E1,1E0,1.1547005E0,1.1E1,8E0,2.4E1,1.5928572E1,1E1,3E1,4E0,1.6999962E1,3.6E1,3.7642857E1,1.3E1,5.2E1,3.7642857E1,1.46E2,1.3E1,-5.6319993E-2,-1.272631E-2,-4.9435355E-2,8.402362E-2,-3.692558E-2,-1.5666677E-2,7.874519E-2,3.9259094E-1,-1.8095754E-2,2.5452018E-1,-2.8575747E-3,8.61797E-1,2.8553039E-2,5.4345573E-3,4.189292E-2,2.1265669E-1,4.7857426E-2,2.7017275E-2,8.8898145E-2,6.1604947E-2,9.418626E-2,1.6847916E-1,4.4886485E-1,1.8137658E0,1.6269816E-1,1.10807694E-1,1.6139376E-1,2.1671763E-1,2.4209194E-1,3.3495688E-1,1.6439943E0,6.002702E-1,-1.5292707E-2,2.5216237E-1,4.1222993E-1,3.2303545E-1,4.6561494E-1,1.8589692E-1,4.5939547E-1,6.028101E-1,4.3670258E-1,5.5762684E-1,8.38669E-1,6.398864E-1,7.376271E-1,9.2151624E-1,1.5123456E0,1.0244217E0,7.874758E-1,1.0951791E0,1.0129076E0,1.2696389E0,1.2187265E0,1.5741819E0,2.2932334E0,1.828569E0,1.6680777E0,2.1910324E0,1.0352653E0,3.3489094E0,3.1485372E0,4.130605E0,4.0005383E0,6.691083E0],"split_indices":[1,2,4,1,1,4,4,9,1,4,4,1,1,8,8,5,4,1,4,1,9,4,5,4,4,8,8,1,4,4,4,3,5,4,3,4,5,7,5,7,7,5,4,7,1,8,8,3,7,7,8,1,7,4,7,5,8,1,7,8,1,8,7,0,0,0,0,0,0,0,0,0,0,0,0,0,0,0,0,0,0,0,0,0,0,0,0,0,0,0,0,0,0,0,0,0,0,0,0,0,0,0,0,0,0,0,0,0,0,0,0,0,0,0,0,0,0,0,0,0,0,0,0,0,0,0,0],"split_type":[0,0,0,0,0,0,0,0,0,0,0,0,0,0,0,0,0,0,0,0,0,0,0,0,0,0,0,0,0,0,0,0,0,0,0,0,0,0,0,0,0,0,0,0,0,0,0,0,0,0,0,0,0,0,0,0,0,0,0,0,0,0,0,0,0,0,0,0,0,0,0,0,0,0,0,0,0,0,0,0,0,0,0,0,0,0,0,0,0,0,0,0,0,0,0,0,0,0,0,0,0,0,0,0,0,0,0,0,0,0,0,0,0,0,0,0,0,0,0,0,0,0,0,0,0,0,0],"sum_hessian":[2.1347E6,2.075401E6,5.9299E4,1.797413E6,2.77988E5,5.1437E4,7.862E3,1.285059E6,5.12354E5,1.9545E5,8.2538E4,3.5836E4,1.5601E4,6.874E3,9.88E2,7.5611E5,5.28949E5,4.03279E5,1.09075E5,1.53023E5,4.2427E4,6.33E4,1.9238E4,2.4477E4,1.1359E4,1.1628E4,3.973E3,5.285E3,1.589E3,7.3E2,2.58E2,6.11894E5,1.44216E5,5.27607E5,1.342E3,2.31557E5,1.71722E5,8.1377E4,2.7698E4,7.8699E4,7.4324E4,4.1714E4,7.13E2,2.8574E4,3.4726E4,1.9156E4,8.2E1,9.318E3,1.5159E4,1.182E3,1.0177E4,7.437E3,4.191E3,3.285E3,6.88E2,1.93E3,3.355E3,1.075E3,5.14E2,6.14E2,1.16E2,2.2E2,3.8E1,6.10923E5,9.71E2,1.43999E5,2.17E2,4.87769E5,3.9838E4,1.158E3,1.84E2,2.31347E5,2.1E2,1.71709E5,1.3E1,3.852E4,4.2857E4,2.7292E4,4.06E2,2.8455E4,5.0244E4,2.6824E4,4.75E4,3.4912E4,6.802E3,6.9E2,2.3E1,9.912E3,1.8662E4,2.2248E4,1.2478E4,1.4429E4,4.727E3,4.3E1,3.9E1,4.02E2,8.916E3,4.968E3,1.0191E4,2.96E2,8.86E2,7.107E3,3.07E3,2.748E3,4.689E3,1.063E3,3.128E3,1.85E3,1.435E3,7E1,6.18E2,1.677E3,2.53E2,1.415E3,1.94E3,2.9E2,7.85E2,1.84E2,3.3E2,1.54E2,4.6E2,1.6E1,1E2,1.62E2,5.8E1,1.5E1,2.3E1],"tree_param":{"num_deleted":"0","num_feature":"10","num_nodes":"127","size_leaf_vector":"1"}},{"base_weights":[5.5922655E-4,-2.780089E-1,1.2223224E1,-6.030169E-1,2.5024118E0,1.0428498E1,3.430067E1,-8.489629E-1,1.4194353E-1,1.757252E0,4.337528E0,8.410152E0,1.6318777E1,2.9362732E1,5.5588425E1,-1.0250585E0,-5.9646064E-1,-1.0212618E-1,6.7226225E-1,1.521471E0,3.219294E0,3.6530802E0,6.0431905E0,7.1264377E0,1.0747566E1,1.3595464E1,1.997658E1,2.192496E1,3.315727E1,4.963563E1,9.452815E1,-1.0615407E0,-8.7407273E-1,-6.1812526E-1,1.7982592E-1,-2.2082672E-1,1.9300796E-1,4.6251443E-1,1.1937166E0,1.135896E0,2.0736692E0,3.0357285E0,1.3000944E1,3.1221044E0,4.58167E0,5.9774466E0,2.8692678E1,5.9622335E0,8.892812E0,9.996957E0,1.4192614E1,1.2477161E1,1.611009E1,1.782474E1,2.3134539E1,1.5312689E1,2.484435E1,2.8523582E1,3.894977E1,3.967469E1,5.644969E1,8.07192E1,1.1983536E2,-5.3187437E-2,-1.8140411E-2,-4.5453828E-2,-3.4766037E-2,-3.45312E-2,-2.1897247E-2,6.2622475E-3,2.6693416E-1,-3.2732864E-3,-1.5502905E-2,1.3429689E-3,1.8890468E-2,3.960192E-2,1.3633415E-2,4.678283E-2,8.13956E-2,4.4688027E-2,9.038676E-2,8.855457E-2,1.5065907E-1,1.3306652E-1,2.2270875E-1,5.1707816E-1,1.2532281E0,1.5434246E-1,5.702447E-1,2.2689235E-1,8.3097833E-1,2.690422E-1,3.9439994E-1,8.7760574E-1,3.0378258E0,1.4413594E-1,3.1208834E-1,1.654216E-1,4.6422005E-1,4.6125895E-1,6.7448086E-1,6.7491055E-1,1.341867E0,5.420134E-1,7.0859486E-1,9.3330854E-1,7.399132E-1,7.531762E-1,9.7608674E-1,1.053879E0,1.3003439E0,8.0060285E-1,-2.3812442E-1,1.9140625E0,1.2126191E0,1.249295E0,1.6488463E0,5.4717937E0,1.8990701E0,9.6829206E-1,2.0373638E0,2.622908E0,3.3274403E0,2.9842966E0,4.415499E0,4.720954E0,7.192312E0],"categories":[],"categories_nodes":[],"categories_segments":[],"categories_sizes":[],"default_left":[0,0,0,0,0,0,0,0,0,0,0,0,0,0,0,0,0,0,0,0,0,0,0,0,0,0,0,0,0,0,0,0,0,0,0,0,0,0,0,0,0,0,0,0,0,0,0,0,0,0,0,0,0,0,0,0,0,0,0,0,0,0,0,0,0,0,0,0,0,0,0,0,0,0,0,0,0,0,0,0,0,0,0,0,0,0,0,0,0,0,0,0,0,0,0,0,0,0,0,0,0,0,0,0,0,0,0,0,0,0,0,0,0,0,0,0,0,0,0,0,0,0,0,0,0,0,0],"id":11,"left_children":[1,3,5,7,9,11,13,15,17,19,21,23,25,27,29,31,33,35,37,39,41,43,45,47,49,51,53,55,57,59,61,63,65,67,69,71,73,75,77,79,81,83,85,87,89,91,93,95,97,99,101,103,105,107,109,111,113,115,117,119,121,123,125,-1,-1,-1,-1,-1,-1,-1,-1,-1,-1,-1,-1,-1,-1,-1,-1,-1,-1,-1,-1,-1,-1,-1,-1,-1,-1,-1,-1,-1,-1,-1,-1,-1,-1,-1,-1,-1,-1,-1,-1,-1,-1,-1,-1,-1,-1,-1,-1,-1,-1,-1,-1,-1,-1,-1,-1,-1,-1,-1,-1,-1,-1,-1,-1],"loss_changes":[7.2667845E6,1.8856574E6,1.884027E6,3.4231056E5,2.98629E5,5.22769E5,3.74155E5,6.2453375E4,6.0021473E4,5.35375E4,7.3604875E4,9.822325E4,1.1153125E5,8.122675E4,1.5106325E5,4.5569375E3,9.705734E3,1.1125201E4,1.5984711E4,2.8475406E4,3.868767E4,2.21775E4,2.6716062E4,4.3438625E4,2.9883E4,1.7897625E4,3.212E4,1.8610469E4,5.0443E4,3.7457375E4,2.106E4,1.0276875E3,1.0068281E3,7.333422E3,4.41079E3,3.1396377E3,2.79676E3,6.520248E3,4.695746E3,1.28108125E4,1.5627344E4,1.1231641E4,1.2473711E4,8.326219E3,8.559125E3,2.0482438E4,1.7500645E4,1.0957469E4,1.8337062E4,2.55835E4,1.7853281E4,1.22164375E4,6.3529062E3,1.30663125E4,1.08914375E4,4.3455312E3,4.4821875E3,1.6043375E4,5.3915E4,4.4545938E3,1.0404375E4,4.293875E3,4.0920938E3,0E0,0E0,0E0,0E0,0E0,0E0,0E0,0E0,0E0,0E0,0E0,0E0,0E0,0E0,0E0,0E0,0E0,0E0,0E0,0E0,0E0,0E0,0E0,0E0,0E0,0E0,0E0,0E0,0E0,0E0,0E0,0E0,0E0,0E0,0E0,0E0,0E0,0E0,0E0,0E0,0E0,0E0,0E0,0E0,0E0,0E0,0E0,0E0,0E0,0E0,0E0,0E0,0E0,0E0,0E0,0E0,0E0,0E0,0E0,0E0,0E0,0E0,0E0,0E0],"parents":[2147483647,0,0,1,1,2,2,3,3,4,4,5,5,6,6,7,7,8,8,9,9,10,10,11,11,12,12,13,13,14,14,15,15,16,16,17,17,18,18,19,19,20,20,21,21,22,22,23,23,24,24,25,25,26,26,27,27,28,28,29,29,30,30,31,31,32,32,33,33,34,34,35,35,36,36,37,37,38,38,39,39,40,40,41,41,42,42,43,43,44,44,45,45,46,46,47,47,48,48,49,49,50,50,51,51,52,52,53,53,54,54,55,55,56,56,57,57,58,58,59,59,60,60,61,61,62,62],"right_children":[2,4,6,8,10,12,14,16,18,20,22,24,26,28,30,32,34,36,38,40,42,44,46,48,50,52,54,56,58,60,62,64,66,68,70,72,74,76,78,80,82,84,86,88,90,92,94,96,98,100,102,104,106,108,110,112,114,116,118,120,122,124,126,-1,-1,-1,-1,-1,-1,-1,-1,-1,-1,-1,-1,-1,-1,-1,-1,-1,-1,-1,-1,-1,-1,-1,-1,-1,-1,-1,-1,-1,-1,-1,-1,-1,-1,-1,-1,-1,-1,-1,-1,-1,-1,-1,-1,-1,-1,-1,-1,-1,-1,-1,-1,-1,-1,-1,-1,-1,-1,-1,-1,-1,-1,-1,-1],"split_conditions":[1.3428572E1,3.857143E0,5.1E1,1.3928572E0,7.428571E0,2.7E1,8.5E1,6.462062E-1,2.5714285E0,1E1,5E0,1.9821428E1,3.2E1,3.7642857E1,1.46E2,1.9613922E-6,2.142857E0,5E0,5E0,4.928571E0,1.1512057E1,1.0285714E1,2.9428572E1,4E0,2.9428572E1,2.7321428E1,3.7642857E1,5E0,5E0,8.5E1,2.2E1,2.0803947E0,5.714286E-1,5E0,4.281958E0,1.2E1,1.8571428E0,1.1E1,3.4642856E0,5E0,5E0,5.572696E0,1.3247541E1,2.1142857E1,2.9428572E1,1.7E1,6.3E1,4E0,3E0,5E0,6.3E1,5E0,1.1E1,5E0,1.7359325E1,1.07E2,2E0,5.2E1,6E0,4.0142857E1,1.28E2,4E0,1.53E2,-5.3187437E-2,-1.8140411E-2,-4.5453828E-2,-3.4766037E-2,-3.45312E-2,-2.1897247E-2,6.2622475E-3,2.6693416E-1,-3.2732864E-3,-1.5502905E-2,1.3429689E-3,1.8890468E-2,3.960192E-2,1.3633415E-2,4.678283E-2,8.13956E-2,4.4688027E-2,9.038676E-2,8.855457E-2,1.5065907E-1,1.3306652E-1,2.2270875E-1,5.1707816E-1,1.2532281E0,1.5434246E-1,5.702447E-1,2.2689235E-1,8.3097833E-1,2.690422E-1,3.9439994E-1,8.7760574E-1,3.0378258E0,1.4413594E-1,3.1208834E-1,1.654216E-1,4.6422005E-1,4.6125895E-1,6.7448086E-1,6.7491055E-1,1.341867E0,5.420134E-1,7.0859486E-1,9.3330854E-1,7.399132E-1,7.531762E-1,9.7608674E-1,1.053879E0,1.3003439E0,8.0060285E-1,-2.3812442E-1,1.9140625E0,1.2126191E0,1.249295E0,1.6488463E0,5.4717937E0,1.8990701E0,9.6829206E-1,2.0373638E0,2.622908E0,3.3274403E0,2.9842966E0,4.415499E0,4.720954E0,7.192312E0],"split_indices":[1,0,4,1,1,4,8,9,1,4,6,1,8,1,4,9,0,6,6,1,9,1,0,6,0,1,1,6,6,4,7,5,1,6,9,7,1,7,1,6,6,9,5,0,0,4,4,4,4,6,8,6,7,6,9,4,8,8,8,0,8,6,8,0,0,0,0,0,0,0,0,0,0,0,0,0,0,0,0,0,0,0,0,0,0,0,0,0,0,0,0,0,0,0,0,0,0,0,0,0,0,0,0,0,0,0,0,0,0,0,0,0,0,0,0,0,0,0,0,0,0,0,0,0,0,0,0],"split_type":[0,0,0,0,0,0,0,0,0,0,0,0,0,0,0,0,0,0,0,0,0,0,0,0,0,0,0,0,0,0,0,0,0,0,0,0,0,0,0,0,0,0,0,0,0,0,0,0,0,0,0,0,0,0,0,0,0,0,0,0,0,0,0,0,0,0,0,0,0,0,0,0,0,0,0,0,0,0,0,0,0,0,0,0,0,0,0,0,0,0,0,0,0,0,0,0,0,0,0,0,0,0,0,0,0,0,0,0,0,0,0,0,0,0,0,0,0,0,0,0,0,0,0,0,0,0,0],"sum_hessian":[2.134246E6,2.086689E6,4.7557E4,1.868301E6,2.18388E5,4.3983E4,3.574E3,1.404583E6,4.63718E5,1.55321E5,6.3067E4,3.276E4,1.1223E4,2.903E3,6.71E2,8.27488E5,5.77095E5,3.17565E5,1.46153E5,1.33753E5,2.1568E4,4.5009E4,1.8058E4,2.1149E4,1.1611E4,6.436E3,4.787E3,9.83E2,1.92E3,5.84E2,8.7E1,6.66449E5,1.61039E5,5.61427E5,1.5668E4,2.26478E5,9.1087E4,1.0423E5,4.1923E4,7.8761E4,5.4992E4,2.1172E4,3.96E2,2.8638E4,1.6371E4,1.8007E4,5.1E1,1.275E4,8.399E3,9.537E3,2.074E3,4.459E3,1.977E3,2.851E3,1.936E3,3.03E2,6.8E2,1.07E3,8.5E2,2.4E2,3.44E2,5.9E1,2.8E1,6.64349E5,2.1E3,1.34664E5,2.6375E4,4.0034E5,1.61087E5,1.5505E4,1.63E2,8.2624E4,1.43854E5,4.7965E4,4.3122E4,3.8098E4,6.6132E4,2.6297E4,1.5626E4,5.7897E4,2.0864E4,4.1598E4,1.3394E4,1.6753E4,4.419E3,3.26E2,7E1,2.8518E4,1.2E2,1.6313E4,5.8E1,1.3725E4,4.282E3,3.9E1,1.2E1,1.062E3,1.1688E4,5.51E2,7.848E3,7.814E3,1.723E3,1.968E3,1.06E2,2.272E3,2.187E3,6.66E2,1.311E3,1.089E3,1.762E3,1.133E3,8.03E2,2.93E2,1E1,2.6E1,6.54E2,6E2,4.7E2,1E1,8.4E2,1.3E1,2.27E2,2.51E2,9.3E1,1.8E1,4.1E1,1.6E1,1.2E1],"tree_param":{"num_deleted":"0","num_feature":"10","num_nodes":"127","size_leaf_vector":"1"}},{"base_weights":[-4.531698E-4,-2.8078482E-1,1.087564E1,-6.030686E-1,2.053497E0,8.959318E0,2.8645472E1,-8.17857E-1,4.5892555E-2,1.4046134E0,3.790024E0,7.193415E0,1.359341E1,2.4770977E1,5.3727444E1,-9.681223E-1,-5.689729E-1,-1.2761727E-1,5.6685764E-1,1.1858065E0,2.6839254E0,2.9610782E0,4.8845797E0,5.9347982E0,9.055774E0,1.1479822E1,1.7245474E1,2.0964169E1,3.1312063E1,4.9299538E1,1.1400758E2,-9.989671E-1,-7.65798E-1,-6.1080784E-1,-2.4429154E-1,-2.3378238E-1,1.3804641E-1,3.026802E-1,9.156628E-1,8.033262E-1,1.6443129E0,2.548794E0,1.2968436E1,2.938845E0,1.7139044E1,4.157898E0,6.311255E0,5.247387E0,8.114486E0,7.4274125E0,1.0266877E1,9.766895E0,1.3119162E1,1.4948743E1,1.9247267E1,1.982955E1,3.1201448E1,2.8506977E1,3.8651943E1,3.7538563E1,5.624081E1,8.676457E1,6.8248057E0,-5.0639886E-2,-4.504516E-2,-4.0985007E-2,-3.1605728E-2,-3.3789355E-2,-2.245601E-2,-1.3352551E-2,1.6980332E-1,-1.7025635E-2,-5.3048027E-3,-1.1498368E-3,1.6597617E-2,3.0359924E-2,4.6265014E-3,3.2058295E-2,5.9984263E-2,3.0330688E-2,6.709954E-2,6.3656494E-2,1.1180126E-1,1.1516088E-1,2.3733215E-1,5.4145473E-1,1.6202221E0,1.3082115E-1,1.9457465E-1,1.1770221E0,5.299506E-1,2.5010386E-1,1.8655875E-1,3.0967814E-1,1.3177247E0,1.3986436E-1,2.796727E-1,2.7418038E-1,4.4068128E-1,2.4017349E-1,4.0506846E-1,4.8228842E-1,6.512932E-1,4.3864915E-1,5.5815196E-1,6.062936E-1,8.277392E-1,6.821691E-1,8.7200326E-1,7.7584565E-1,1.0361934E0,7.651488E-1,1.1073097E0,2.2010372E0,1.3964956E0,1.6784533E0,1.2896174E0,1.2298902E0,1.9952065E0,2.344992E0,1.7386416E0,2.6086984E0,3.864166E0,5.334146E0,3.2454917E0],"categories":[],"categories_nodes":[],"categories_segments":[],"categories_sizes":[],"default_left":[0,0,0,0,0,0,0,0,0,0,0,0,0,0,0,0,0,0,0,0,0,0,0,0,0,0,0,0,0,0,0,0,0,0,0,0,0,0,0,0,0,0,0,0,0,0,0,0,0,0,0,0,0,0,0,0,0,0,0,0,0,0,0,0,0,0,0,0,0,0,0,0,0,0,0,0,0,0,0,0,0,0,0,0,0,0,0,0,0,0,0,0,0,0,0,0,0,0,0,0,0,0,0,0,0,0,0,0,0,0,0,0,0,0,0,0,0,0,0,0,0,0,0,0,0],"id":12,"left_children":[1,3,5,7,9,11,13,15,17,19,21,23,25,27,29,31,33,35,37,39,41,43,45,47,49,51,53,55,57,59,61,63,65,67,69,71,73,75,77,79,81,83,85,87,89,91,93,95,97,99,101,103,105,107,109,111,113,115,117,119,121,123,-1,-1,-1,-1,-1,-1,-1,-1,-1,-1,-1,-1,-1,-1,-1,-1,-1,-1,-1,-1,-1,-1,-1,-1,-1,-1,-1,-1,-1,-1,-1,-1,-1,-1,-1,-1,-1,-1,-1,-1,-1,-1,-1,-1,-1,-1,-1,-1,-1,-1,-1,-1,-1,-1,-1,-1,-1,-1,-1,-1,-1,-1,-1],"loss_changes":[6.511014E6,1.5661866E6,1.8270085E6,2.5498481E5,2.8458312E5,3.962855E5,5.062325E5,5.1400188E4,4.111897E4,5.14635E4,6.2319938E4,8.2160375E4,1.0295525E5,1.120385E5,1.8066975E5,5.34725E3,7.0278438E3,9.624477E3,1.0472227E4,2.7533219E4,3.7284625E4,1.2271844E4,3.0666438E4,3.1320875E4,2.7813625E4,2.364825E4,2.222325E4,3.264275E4,3.3131E4,5.1106E4,1.6929438E4,1.0074375E3,8.1627344E2,4.81525E3,4.8939517E3,3.3225635E3,3.0425688E3,4.138595E3,3.8176875E3,9.069773E3,1.5680172E4,1.4294703E4,1.4114699E4,1.19795625E4,2.3008672E3,7.0474375E3,2.3396938E4,1.34795625E4,9.178281E3,1.0634E4,1.376625E4,5.651875E3,1.45523125E4,7.1899375E3,1.4067875E4,2.6722938E4,1.0673906E4,1.57144375E4,7.0544375E3,4.70425E3,3.0870125E4,3.5055156E3,0E0,0E0,0E0,0E0,0E0,0E0,0E0,0E0,0E0,0E0,0E0,0E0,0E0,0E0,0E0,0E0,0E0,0E0,0E0,0E0,0E0,0E0,0E0,0E0,0E0,0E0,0E0,0E0,0E0,0E0,0E0,0E0,0E0,0E0,0E0,0E0,0E0,0E0,0E0,0E0,0E0,0E0,0E0,0E0,0E0,0E0,0E0,0E0,0E0,0E0,0E0,0E0,0E0,0E0,0E0,0E0,0E0,0E0,0E0,0E0,0E0,0E0,0E0],"parents":[2147483647,0,0,1,1,2,2,3,3,4,4,5,5,6,6,7,7,8,8,9,9,10,10,11,11,12,12,13,13,14,14,15,15,16,16,17,17,18,18,19,19,20,20,21,21,22,22,23,23,24,24,25,25,26,26,27,27,28,28,29,29,30,30,31,31,32,32,33,33,34,34,35,35,36,36,37,37,38,38,39,39,40,40,41,41,42,42,43,43,44,44,45,45,46,46,47,47,48,48,49,49,50,50,51,51,52,52,53,53,54,54,55,55,56,56,57,57,58,58,59,59,60,60,61,61],"right_children":[2,4,6,8,10,12,14,16,18,20,22,24,26,28,30,32,34,36,38,40,42,44,46,48,50,52,54,56,58,60,62,64,66,68,70,72,74,76,78,80,82,84,86,88,90,92,94,96,98,100,102,104,106,108,110,112,114,116,118,120,122,124,-1,-1,-1,-1,-1,-1,-1,-1,-1,-1,-1,-1,-1,-1,-1,-1,-1,-1,-1,-1,-1,-1,-1,-1,-1,-1,-1,-1,-1,-1,-1,-1,-1,-1,-1,-1,-1,-1,-1,-1,-1,-1,-1,-1,-1,-1,-1,-1,-1,-1,-1,-1,-1,-1,-1,-1,-1,-1,-1,-1,-1,-1,-1],"split_conditions":[1.2428572E1,3.4285715E0,4.4E1,1.3214285E0,6.892857E0,2.4E1,8.5E1,4.2857143E-1,2.5714285E0,9E0,4E0,1.7607143E1,2.7321428E1,5.2E1,1.78E2,3.9285713E-1,1.5714285E0,5E0,4E0,4.285714E0,1.1512057E1,2.9428572E1,1.3E1,5E0,1.5E1,5E0,3.3E1,7.3E1,7.4E1,8.2E1,1.53E2,1.9613922E-6,5E0,5E0,1.1E1,1.8214285E0,1.8214285E0,1.2E1,3E0,5E0,4E0,6.3540244E0,5.5E1,1.0285714E1,1E0,1.1E1,5.2E1,5E0,1E1,3E0,5E0,2.4285715E1,2.2607143E1,3.7642857E1,3E1,3E1,6E0,1.2E1,3.7642857E1,9E0,1.46E2,1.27E2,6.8248057E0,-5.0639886E-2,-4.504516E-2,-4.0985007E-2,-3.1605728E-2,-3.3789355E-2,-2.245601E-2,-1.3352551E-2,1.6980332E-1,-1.7025635E-2,-5.3048027E-3,-1.1498368E-3,1.6597617E-2,3.0359924E-2,4.6265014E-3,3.2058295E-2,5.9984263E-2,3.0330688E-2,6.709954E-2,6.3656494E-2,1.1180126E-1,1.1516088E-1,2.3733215E-1,5.4145473E-1,1.6202221E0,1.3082115E-1,1.9457465E-1,1.1770221E0,5.299506E-1,2.5010386E-1,1.8655875E-1,3.0967814E-1,1.3177247E0,1.3986436E-1,2.796727E-1,2.7418038E-1,4.4068128E-1,2.4017349E-1,4.0506846E-1,4.8228842E-1,6.512932E-1,4.3864915E-1,5.5815196E-1,6.062936E-1,8.277392E-1,6.821691E-1,8.7200326E-1,7.7584565E-1,1.0361934E0,7.651488E-1,1.1073097E0,2.2010372E0,1.3964956E0,1.6784533E0,1.2896174E0,1.2298902E0,1.9952065E0,2.344992E0,1.7386416E0,2.6086984E0,3.864166E0,5.334146E0,3.2454917E0],"split_indices":[1,0,4,1,1,4,8,0,1,4,6,1,1,8,4,1,0,6,6,1,9,0,4,6,4,6,4,4,4,4,8,9,6,6,4,1,1,7,4,6,6,9,4,1,8,7,4,4,4,4,6,0,1,1,8,8,8,7,1,7,8,8,0,0,0,0,0,0,0,0,0,0,0,0,0,0,0,0,0,0,0,0,0,0,0,0,0,0,0,0,0,0,0,0,0,0,0,0,0,0,0,0,0,0,0,0,0,0,0,0,0,0,0,0,0,0,0,0,0,0,0,0,0,0,0],"split_type":[0,0,0,0,0,0,0,0,0,0,0,0,0,0,0,0,0,0,0,0,0,0,0,0,0,0,0,0,0,0,0,0,0,0,0,0,0,0,0,0,0,0,0,0,0,0,0,0,0,0,0,0,0,0,0,0,0,0,0,0,0,0,0,0,0,0,0,0,0,0,0,0,0,0,0,0,0,0,0,0,0,0,0,0,0,0,0,0,0,0,0,0,0,0,0,0,0,0,0,0,0,0,0,0,0,0,0,0,0,0,0,0,0,0,0,0,0,0,0,0,0,0,0,0,0],"sum_hessian":[2.135518E6,2.081859E6,5.3659E4,1.829297E6,2.52562E5,4.8437E4,5.222E3,1.374406E6,4.54891E5,1.83861E5,6.8701E4,3.5074E4,1.3363E4,4.525E3,6.97E2,8.5699E5,5.17416E5,3.4124E5,1.13651E5,1.57009E5,2.6852E4,3.9096E4,2.9605E4,2.0932E4,1.4142E4,8.467E3,4.896E3,2.863E3,1.662E3,6.51E2,4.6E1,7.43619E5,1.13371E5,4.58356E5,5.906E4,2.43809E5,9.7431E4,6.4672E4,4.8979E4,8.5603E4,7.1406E4,2.6505E4,3.47E2,3.9036E4,6E1,1.9617E4,9.988E3,1.5916E4,5.016E3,6.035E3,8.107E3,4.144E3,4.323E3,2.284E3,2.612E3,2.58E3,2.83E2,1.206E3,4.56E2,2.44E2,4.07E2,2.3E1,2.3E1,6.51696E5,9.1923E4,8.079E4,3.2581E4,3.26955E5,1.31401E5,5.8694E4,3.66E2,1.32801E5,1.11008E5,5.3226E4,4.4205E4,2.6406E4,3.8266E4,2.4909E4,2.407E4,6.2706E4,2.2897E4,4.3882E4,2.7524E4,2.3843E4,2.662E3,3.14E2,3.3E1,2.9168E4,9.868E3,2.9E1,3.1E1,6.583E3,1.3034E4,9.931E3,5.7E1,1.971E3,1.3945E4,1.055E3,3.961E3,1.235E3,4.8E3,6.621E3,1.486E3,2.425E3,1.719E3,3.357E3,9.66E2,1.503E3,7.81E2,7.44E2,1.868E3,8.76E2,1.704E3,5.5E1,2.28E2,4.17E2,7.89E2,3.9E1,4.17E2,5.2E1,1.92E2,3.44E2,6.3E1,1E1,1.3E1],"tree_param":{"num_deleted":"0","num_feature":"10","num_nodes":"125","size_leaf_vector":"1"}},{"base_weights":[-1.9793238E-3,-2.9793757E-1,9.255236E0,-5.736319E-1,1.804012E0,7.356636E0,2.3538908E1,-7.90347E-1,-7.246574E-3,1.1933428E0,3.0580223E0,5.520116E0,1.0463611E1,1.9619656E1,4.07879E1,-9.2500323E-1,-5.5636245E-1,-1.578321E-1,4.105552E-1,9.213563E-1,1.8719969E0,2.5608215E0,4.2905593E0,4.7104087E0,7.574042E0,8.847054E0,1.3409446E1,1.627868E1,2.4278162E1,3.612093E1,6.7861626E1,-9.5983136E-1,-7.826117E-1,-5.636409E-1,3.0371547E0,-2.5723296E-1,8.986185E-2,3.598422E-1,3.4041874E0,6.824106E-1,1.2784746E0,1.6023186E0,2.5436876E0,2.0811834E0,3.209423E0,3.6377723E0,5.4736967E0,3.980933E0,5.5307617E0,5.2888103E0,8.331965E0,7.989585E0,1.0798238E1,1.1753497E1,1.552798E1,1.2694312E1,1.8775736E1,2.1478611E1,3.0400202E1,2.8457714E1,4.0491356E1,6.4026726E1,9.771771E1,-4.8291296E-2,-4.504612E-2,-4.1789763E-2,-3.4210384E-2,-2.8926E-2,2.1685243E-2,9.1796786E-2,3.9691526E-1,-1.8155301E-2,-3.7034904E-3,-3.0035952E-3,1.7347952E-2,6.444501E-3,3.322815E-2,1.453354E-1,5.0287175E-1,2.1818195E-2,4.3293398E-2,4.1699547E-2,7.329756E-2,6.499363E-2,9.4926864E-2,8.453545E-2,1.401317E-1,1.2713347E-1,8.8490196E-2,2.0682164E-1,1.3288212E-1,1.4694412E-1,2.094177E-1,1.2440296E-1,2.9370296E-1,2.536574E-1,1.7455927E-1,2.6424894E-1,4.0031096E-1,1.6954997E-1,2.880559E-1,3.6372977E-1,4.8139545E-1,3.6503002E-1,5.3063935E-1,5.224789E-1,1.0434744E0,4.929245E-1,6.913409E-1,7.175469E-1,9.005788E-1,3.7100586E-1,7.085664E-1,7.9202694E-1,1.1088951E0,9.782829E-1,1.2355367E0,1.4027871E0,1.9480351E0,8.2638115E-1,1.5441209E0,1.9362395E0,2.6960866E0,2.1824274E0,3.3874047E0,3.1930459E0,6.030082E0],"categories":[],"categories_nodes":[],"categories_segments":[],"categories_sizes":[],"default_left":[0,0,0,0,0,0,0,0,0,0,0,0,0,0,0,0,0,0,0,0,0,0,0,0,0,0,0,0,0,0,0,0,0,0,0,0,0,0,0,0,0,0,0,0,0,0,0,0,0,0,0,0,0,0,0,0,0,0,0,0,0,0,0,0,0,0,0,0,0,0,0,0,0,0,0,0,0,0,0,0,0,0,0,0,0,0,0,0,0,0,0,0,0,0,0,0,0,0,0,0,0,0,0,0,0,0,0,0,0,0,0,0,0,0,0,0,0,0,0,0,0,0,0,0,0,0,0],"id":13,"left_children":[1,3,5,7,9,11,13,15,17,19,21,23,25,27,29,31,33,35,37,39,41,43,45,47,49,51,53,55,57,59,61,63,65,67,69,71,73,75,77,79,81,83,85,87,89,91,93,95,97,99,101,103,105,107,109,111,113,115,117,119,121,123,125,-1,-1,-1,-1,-1,-1,-1,-1,-1,-1,-1,-1,-1,-1,-1,-1,-1,-1,-1,-1,-1,-1,-1,-1,-1,-1,-1,-1,-1,-1,-1,-1,-1,-1,-1,-1,-1,-1,-1,-1,-1,-1,-1,-1,-1,-1,-1,-1,-1,-1,-1,-1,-1,-1,-1,-1,-1,-1,-1,-1,-1,-1,-1,-1],"loss_changes":[5.850292E6,1.199085E6,1.7938255E6,2.2453088E5,1.8372931E5,3.3313225E5,5.238615E5,4.168475E4,3.1849453E4,2.9781672E4,4.8139875E4,6.1001375E4,1.03179E5,9.805825E4,1.7898E5,4.1635625E3,1.2641719E4,9.16183E3,2.0359668E4,9.828484E3,8.357672E3,1.741125E4,1.7421656E4,1.573175E4,1.7926125E4,2.335E4,2.6771625E4,3.2758562E4,4.458875E4,3.993475E4,1.777125E4,2.37125E2,8.63E2,7.1574062E3,5.7363945E3,5.149449E3,4.1079077E3,9.281365E3,7.3636836E3,3.1148535E3,3.8464062E3,2.9484844E3,2.915461E3,4.6208125E3,1.2162703E4,5.588453E3,9.580703E3,7.4375312E3,7.4941875E3,2.298414E3,1.06028125E4,1.7517062E4,1.478675E4,1.6822625E4,9.5839375E3,1.1710219E4,2.1324562E4,1.0734E4,1.5477875E4,1.24730625E4,1.6385E4,1.13644375E4,9.324891E3,0E0,0E0,0E0,0E0,0E0,0E0,0E0,0E0,0E0,0E0,0E0,0E0,0E0,0E0,0E0,0E0,0E0,0E0,0E0,0E0,0E0,0E0,0E0,0E0,0E0,0E0,0E0,0E0,0E0,0E0,0E0,0E0,0E0,0E0,0E0,0E0,0E0,0E0,0E0,0E0,0E0,0E0,0E0,0E0,0E0,0E0,0E0,0E0,0E0,0E0,0E0,0E0,0E0,0E0,0E0,0E0,0E0,0E0,0E0,0E0,0E0,0E0,0E0,0E0],"parents":[2147483647,0,0,1,1,2,2,3,3,4,4,5,5,6,6,7,7,8,8,9,9,10,10,11,11,12,12,13,13,14,14,15,15,16,16,17,17,18,18,19,19,20,20,21,21,22,22,23,23,24,24,25,25,26,26,27,27,28,28,29,29,30,30,31,31,32,32,33,33,34,34,35,35,36,36,37,37,38,38,39,39,40,40,41,41,42,42,43,43,44,44,45,45,46,46,47,47,48,48,49,49,50,50,51,51,52,52,53,53,54,54,55,55,56,56,57,57,58,58,59,59,60,60,61,61,62,62],"right_children":[2,4,6,8,10,12,14,16,18,20,22,24,26,28,30,32,34,36,38,40,42,44,46,48,50,52,54,56,58,60,62,64,66,68,70,72,74,76,78,80,82,84,86,88,90,92,94,96,98,100,102,104,106,108,110,112,114,116,118,120,122,124,126,-1,-1,-1,-1,-1,-1,-1,-1,-1,-1,-1,-1,-1,-1,-1,-1,-1,-1,-1,-1,-1,-1,-1,-1,-1,-1,-1,-1,-1,-1,-1,-1,-1,-1,-1,-1,-1,-1,-1,-1,-1,-1,-1,-1,-1,-1,-1,-1,-1,-1,-1,-1,-1,-1,-1,-1,-1,-1,-1,-1,-1,-1,-1,-1],"split_conditions":[1.1142858E1,3.3214285E0,3.8E1,1.2142857E0,6.178571E0,1.7607143E1,6.7E1,7.515416E-1,2.4285715E0,5E0,5E0,5E0,2.5E1,3.7642857E1,1.2E2,1.4285715E-1,9E0,5E0,6.142857E0,4.571429E0,4.928571E0,8.392858E0,8.785714E0,1.3E1,1.3E1,4E0,2.7321428E1,5E0,6E1,6.3E1,2.9E1,2.608389E-6,1E0,2.2857144E0,3.019119E0,1.8214285E0,1.8214285E0,4E0,2.1E1,3E0,3E0,5E0,4E0,1.3E1,1.1E1,8E0,2E0,1.2E1,2.1142857E1,6E0,1.3428572E1,2.7321428E1,5.5E1,5E0,4E0,2.4285715E1,2.9428572E1,4E0,6E0,3.7642857E1,1.26E2,3E0,1.79E2,-4.8291296E-2,-4.504612E-2,-4.1789763E-2,-3.4210384E-2,-2.8926E-2,2.1685243E-2,9.1796786E-2,3.9691526E-1,-1.8155301E-2,-3.7034904E-3,-3.0035952E-3,1.7347952E-2,6.444501E-3,3.322815E-2,1.453354E-1,5.0287175E-1,2.1818195E-2,4.3293398E-2,4.1699547E-2,7.329756E-2,6.499363E-2,9.4926864E-2,8.453545E-2,1.401317E-1,1.2713347E-1,